{"weights": {"layers": [{"weights": [0.11067675054073334, -0.8029872179031372, 0.09426020830869675, 0.2002296894788742, 0.6026727557182312, -1.2103350162506104, 0.2108418345451355, -0.4005190432071686, -0.19580115377902985, -0.12299821525812149, -0.39989832043647766, -0.09645004570484161, 0.13190911710262299, 0.03482159972190857, -0.3530295491218567, -0.19957756996154785, 0.057881373912096024, 0.12448803335428238, -0.20002847909927368, 0.17923453450202942, -0.10221784561872482, -0.33238452672958374, -0.010339216329157352, 0.26272109150886536, 0.4838307499885559, 0.44592738151550293, -0.03807958960533142, 0.006602578330785036, 0.43965795636177063, 0.228428453207016, 0.08886469155550003, 0.45081883668899536, -0.006143840961158276, -0.14187592267990112, 0.058187633752822876, -0.17380337417125702, 0.21690140664577484, -0.11958948522806168, -0.2904130816459656, -0.07377362251281738, -0.03448919206857681, 0.1167106181383133, 0.04564930126070976, 0.08255641162395477, 0.051887139678001404, 0.07735119014978409, 0.14173252880573273, 0.4156431555747986, -0.02562040649354458, -0.18533068895339966, 0.10261383652687073, -0.16411955654621124, -0.07068279385566711, 0.084784135222435, -0.08967623859643936, -0.27310052514076233, -0.006999424658715725, -0.11126068979501724, 0.3983897864818573, 0.3329979181289673, 0.11056607216596603, 0.28853005170822144, 0.033789217472076416, -0.046247243881225586, -0.08656521141529083, -0.06999609619379044, -0.057106826454401016, -0.1497603803873062, 0.5131513476371765, -0.4122812747955322, -0.9860523343086243, -0.9341514706611633, -0.01991850882768631, 0.10160496830940247, -0.06680560111999512, 0.7928709387779236, -0.5636827349662781, -0.11121021211147308, 0.17332924902439117, -0.21292515099048615, -0.08901127427816391, 0.10913191735744476, 0.038740817457437515, 0.004114865325391293, 0.2208097130060196, 0.09548249840736389, -1.0454132556915283, 0.10026299953460693, -0.0042240554466843605, 0.24735669791698456, -0.6104013323783875, -1.0423188209533691, 0.04200923442840576, 0.30884310603141785, -0.19366025924682617, 0.10815392434597015, -0.4415934085845947, 0.11709146946668625, 0.33597326278686523, -0.21669450402259827, 0.2954076826572418, 0.33912843465805054, -0.0014038439840078354, 0.14553046226501465, 0.3139791190624237, 0.5589830279350281, -0.083136186003685, 0.9795110821723938, -1.1270818710327148, 0.06371322274208069, 0.3135574162006378, 0.2677214741706848, 0.2807527184486389, -0.5239919424057007, -0.32186511158943176, 0.12100791931152344, 0.31149646639823914, -0.1530478149652481, -0.0683712288737297, -0.0257576797157526, -0.14692139625549316, 0.16063471138477325, -0.01380830630660057, -0.12944535911083221, 0.01841811090707779, 0.3132040202617645, -0.23879823088645935, -0.15244625508785248, -0.3800128400325775, -0.3562970757484436, 0.05470731109380722, 0.1741807460784912, 0.12845422327518463, -0.0015155267901718616, -0.7758250832557678, -0.0990263968706131, -0.6526605486869812, -0.554587185382843, 0.30855047702789307, 0.6653743982315063, 0.1384125053882599, 0.49511227011680603, -0.18452678620815277, 0.041307613253593445, 0.21501098573207855, -0.1584094762802124, -0.44688278436660767, -0.34782707691192627, 0.15001852810382843, 0.037828680127859116, 0.1293976604938507, -0.033718619495630264, 0.011328025721013546, -0.21273823082447052, 0.2813703715801239, -0.31281760334968567, -0.1826382279396057, 0.15343265235424042, -0.013729595579206944, -0.19547037780284882, 0.3635459840297699, -0.17974501848220825, -0.28492915630340576, 0.19264081120491028, -0.03779643028974533, 0.4496435225009918, -0.22060991823673248, 0.34913328289985657, -0.0825728178024292, 0.10339242219924927, 0.19686132669448853, -0.005359159782528877, -0.16137680411338806, -0.5707348585128784, -0.004505223594605923, -0.0019203651463612914, 0.006023872643709183, 0.018930304795503616, -0.2055690884590149, -0.023189131170511246, -0.03132801502943039, -0.2134190797805786, 0.2901809811592102, -0.19160538911819458, 0.06509504467248917, 0.11879228800535202, 0.19008900225162506, 0.13060219585895538, -0.013118486851453781, 0.0818566307425499, 0.34081897139549255, 0.12693029642105103, 0.162831112742424, 0.11671149730682373, -0.1255766600370407, -0.17683586478233337, 0.01551152765750885, -0.18062447011470795, -0.05186675488948822, -0.10819187015295029, -0.023470496758818626, 0.09055116772651672, 0.01264582946896553, -0.3318654000759125, -0.5922019481658936, 0.7534751892089844, -0.13023363053798676, 0.11409018188714981, -0.3562028408050537, -0.05210468918085098, -0.4070018529891968, 0.5402886271476746, -0.1542457789182663, -0.08521347492933273, 0.19634763896465302, -0.16695095598697662, -0.14670664072036743, 0.24314172565937042, -0.132036954164505, -0.0667293593287468, 0.09051477164030075, -0.2634446620941162, 0.38827449083328247, 0.44707849621772766, 0.9340465068817139, 0.10483933985233307, 0.16275694966316223, 0.08370348811149597, 0.2245129495859146, -0.051642514765262604, -0.20707949995994568, 0.03868696838617325, -0.5863462090492249, 0.07086260616779327, 0.005159846972674131, -0.3389630913734436, -0.3665277063846588, -0.1444309651851654, -0.28117072582244873, 0.2916852831840515, -0.04710111767053604, 0.3622119128704071, 0.14505872130393982, -0.19226567447185516, -0.29448506236076355, -0.017984390258789062, 0.27140364050865173, 0.09515313804149628, -0.08868670463562012, 0.21560831367969513, -0.0002089842309942469, 0.1650242954492569, 0.11532548815011978, 0.19686350226402283, -0.01405530795454979, 0.12401491403579712, -0.00885852798819542, -0.11184133589267731, 0.06601088494062424, -0.07097194343805313, -0.05632317438721657, -0.008947857655584812, 0.002599911065772176, 0.3667837083339691, 0.1866772174835205, -0.09889593720436096, -0.12856748700141907, 0.03796343505382538, 0.4583379626274109, -0.32085391879081726, -0.04975325986742973, -0.2698993384838104, 0.8362178206443787, -0.5450624227523804, 0.8433763384819031, 0.7123464941978455, 0.504235029220581, -0.2180980145931244, -0.6714741587638855, -0.020618431270122528, -0.39186662435531616, -0.2854953110218048, -0.2959221303462982, -0.2706277668476105, 0.4216202199459076, -0.3359382748603821, 0.15280544757843018, 0.09170721471309662, -0.1448594182729721, -0.1707874834537506, -0.05486293509602547, -0.12722373008728027, 0.5346651077270508, -0.11463116109371185, 0.39725974202156067, 0.3223145604133606, -0.21387295424938202, 0.2894015908241272, 0.3548239469528198, -0.631732165813446, -0.39752069115638733, 0.3791070282459259, 0.13797037303447723, -0.043189942836761475, -0.2359393984079361, -0.026599405333399773, 0.029182860627770424, 0.181837260723114, 0.024066707119345665, 0.07638788223266602, -0.18302668631076813, 0.1956152766942978, -0.05410382151603699, -0.01727473922073841, 0.169915109872818, 0.08365042507648468, -0.10020077228546143, 0.017021233215928078, 0.06808348000049591, 0.1048375591635704, 0.04567176476120949, -0.23286543786525726, -0.3096262514591217, -0.05838262289762497, 0.018789686262607574, -0.32664671540260315, -0.15286317467689514, 0.31100189685821533, 0.331214040517807, 0.27308207750320435, 0.37007763981819153, -0.06118755787611008, -0.20641778409481049, -0.14289413392543793, 0.017380695790052414, 0.05955817177891731, 0.21971306204795837, -0.15824748575687408, 0.11065706610679626, -0.05357682332396507, 0.6903958916664124, -0.18476396799087524, -0.09279605746269226, -0.17626138031482697, 0.29084086418151855, 0.023776909336447716, 0.14059048891067505, -1.1134116649627686, 0.2613413631916046, -0.05245735123753548, 0.16880270838737488, -0.28147202730178833, -0.2475200742483139, 0.13945811986923218, 0.22604602575302124, 0.19519080221652985, -0.39262086153030396, 0.026769399642944336, 0.30620038509368896, 0.3081711530685425, 0.5802925229072571, -0.23163136839866638, -0.11031817644834518, -0.5653648376464844, 0.46092015504837036, -0.04133697226643562, 0.0615922175347805, 0.07704111188650131, -0.16039998829364777, 0.37511953711509705, 0.10639826953411102, -0.11059286445379257, -0.029998797923326492, -0.1373518407344818, -0.014500685036182404, 0.3675903379917145, -0.09853094816207886, 0.33483046293258667, 0.0022155919577926397, -0.33836013078689575, 0.0926370844244957, 0.015201759524643421, 0.06768489629030228, 0.1326497346162796, 0.005475641693919897, 0.08129975199699402, 0.09179569780826569, 0.27724385261535645, -0.24201400578022003, 0.11234971880912781, -0.2551341950893402, 0.07373976707458496, 0.14745579659938812, -0.10213055461645126, -0.19982433319091797, 0.4562188386917114, 0.14485566318035126, -0.02685846947133541, -0.3967374563217163, 0.13420072197914124, 0.14210198819637299, 0.2703819274902344, -0.09480778127908707, -9.088741535379086e-06, -0.21954414248466492, 0.06170516833662987, 0.16971561312675476, -0.06845168769359589, 0.13957396149635315, -0.19456331431865692, -1.0598094463348389, -1.4060121774673462, 0.43261680006980896, -0.6222246885299683, -0.9582247734069824, 1.254492163658142, 0.5912133455276489, -0.18219849467277527, -0.10572285950183868, 0.011430199258029461, 0.1552230715751648, -0.6908127069473267, 0.28183698654174805, 0.3184846043586731, 0.19681771099567413, -0.15371006727218628, -0.6073914766311646, 0.07100655138492584, -0.3523626923561096, 0.19548657536506653, -0.21279147267341614, -0.5758951902389526, -0.08146834373474121, -0.43393057584762573, -0.6060020923614502, -1.0043375492095947, -0.30501195788383484, -0.23236916959285736, 0.18716441094875336, -0.03750882297754288, 0.43786555528640747, 0.36912715435028076, -0.025207705795764923, 0.5137979984283447, -0.005979225039482117, 0.5160423517227173, 0.5068113803863525, 0.1453155130147934, 0.2456510066986084, 0.03027644008398056, 0.38288867473602295, 0.3004606366157532, -0.06468787044286728, 0.0228070430457592, -0.2940879166126251, 0.5921487212181091, -0.17993365228176117, -0.07531916350126266, 0.08112189173698425, -0.19622185826301575, 0.09583640843629837, 0.03778621926903725, 0.007238364312797785, -0.2071552574634552, 0.08591455966234207, -0.3846704065799713, -0.09587053209543228, 0.09542226791381836, -0.3260192573070526, 0.0597967803478241, -0.11066581308841705, 0.1611601859331131, -0.38533100485801697, -0.18125125765800476, 0.04281192272901535, -0.028141364455223083, 0.13440297544002533, 0.10122009366750717, -1.3034144639968872, -1.5567855834960938, -0.024165108799934387, -0.5133901238441467, 0.6755875945091248, 0.7013667821884155, -0.528708279132843, 0.10468368977308273, -0.022541310638189316, -0.20990435779094696, 0.43355828523635864, -0.4134420156478882, -0.03929831087589264, 0.01985708810389042, 0.08344502747058868, -0.1493431180715561, -0.8480466604232788, 0.0037260553799569607, -0.14714805781841278, 0.14516830444335938, -0.28210192918777466, -0.6085053086280823, 0.055852871388196945, -0.32477468252182007, 0.11288383603096008, 0.08834164589643478, -0.13547715544700623, 0.06006259843707085, -0.22609497606754303, -0.727681577205658, 0.3655546307563782, -0.055604513734579086, 0.06564487516880035, 0.15148785710334778, -0.0340917631983757, -0.10527630895376205, -0.7726373672485352, 0.03495635464787483, 0.008312195539474487, -0.5203824639320374, 0.3185018301010132, 0.27245819568634033, 0.21334712207317352, 0.5673629641532898, -0.292361855506897, 0.29572731256484985, 0.021004315465688705, 0.28007394075393677, -0.2276386022567749, -0.13542015850543976, 0.058109350502491, -0.09858740121126175, 0.09918469935655594, -0.032015372067689896, 0.18680261075496674, -0.14914759993553162, -0.3345005512237549, -0.6544573307037354, 0.0098499096930027, 0.13943834602832794, 0.21155846118927002, 0.020386407151818275, -0.027371782809495926, -0.0919412299990654, -0.9433168768882751, -0.4446123242378235, 1.1892591714859009, -0.46107128262519836, -1.0324102640151978, -0.8702847361564636, -0.5721928477287292, -0.3224366307258606, -0.8491520285606384, 0.6417545080184937, -0.4407114088535309, -0.007102477364242077, -0.11930684745311737, -0.27628427743911743, -0.05007193237543106, -0.1258331835269928, -0.15112712979316711, 0.2503224015235901, -0.019119689241051674, -0.17432326078414917, 0.19327528774738312, 0.48213332891464233, 0.0046634553000330925, 0.4815276265144348, 0.20787447690963745, -0.42798903584480286, -0.28815701603889465, -0.8809193968772888, -0.44983309507369995, -0.690494179725647, 0.7600414156913757, 0.5234026908874512, -0.051088619977235794, 0.210544615983963, -0.11536173522472382, -0.48766183853149414, 0.30245673656463623, -0.319656640291214, 0.19823803007602692, -0.5766897797584534, 0.5932960510253906, -0.6746752858161926, 0.3469048738479614, -0.10711059719324112, 0.0821051150560379, -0.06798848509788513, 0.42399027943611145, -0.07098574191331863, -0.33815300464630127, 0.35301297903060913, 0.0490659736096859, -0.012160293757915497, 0.16228841245174408, 0.10657204687595367, -0.09886973351240158, -0.18878675997257233, -0.24546773731708527, 0.1501411497592926, -0.18128184974193573, 0.13936910033226013, -0.08039978891611099, -0.19113770127296448, 0.3061704933643341, -0.11775536090135574, 0.03633866831660271, -0.2414683997631073, 0.5246603488922119, 0.09907284379005432, -0.3416673243045807, -0.06030423566699028, -1.0976955890655518, -0.9416596293449402, 0.6686210632324219, 0.5163524150848389, -0.011230033822357655, 0.5127109885215759, -0.6033157110214233, 0.387871652841568, -0.046685390174388885, -0.04410101845860481, 0.08197928220033646, 0.12705986201763153, -0.1316419392824173, -0.6804712414741516, 0.07970988750457764, 0.06120120733976364, 0.15742824971675873, 0.1761617809534073, 0.43657493591308594, 0.17370851337909698, -0.033358581364154816, 0.11866540461778641, 0.8550131916999817, 0.10902098566293716, -0.5853975415229797, -0.36581742763519287, 0.02695264294743538, -0.2835713028907776, -0.2461206316947937, 0.29072296619415283, -0.4016956090927124, 0.29954221844673157, 0.11960997432470322, 0.11142771691083908, 0.4277367889881134, 0.18051044642925262, 0.165190652012825, -0.03985953703522682, -0.022495079785585403, 0.40878787636756897, 0.19273045659065247, -0.2073536068201065, -0.31302744150161743, -0.24461494386196136, -0.23499849438667297, -0.19671572744846344, 0.1084010899066925, 0.1363149732351303, -0.01481291651725769, -0.1023736298084259, -0.01112951710820198, 0.07389593124389648, 0.18108607828617096, -0.07270026206970215, -0.11770866066217422, 0.24676650762557983, 0.039403196424245834, -0.11980714648962021, 0.12279678881168365, -0.3239172101020813, 0.1323818415403366, -0.2548633813858032, -0.12185630947351456, -0.1665247231721878, -0.17590664327144623, -0.2808227837085724, -0.23342223465442657, 0.21704575419425964, -0.21078327298164368, 0.19289900362491608, -0.6384000778198242, -0.3545345664024353, -0.27110177278518677, -0.06991884112358093, -0.36332380771636963, -0.5325592756271362, -0.673525869846344, 0.14528286457061768, 0.09154947102069855, 0.16474872827529907, -0.24733686447143555, -0.6220821142196655, -0.17697137594223022, 0.08005014806985855, -0.11371326446533203, -0.0266045480966568, -0.45208513736724854, 0.2560229003429413, -0.12737269699573517, -0.26032745838165283, -0.5425376296043396, 0.28353238105773926, 0.016294725239276886, -0.03515765815973282, 0.31494763493537903, -0.1786758452653885, 0.19782540202140808, 0.6646657586097717, -0.0613841786980629, -0.012832882814109325, 0.2567557692527771, 0.1558152735233307, 0.2451968938112259, 0.10954473912715912, -0.1450115144252777, 0.41794541478157043, 0.010351154953241348, -0.018610751256346703, 0.057535164058208466, 0.15275278687477112, -0.3999538719654083, -0.06533137708902359, 0.17910940945148468, 0.20756494998931885, -0.2757326066493988, 0.12604230642318726, -0.043636783957481384, -0.010214393027126789, -0.1934092789888382, 0.04553690180182457, 0.39807552099227905, -0.0632919892668724, -0.04868514835834503, -0.039087146520614624, -0.2682722210884094, -0.06241666525602341, -0.34723249077796936, -0.3310171663761139, 0.18249666690826416, 0.9636178016662598, -0.09768261760473251, 0.17508938908576965, -0.25782209634780884, -0.4737880825996399, 0.1544974148273468, 0.14564485847949982, 0.9841421842575073, -0.8477820158004761, -0.45358654856681824, -0.2340558022260666, 0.23473837971687317, -1.2873032093048096, 0.12808214128017426, 0.15117612481117249, -0.10024495422840118, 0.18197262287139893, -0.00712780375033617, 0.016693422570824623, -0.14490628242492676, -0.1604478359222412, 0.1301458775997162, 0.0684240311384201, 0.12035845965147018, 0.012432035990059376, -0.00226040743291378, -0.0858680009841919, 0.15902870893478394, 0.3105424642562866, -0.2425990104675293, -0.8581697344779968, -0.10851532965898514, 0.05823389068245888, -0.16571097075939178, -0.2908366620540619, -0.2670184373855591, 0.14808571338653564, 0.12676648795604706, -0.1537352055311203, 0.3173614740371704, 0.27914053201675415, 0.4023244082927704, -0.16557848453521729, 0.3633311092853546, 0.4279594421386719, 0.13668081164360046, 0.07882246375083923, -0.11913084983825684, 0.141118124127388, -0.24121715128421783, -0.07257386296987534, 0.10367869585752487, 0.27542486786842346, -0.2193419188261032, -0.27111926674842834, 0.12949690222740173, -0.17994266748428345, -0.03848893567919731, 0.1844741553068161, -0.11290132999420166, -0.16060224175453186, 0.27394816279411316, -0.00052767398301512, -0.12073497474193573, 0.04961996152997017, -0.27050405740737915, 0.28685083985328674, 0.040184490382671356, 0.254458487033844, 0.2584608197212219, -0.1874174326658249, -0.33070334792137146, -0.01953786052763462, -0.19790245592594147, 0.08547797799110413, -0.7405571937561035, 0.16740936040878296, -0.13495442271232605, -0.13854627311229706, 0.07042663544416428, 0.23070383071899414, 0.016594158485531807, 0.16875068843364716, -0.4570886492729187, -0.12543027102947235, -0.28972747921943665, -0.009301317855715752, -0.0006390236085280776, -0.06221984699368477, 0.017836805433034897, -0.02306569367647171, -0.04216625913977623, 0.21213482320308685, 0.5642597675323486, 0.19001704454421997, -0.21702976524829865, -0.0053346045315265656, -0.08244708925485611, 0.30573520064353943, -0.2017403244972229, 0.2278756946325302, 0.09312833100557327, 0.13482746481895447, -0.12963128089904785, 0.4638453722000122, 0.28749313950538635, 0.15723608434200287, -0.1234549805521965, 0.08716516196727753, -0.12940426170825958, -0.056269388645887375, -0.14404621720314026, -0.019796181470155716, -0.18785636126995087, -0.30033737421035767, 0.29318124055862427, -0.03987577185034752, 0.6726682782173157, -0.05065440386533737, -0.035389479249715805, 0.005536730866879225, -0.133595272898674, 0.29019176959991455, -0.11129027605056763, 0.19632992148399353, 0.17392295598983765, 0.19834351539611816, 0.1415148675441742, 0.2101615071296692, -0.009892507456243038, -0.3118705153465271, -0.2409440129995346, -0.2836104929447174, -0.048564620316028595, -0.02901577390730381, 0.2514532208442688, 0.057243701070547104, 0.22071045637130737, -0.31086835265159607, -0.28519681096076965, -0.06971273571252823, 0.3001531660556793, -0.33702853322029114, -0.08371636271476746, -0.3133891522884369, -0.16081508994102478, -0.301993191242218, -0.02723625674843788, 0.2188136726617813, -0.7046213150024414, 0.3126278221607208, -0.5496285557746887, 0.08539840579032898, 0.053382329642772675, -0.12864622473716736, -0.10098020732402802, -0.06166539713740349, -0.4564237594604492, 0.187239408493042, -0.013280153274536133, -0.0428292341530323, 0.09784018993377686, 0.430010050535202, -0.08873017132282257, -0.5296339988708496, 0.597090482711792, -0.32200539112091064, 0.45431315898895264, -0.025100141763687134, -0.5207628607749939, 0.14905601739883423, -0.3340885639190674, 0.4461268484592438, -0.17517554759979248, 0.012856346555054188, 0.029439013451337814, 0.02212407812476158, -0.002746408572420478, 0.05669504404067993, -0.21885976195335388, 0.19410304725170135, 0.28419047594070435, -0.043734267354011536, 0.43708905577659607, 0.32484301924705505, 0.2108234167098999, -0.015357984229922295, -0.3805001974105835, 0.09035631269216537, 0.46643149852752686, 0.021067393943667412, 0.1668892800807953, 0.0386800616979599, -0.11422749608755112, -0.18041957914829254, -0.0016532965237274766, 0.07330870628356934, 0.014406079426407814, -0.2109033465385437, 0.13189120590686798, 0.05718383193016052, 0.08348385244607925, -0.24519410729408264, -0.4740724563598633, 0.06508027017116547, -0.2022772878408432, 0.06062783673405647, -0.17110098898410797, -0.2146417498588562, -0.38302484154701233, 0.15523912012577057, -0.23269063234329224, -0.15507936477661133, -1.204299807548523, -0.9679833650588989, 0.003875044407323003, -0.2649385929107666, 0.040141794830560684, -0.07971935719251633, -0.03901511803269386, 0.1445445567369461, 0.34235090017318726, -0.17249521613121033, -0.10522891581058502, 0.046330858021974564, -0.0005403108661994338, 0.27594858407974243, -0.04903465509414673, 0.00494652334600687, 0.5877348184585571, -0.8569867610931396, -0.6553182005882263, -0.1260509043931961, 0.19065356254577637, 0.07613109052181244, -0.20936110615730286, 0.22425693273544312, 0.27708369493484497, -0.1840868443250656, -0.009815837256610394, 0.2236422896385193, -0.3511239290237427, 0.29054751992225647, 0.014530534856021404, 0.07886754721403122, 0.025517476722598076, 0.07858055830001831, -0.2484389990568161, 0.06421007961034775, 0.10880900174379349, -0.13199812173843384, -0.3462182283401489, -0.12982599437236786, -0.295629620552063, -0.14667801558971405, 0.1862528771162033, 0.015431146137416363, -0.004282706417143345, -0.4956124722957611, -0.08848600089550018, -0.1801474392414093, 0.1974782943725586, -0.3640122413635254, 0.11202775686979294, -0.13561801612377167, -0.17498083412647247, 0.17659661173820496, 0.20057563483715057, 0.10346987098455429, -0.31142041087150574, 0.15784215927124023, -0.3388971984386444, 0.16886375844478607, 0.24619799852371216, 0.31076231598854065, 0.03085433505475521, -0.038817357271909714, -0.4202728569507599, 0.03460213169455528, 0.12778036296367645, -0.3507860600948334, -0.7045385241508484, -0.6096931099891663, -0.004016079008579254, -1.0790746212005615, 0.8743825554847717, -0.4113937318325043, 0.320719450712204, -0.12297174334526062, 0.6795310974121094, -0.41434764862060547, -0.2545253336429596, -0.16104736924171448, -0.21488754451274872, -0.11181310564279556, -0.04264197498559952, -0.27922582626342773, -0.27516791224479675, 0.09074438363313675, -0.0369531586766243, 0.8323338627815247, -0.47012612223625183, -0.4409029185771942, -0.4192788600921631, 0.49529677629470825, -0.36728259921073914, 0.22337475419044495, -0.2591935098171234, 0.10265161842107773, 0.02039394900202751, -0.19685713946819305, -0.06801595538854599, 0.12877444922924042, 0.17905160784721375, -0.01412955205887556, -0.14245054125785828, -0.5695412158966064, 0.2276223599910736, -0.416645348072052, -0.5515392422676086, 0.27331382036209106, 0.10261417925357819, -0.18004487454891205, 0.2755899131298065, -0.0020805534441024065, 0.7964280247688293, 0.36746373772621155, 0.2754524350166321, 0.04587893560528755, 0.4675688147544861, -0.2609576880931854, 0.12892217934131622, -0.3175817131996155, 0.2651766836643219, -0.010135444812476635, 0.23952901363372803, 0.15986938774585724, -0.5382941961288452, -0.03448503836989403, -0.06814438849687576, -0.17889750003814697, -0.25367629528045654, -0.06664453446865082, 0.07673215121030807, 0.0863766297698021, -0.2721670866012573, -0.2658490240573883, 0.44567441940307617, 0.09661095589399338, -1.3332102298736572, -1.385120153427124, 0.23564408719539642, -0.20689290761947632, -1.020285725593567, -0.030897006392478943, 0.013503041118383408, 0.13555771112442017, 0.23139891028404236, 0.08018223196268082, -0.05952264368534088, 0.5613939166069031, -0.19580984115600586, 0.154756560921669, 0.16148985922336578, -0.03107127733528614, 0.15524202585220337, -0.44732216000556946, -0.5709078311920166, -0.06448546051979065, -0.19268661737442017, -0.16622117161750793, 0.019231267273426056, -0.2561573386192322, 0.050241537392139435, 0.12494338303804398, -0.38801902532577515, -0.13621452450752258, 0.02792900986969471, 0.10789373517036438, 0.059952083975076675, 0.1420392096042633, -0.049628470093011856, 0.06503739207983017, 0.22483226656913757, -0.581592857837677, -0.6133818626403809, 0.4602097272872925, 0.0654134526848793, -0.0747094675898552, 0.2513622045516968, 0.020490100607275963, 0.034635547548532486, 0.15046590566635132, 0.21977509558200836, -0.3571586608886719, 0.08236569911241531, -0.1951834112405777, -0.10419489443302155, -0.31730473041534424, 0.21041977405548096, 0.11815686523914337, -0.2627618908882141, 0.05734546110033989, -0.13156932592391968, -0.11062273383140564, 0.2441675364971161, 0.041024450212717056, -0.2345944494009018, -0.10216009616851807, -0.2045087367296219, -0.018219253048300743, 0.2475120574235916, 0.09038867056369781, 0.15684601664543152, 0.11025288701057434, 0.4385053813457489, -0.0659121498465538, -0.7481504678726196, -0.6841858625411987, -0.23730520904064178, -0.37548714876174927, -0.10491792112588882, 0.27571848034858704, 0.43547436594963074, -0.007811190560460091, 0.19926945865154266, -0.1420244425535202, 0.1131272241473198, 0.05373569577932358, -0.11235428601503372, 0.09556792676448822, -0.07483148574829102, 0.05244862288236618, -0.5768458843231201, 0.5526241064071655, 0.11477337777614594, 0.2145826369524002, -0.9511699676513672, 0.11655005812644958, 0.024718642234802246, -0.06491941213607788, 0.10762722045183182, 0.020225096493959427, 0.16740594804286957, 0.0567578561604023, -0.10239353030920029, 0.09626486897468567, 0.039743054658174515, 0.02947099506855011, -0.31347185373306274, -0.5319549441337585, 0.17428447306156158, 0.02919725514948368, -0.1768161654472351, -0.7147330045700073, 0.02391844615340233, 0.2847497761249542, -0.5616589188575745, 0.449592262506485, -0.019704798236489296, -0.25873497128486633, -0.47386297583580017, -0.388343870639801, 0.047116007655858994, 0.06391309201717377, 0.23257894814014435, 0.262666255235672, -0.07145143300294876, -0.1570301353931427, -0.2296438366174698, -0.013477816246449947, -0.11602892726659775, 0.008967575617134571, -0.5046955943107605, -0.05948934704065323, -0.16341674327850342, -0.003332901978865266, -0.053814779967069626, -0.18066346645355225, 0.6384180784225464, 0.03958777338266373, 0.030824486166238785, 0.3550920784473419, -0.24874746799468994, -0.01651643216609955, -0.39389804005622864, -0.1699104905128479, -0.4183829128742218, -2.578758716583252, 0.4611448049545288, 0.6520205736160278, -0.1126193255186081, -0.01505723875015974, 0.3243269622325897, -0.15626153349876404, 0.02776527963578701, 0.07225336879491806, -0.03819187730550766, 0.007087050937116146, 0.07796259969472885, -0.0012481637531891465, 0.23522548377513885, -0.04628283530473709, 0.5031134486198425, 0.23942291736602783, -0.09986450523138046, 0.4519519805908203, 0.17027106881141663, 0.3262330889701843, 0.28048136830329895, -0.15155044198036194, -0.13893747329711914, 0.21216502785682678, 0.42695438861846924, 0.22279465198516846, 0.11365366727113724, 0.008074041455984116, 0.12428068369626999, 0.10208927094936371, 0.1312006413936615, 0.18707777559757233, 0.02862047404050827, 0.13803891837596893, 0.05729813128709793, 0.14251045882701874, 0.048496589064598083, 0.07416284084320068, 0.18896707892417908, 0.21154290437698364, 0.20043841004371643, 0.1943623125553131, -0.06184738129377365, 0.1405363380908966, -0.050953209400177, 0.13076043128967285, -0.02241874299943447, 0.1838589459657669, 0.13553404808044434, 0.024793308228254318, -0.35102784633636475, 0.12706054747104645, 0.14740204811096191, -0.0792987197637558, 0.022325381636619568, 0.11480356007814407, 0.04244407266378403, -0.5079739689826965, -0.1139465942978859, -0.17920157313346863, -0.026855088770389557, -0.08453823626041412, -0.009111936204135418, -0.4732416272163391, 0.4722059965133667, 0.8736906051635742, 0.09720552712678909, 0.1490534394979477, 0.5347816348075867, 0.2278132140636444, 0.30820411443710327, -0.11863189935684204, -0.3466828763484955, -0.10799267143011093, 0.3697744607925415, -0.05530887097120285, 0.16711470484733582, -0.011928894557058811, -0.047972939908504486, 0.15183961391448975, 0.04755426570773125, 0.34264400601387024, 0.5801538825035095, -0.09181394428014755, 0.4222846031188965, 0.13623230159282684, 0.15047350525856018, 0.11385004222393036, -0.24427682161331177, 0.09363818168640137, -0.258839875459671, 0.25883224606513977, -0.17384031414985657, -0.019509173929691315, -0.25360170006752014, 0.021936293691396713, -0.012114384211599827, 0.0014313625870272517, 0.13146215677261353, -0.17268402874469757, 0.005372609477490187, -0.143574059009552, 0.05462468042969704, 0.2588861882686615, -0.2904359698295593, -0.1429399996995926, -0.274734765291214, 0.09868161380290985, 0.06533149629831314, -0.01055886223912239, -0.15075568854808807, -0.13577581942081451, -0.19189481437206268, 0.17579729855060577, -0.0033780380617827177, 0.10858733206987381, -0.04594595357775688, 0.027365993708372116, 0.03104007989168167, -0.25440362095832825, 0.28218281269073486, -0.0019426055951043963, -0.3629039227962494, 0.06890879571437836, 0.27564942836761475, 0.1381668597459793, -0.10854319483041763, 0.10155674815177917, -0.010486448183655739, 0.2023719996213913, -0.30385419726371765, -0.2995375692844391, -0.654624879360199, -0.9628016948699951, -0.9047868847846985, 0.21954596042633057, -0.932023823261261, -0.04495873674750328, -0.33468982577323914, 0.20773737132549286, 0.3072124719619751, 0.03432841598987579, 0.3979935348033905, 0.06461381167173386, -0.10884350538253784, 0.2765434980392456, -0.215753972530365, -0.06299585103988647, 0.1863047033548355, 0.3678167760372162, 0.32424822449684143, 0.1836877465248108, -0.28410860896110535, -0.5803683996200562, -0.6575674414634705, 0.014802590012550354, -0.12780848145484924, 0.06727169454097748, -0.5601195693016052, 0.23919671773910522, 0.07796791940927505, -0.1865157186985016, 0.0519268624484539, -0.0014665336348116398, 0.281353235244751, 0.011560436338186264, 0.1655961573123932, -0.6724277138710022, -0.8914749026298523, -0.48340097069740295, 0.1914156824350357, 0.26358023285865784, 0.007831807248294353, -0.3175196945667267, -0.02085915021598339, 0.16087916493415833, -0.27253568172454834, -0.6149967908859253, -0.1128055676817894, -0.14848877489566803, -0.2743224799633026, -0.15458302199840546, -0.010011788457632065, 0.017132310196757317, 0.3573523163795471, 0.08387339860200882, -0.31795647740364075, 0.2006956785917282, -0.08921857923269272, 0.17074894905090332, -0.08820949494838715, -0.26463523507118225, -0.4700837731361389, -0.2578073740005493, -0.16367952525615692, 0.26067209243774414, -0.010997975245118141, 0.3358830213546753, 0.9321300983428955, -0.32740992307662964, -1.7860625982284546, -1.7578084468841553, -0.505791187286377, 0.9961104989051819, 0.2662094831466675, -0.11746220290660858, 0.20968236029148102, 0.020481964573264122, -0.4198876619338989, -0.17474372684955597, -0.005278971511870623, -0.04209263622760773, -0.039277173578739166, 0.1125582680106163, 0.18614470958709717, -0.0018807181622833014, 0.4561985731124878, -0.6312257647514343, -0.25389716029167175, 0.07453933358192444, -0.6934978365898132, 0.3602555990219116, -0.2917957901954651, -0.30560535192489624, -0.005286115687340498, -0.10780643671751022, 0.4321182072162628, 0.44330939650535583, -0.5796520113945007, 0.007848239503800869, -0.04141586273908615, 0.163798525929451, 0.036391668021678925, 0.03604311868548393, 0.1733318418264389, 0.17977075278759003, 0.3460192382335663, 0.20847420394420624, 0.05778463929891586, 0.2290441393852234, 0.2296978384256363, 0.0662299320101738, 0.07727304100990295, 0.03923957422375679, 0.033599358052015305, 0.08246654272079468, 0.1048244759440422, 0.1215657964348793, -0.04618987441062927, -0.11643392592668533, -0.05209971219301224, 0.1373315453529358, -0.07919666916131973, 0.1118849366903305, 0.15048260986804962, -0.08381123840808868, 0.12763214111328125, -0.21268387138843536, -0.20483003556728363, 0.25294145941734314, 0.10531546175479889, -0.16661670804023743, -0.219915509223938, 0.015912938863039017, 0.019405102357268333, 0.07643846422433853, -0.11350139230489731, -0.11440947651863098, 0.0044352044351398945, 0.12913307547569275, -0.01716342568397522, 0.15007270872592926, 0.7507532835006714, 0.11965176463127136, 0.770227313041687, -0.005836635362356901, 0.09375978261232376, -0.1034274473786354, -0.02884153462946415, 0.15052959322929382, 0.026230769231915474, -0.16457760334014893, -0.11712189018726349, 0.21188625693321228, 0.42911797761917114, -0.27418065071105957, 0.12678316235542297, -0.07516824454069138, 0.24381110072135925, 0.2520332634449005, -0.09274586290121078, 0.05640501156449318, -0.02287747524678707, 0.6723288893699646, 0.041551634669303894, -0.2623961269855499, -0.12456618249416351, 0.05207151547074318, 0.03932639956474304, 0.05388718843460083, -0.11309831589460373, 0.14643576741218567, -0.5144621729850769, -0.15685579180717468, -0.379684180021286, -0.09010011702775955, -0.2201063483953476, 0.06011655181646347, 0.19645579159259796, -0.22203010320663452, 0.12938262522220612, -0.09624961018562317, 0.028332874178886414, 0.18378101289272308, 0.23820148408412933, 0.021418150514364243, 0.1523706018924713, 0.17344368994235992, -0.1798848956823349, -0.07987584173679352, 0.15967866778373718, 0.16265860199928284, -0.08854688704013824, 0.05667334422469139, 0.46530458331108093, -0.17193368077278137, 0.07439946383237839, 0.33351558446884155, -0.06958060711622238, -0.14104078710079193, -0.061360251158475876, -0.15057715773582458, -0.0222279354929924, -0.15072868764400482, -0.03723656013607979, -0.23900562524795532, 0.1637151688337326, 0.2537471055984497, 0.1841893047094345, -0.1702406406402588, 0.04488888010382652, -0.03915386646986008, -2.21069073677063, -0.02590269409120083, 0.01207055989652872, 0.038087282329797745, -0.0399019792675972, 0.05226700380444527, 0.23104681074619293, 0.02215658314526081, 0.04963977634906769, 0.01002810150384903, 0.26845988631248474, 0.021136457100510597, 0.3818112909793854, -0.09951124340295792, -0.35606762766838074, 0.25255951285362244, -0.703063428401947, 0.385150283575058, -0.16202932596206665, -0.07273200899362564, -0.3385887145996094, 0.05795400217175484, -0.024852965027093887, 0.06793729960918427, -0.09309310466051102, -0.010941688902676105, -0.11676715314388275, 0.02583838626742363, 0.06153323873877525, 0.02611171454191208, 0.1694226861000061, -0.09361649304628372, -0.14851094782352448, -0.14129813015460968, -0.0956183671951294, -0.13363297283649445, -0.028401942923665047, -0.15573859214782715, -0.11711177229881287, -0.23601680994033813, 0.0635950043797493, 0.05803927034139633, 0.05207270011305809, 0.2690805494785309, -0.0035652760416269302, 0.14119213819503784, -0.08194782584905624, -0.019180649891495705, 0.20115727186203003, 0.4608915448188782, 0.0002357660559937358, 0.08264527469873428, -0.03998720645904541, 0.13810549676418304, -0.06740016490221024, 0.023438604548573494, -0.34865516424179077, -0.02293933741748333, 0.016854312270879745, 0.16616041958332062, 0.3515918254852295, -0.3627801835536957, -0.6816111207008362, -0.648862361907959, -0.505153238773346, -0.414618581533432, -0.4463721513748169, 0.08747469633817673, -0.18175901472568512, -0.04866066202521324, 0.5189536809921265, -0.10791204869747162, 0.1700456440448761, 0.3001094162464142, -0.2594049870967865, -0.11283703148365021, -0.47256770730018616, -0.15149353444576263, 0.17758503556251526, -0.07896175980567932, -0.09375929087400436, 0.05046459659934044, -0.4687942862510681, -1.001186490058899, 0.007430126424878836, -0.02886764518916607, 0.18824787437915802, 0.5778708457946777, 0.5858667492866516, -0.27960914373397827, -0.6701852679252625, 0.10087931156158447, -0.5437651872634888, 0.8318851590156555, -0.3363458514213562, -0.47987014055252075, 0.03450073301792145, -0.5538979768753052, -0.15448527038097382, 0.013768285512924194, -0.3734508454799652, -0.6020506024360657, 0.45545709133148193, 0.15719763934612274, 0.15080972015857697, 0.08188745379447937, 0.5590777397155762, 0.08292049914598465, 0.45641887187957764, -0.11076352745294571, 0.0897642970085144, -0.06748103350400925, -0.1156686469912529, 0.37280166149139404, -0.13347233831882477, -0.12687379121780396, -0.022365249693393707, -0.0676984041929245, -0.002067387802526355, -0.05710279196500778, -0.007665110751986504, -0.37279677391052246, 0.041130680590867996, -0.11386856436729431, -0.13229216635227203, -0.18113969266414642, 0.5646946430206299, 0.09082525968551636, 0.2918570637702942, -0.267448365688324, -1.1910642385482788, -1.2150968313217163, 0.5943427085876465, -1.2158337831497192, -0.09407050162553787, -0.5508008599281311, 0.2760333716869354, 0.19841159880161285, 0.22907236218452454, 0.08003989607095718, 0.24552688002586365, 0.10671653598546982, -0.27015167474746704, 0.12467720359563828, 0.18166132271289825, -0.17742174863815308, -0.8595033288002014, -1.0213518142700195, 0.26496464014053345, 0.06239581108093262, 0.4045941233634949, 0.26219600439071655, -0.14764177799224854, 0.11930645257234573, 0.17034021019935608, -0.14952883124351501, 0.20930670201778412, -0.3176879584789276, -0.1506800651550293, -0.2823692858219147, -0.1923631727695465, 0.3332606852054596, -0.06466373801231384, -0.027234915643930435, 0.29700636863708496, 0.22388982772827148, 0.5148171186447144, -0.10253214836120605, 0.04770395904779434, -0.02697109803557396, 0.41231435537338257, -0.12466448545455933, -0.029726363718509674, -0.08399419486522675, 0.25694960355758667, -0.4326566755771637, -0.04919755086302757, -0.21576841175556183, -0.012994113378226757, -0.12496162950992584, -0.29833874106407166, 0.21926458179950714, -0.20257613062858582, -0.07320041209459305, -0.07739004492759705, -0.058625996112823486, -0.13714057207107544, -0.28938359022140503, 0.24780136346817017, -0.06845954805612564, 7.316912524402142e-05, 0.35696980357170105, -0.36640679836273193, -0.04172617569565773, 0.2773362994194031, 0.0790419802069664, -0.11346957087516785, 0.33068057894706726, -0.044822197407484055, -0.26810717582702637, -0.19404077529907227, -0.3527878224849701, -0.05627051368355751, -0.07107136398553848, 0.1739214062690735, 0.018963592126965523, -0.20960010588169098, 0.35728156566619873, 0.13897494971752167, 0.05403752252459526, 0.035160571336746216, 0.06294913589954376, -0.12995143234729767, -0.08668804913759232, -0.22421899437904358, -0.33761346340179443, -0.24896025657653809, -0.09712151437997818, -0.1171453669667244, -0.03468436747789383, 0.004140991251915693, -0.09755809605121613, -0.07646242529153824, -0.10397719591856003, 0.054472871124744415, -0.13890798389911652, -0.05851795896887779, -0.14969809353351593, 0.1777251809835434, -0.283215194940567, 0.1985655426979065, -0.45913073420524597, 0.06248776242136955, -0.22320380806922913, -0.08773522078990936, -0.16554804146289825, -0.05045240744948387, -0.003935258369892836, 0.3235493004322052, 0.14657281339168549, 0.37101972103118896, 0.11002518981695175, -0.0729052722454071, -0.36959108710289, 0.054412323981523514, 0.1428883671760559, -0.050784882158041, -0.05243697017431259, -0.05972069874405861, 0.22992223501205444, 0.16547375917434692, 0.22592933475971222, -0.08205190300941467, -0.3876381516456604, -0.2495783269405365, 0.10976354032754898, -0.39999809861183167, -0.006024261005222797, -0.01488533429801464, -0.01021790411323309, 0.02253580465912819, -0.15862144529819489, -0.08326423913240433, -0.12079820781946182, 0.5753970742225647, -0.2577130198478699, -0.832043468952179, -0.29547688364982605, -0.9169147610664368, 0.03616851195693016, 0.31092071533203125, 0.33591699600219727, 0.053804732859134674, 0.31123635172843933, -0.04809442535042763, -0.02029521018266678, 0.36471784114837646, 0.11728589981794357, 0.12222494930028915, -0.03942818194627762, -0.13323397934436798, -0.0032598169054836035, 0.07780319452285767, 0.37789538502693176, -0.07720588892698288, 0.19770456850528717, 0.25760743021965027, -0.6820865273475647, 0.6365482807159424, -0.12555243074893951, -0.349619597196579, -0.5169400572776794, 0.4836774170398712, 0.15333709120750427, 0.051725029945373535, 0.1281164437532425, -0.24548423290252686, 0.007550332695245743, 0.025428466498851776, -0.04319918528199196, 0.009861324913799763, 0.04449176788330078, 0.32236814498901367, -0.21745501458644867, 0.19045713543891907, 0.10408531129360199, 0.3548613488674164, 0.0267172958701849, 0.1979798823595047, -0.18842671811580658, 0.22302372753620148, -0.230181485414505, 0.13915736973285675, 0.008700407110154629, -0.2000962793827057, -0.06370458751916885, -0.03317934274673462, 0.15233327448368073, 0.03906247019767761, 0.1635558307170868, 0.17133501172065735, -0.011745007708668709, -0.6533699631690979, -0.14320184290409088, -0.07402478903532028, 0.007002797909080982, -0.1614002138376236, 0.46503308415412903, 0.1877906322479248, 0.049567364156246185, 0.014916968531906605, 0.1883263736963272, -1.277244210243225, 0.945946455001831, 0.5666269063949585, 0.7642410397529602, -0.05255551263689995, 0.2913009226322174, 0.284599244594574, -0.15370036661624908, 0.37660908699035645, -0.07404778897762299, -0.06831870228052139, 0.03287810832262039, -0.06752905249595642, 0.011899997480213642, 0.10819824039936066, -0.05305225029587746, 0.0316258929669857, -0.18846459686756134, -0.41421079635620117, 0.13508009910583496, 0.11770977824926376, -0.45003265142440796, -0.3028508424758911, 0.45439234375953674, 0.22980858385562897, 0.3098661005496979, 0.017711222171783447, 0.5800530314445496, -0.24751150608062744, -0.005050716921687126, 0.292410284280777, 0.4295237362384796, 0.11548642069101334, 0.24650339782238007, 0.034817203879356384, -0.053545448929071426, 0.07849971950054169, 0.12227435410022736, -0.15314055979251862, -0.20626214146614075, 0.16692742705345154, 0.0358428955078125, 0.49273985624313354, 0.08025018870830536, 0.15875425934791565, 0.022658227011561394, -0.10969165712594986, 0.1154186874628067, 0.1744728684425354, -0.26273614168167114, 0.05828314647078514, -0.1637621521949768, 0.2114068567752838, -0.19361205399036407, -0.05057137459516525, -0.0222037211060524, 0.09022991359233856, -0.0065614874474704266, -0.1628257930278778, -0.07554636895656586, -0.05254026874899864, -0.1942218542098999, -0.469256192445755, -0.014429922215640545, -0.30845409631729126, 0.027256084606051445, 0.06566981226205826, 0.04465837404131889, 0.38523170351982117, -0.09276784211397171, -1.101761817932129, -1.197529673576355, -1.3120639324188232, 0.48858532309532166, 0.20724451541900635, 0.14280976355075836, 0.2282131314277649, -0.08685626089572906, 0.35243934392929077, 0.009533107280731201, -0.057717807590961456, -0.3291330337524414, -0.03787294030189514, -0.07113932073116302, 0.13011837005615234, 0.259906142950058, -0.13819913566112518, 0.3490196466445923, -0.4564099907875061, 0.12422367930412292, 0.14299529790878296, -0.20314531028270721, 0.021571043878793716, -0.39562374353408813, 0.01052638329565525, 0.13167166709899902, -0.15808257460594177, 0.1188310980796814, 0.01577662117779255, 0.28572267293930054, -0.271838515996933, 0.10556719452142715, 0.18347668647766113, 0.27700427174568176, 0.011265604756772518, -0.08665545284748077, 0.2245023101568222, 0.36304134130477905, -0.3638167083263397, 0.04432116076350212, 0.12064223736524582, -0.019227007403969765, 0.22207701206207275, -0.19274112582206726, -0.02402198128402233, -0.09073218703269958, -0.11873213201761246, 0.17642247676849365, 0.1500174105167389, 0.2238812893629074, 0.08047906309366226, -0.09287689626216888, -0.050227753818035126, -0.1728551685810089, 0.028045911341905594, -0.04694776609539986, 0.15576215088367462, -0.026620477437973022, -0.1980094164609909, 0.05301394686102867, -0.25104448199272156, 0.05673767626285553, 0.12817567586898804, 0.11770951747894287, -0.14207328855991364, 0.11299650371074677, 0.6557489037513733, -0.09909532964229584, -0.015587707050144672, -0.07051625102758408, 0.16241903603076935, -0.17148250341415405, -1.0397447347640991, -0.3891383111476898, -0.01092792209237814, 0.13701263070106506, 0.31388962268829346, 0.0706951841711998, -0.3322887718677521, 0.06236677244305611, 0.0600043348968029, 0.03277277201414108, 0.03146232292056084, -0.12195177376270294, 0.05805661901831627, 0.002412014175206423, 0.015321163460612297, -0.1797848492860794, -0.36970987915992737, 0.35881662368774414, 0.13716860115528107, 0.44952258467674255, -0.7534361481666565, 0.046622708439826965, -0.3668002486228943, -0.0055270008742809296, 0.1593141406774521, -0.2969052791595459, 0.039145298302173615, 0.09031584113836288, 0.07473325729370117, -0.11120808869600296, -0.2833968698978424, -0.24034081399440765, -0.15016141533851624, -0.5575708746910095, 0.002768181264400482, 0.22622451186180115, 0.21291591227054596, 0.15689589083194733, -0.031207803636789322, 0.25181812047958374, 0.26933953166007996, 0.43912360072135925, -0.0019114736933261156, -0.09020116180181503, 0.2923407554626465, 0.12067417800426483, -0.07683645933866501, -0.32388055324554443, -0.056676097214221954, -0.1016937643289566, 0.021206144243478775, 0.14863339066505432, -0.06177410110831261, -0.3383474051952362, -0.3025185763835907, 0.5095548033714294, 0.12419238686561584, 0.1798553615808487, -0.09737199544906616, -0.052461884915828705, 0.04938456043601036, -0.1819937825202942, -0.25166577100753784, 0.0997716411948204, -0.419844388961792, -0.25113430619239807, 0.26685869693756104, -0.008107956498861313, -0.13733357191085815, -0.011677390895783901, 0.20123249292373657, -0.05192732810974121, -0.481183797121048, 0.16212573647499084, 0.1861964464187622, -0.21853108704090118, 0.23681341111660004, -0.010622842237353325, 0.3474833071231842, 0.09955541044473648, 0.4601856470108032, -0.521776556968689, -0.5345039367675781, 0.2989465594291687, 0.4791679382324219, 0.30166932940483093, -0.28590264916419983, 0.2531547546386719, 0.00040402673766948283, -0.5738304853439331, -0.03745311126112938, 0.24624957144260406, -0.08077530562877655, 0.26066502928733826, -0.09656967967748642, 0.3209158778190613, -0.021053070202469826, 0.09548813104629517, -0.043197836726903915, 0.31935009360313416, 0.17723451554775238, 0.08129022270441055, 0.17195218801498413, 0.21526111662387848, -0.10633102059364319, 0.010558977723121643, -0.12179340422153473, -0.5573577284812927, 0.21716783940792084, 0.2738673686981201, -0.05104300007224083, 0.045330315828323364, 0.6316723823547363, -0.11349355429410934, 0.2147424966096878, 0.08326759934425354, 0.026287496089935303, 0.12064807116985321, -0.003124995855614543, 0.04691686853766441, -0.19717523455619812, 0.14292292296886444, -0.21336330473423004, 0.11513006687164307, 0.2924845516681671, 0.2348523586988449, -0.008259568363428116, -0.05553077533841133, -0.3260814845561981, -0.26747140288352966, 0.4232216477394104, 0.13132275640964508, 0.013574831187725067, 0.22406519949436188, 0.20573359727859497, -0.28401902318000793, -0.2993876338005066, 0.5405057668685913, 0.5787155628204346, -0.11212466657161713, -0.42353135347366333, 0.13548001646995544, 0.36391687393188477, -0.11454940587282181, 0.334545761346817, 0.14435094594955444, -0.06986211240291595, -0.3320614993572235, 0.2177089899778366, 0.3730029761791229, 0.28442540764808655, -0.2360503077507019, -0.4511132538318634, -0.35479918122291565, -0.33414024114608765, -0.03379640728235245, -0.3164464831352234, 0.20323988795280457, -0.10427463799715042, -0.02203938737511635, -0.05944325029850006, 0.14581428468227386, -0.22572647035121918, 0.11205299198627472, -0.2140948325395584, -0.08136007189750671, -0.04166822507977486, 0.25137341022491455, -0.5034765005111694, 0.34208250045776367, -0.10112544894218445, -0.2348199337720871, -0.04629630222916603, -0.027212152257561684, -0.012599841691553593, -0.3617122173309326, 0.26940593123435974, -0.06267813593149185, -0.1579560488462448, 0.14220544695854187, -0.22880470752716064, 0.24629159271717072, -0.14336411654949188, 0.30099013447761536, 0.20090357959270477, -0.2776813507080078, 0.15317486226558685, 0.2014797180891037, -0.1670948714017868, 0.2343817949295044, 0.11064983904361725, 0.1037219911813736, -0.22202622890472412, -0.08591421693563461, 0.0823284387588501, 0.18876904249191284, 0.3874622881412506, -0.028286991640925407, -0.2886645793914795, 0.011221814900636673, -0.116347536444664, -0.030881371349096298, -0.27701181173324585, 0.5317608714103699, -0.4659019410610199, 0.24873128533363342, -0.5546113848686218, 0.11191602796316147, -0.22908984124660492, -0.17267662286758423, -0.35995787382125854, -0.20058181881904602, 0.03156007081270218, 0.18634793162345886, -0.1281774938106537, 0.21832901239395142, 0.3177540600299835, -0.23863495886325836, -0.127191424369812, -0.03622427210211754, 0.18080736696720123, 0.32241520285606384, 0.09463836252689362, -0.117751844227314, -0.0008954711956903338, 0.08841324597597122, -0.027354149147868156, 0.17677196860313416, 0.05034494027495384, 0.1324576437473297, 0.03745187819004059, 0.26462802290916443, -0.021148353815078735, 0.19110038876533508, -0.015578473918139935, -0.08178853243589401, -0.11172343790531158, 0.13325649499893188, 0.27298134565353394, -0.12965506315231323, 0.2268860638141632, 0.03870590031147003, 0.03076842986047268, 0.01769377291202545, -0.11208046972751617, 0.24763323366641998, -0.2122821807861328, -0.22707201540470123, -0.07749463617801666, 0.0732392966747284, 0.021729081869125366, -0.22540125250816345, 0.001094492501579225, -0.007198617793619633, 0.09898427128791809, -0.09192364662885666, 0.3671201467514038, 0.42044797539711, -0.20809540152549744, -0.10305554419755936, 0.1563236117362976, 0.03387853875756264, -0.06343860924243927, -0.06484312564134598, -0.20812076330184937, 0.0020079396199434996, 0.16654376685619354, -0.37006479501724243, -0.4244748651981354, -0.3847842216491699, 0.2687285542488098, -0.8203479647636414, -1.0517840385437012, 0.6866980791091919, -0.1973862648010254, -0.039235811680555344, 0.4107147455215454, -0.14703722298145294, 0.510523796081543, 0.31312447786331177, 0.2505294382572174, 0.10469481348991394, 0.15541353821754456, 0.13750022649765015, 0.2086285650730133, -0.5978516340255737, 0.2509503960609436, -0.2614569365978241, -0.20858190953731537, 0.011326215229928493, 0.4025639593601227, 0.1481374353170395, -0.14493103325366974, -0.17344041168689728, -0.1382041871547699, 0.08449086546897888, 0.24996840953826904, -0.008085869252681732, -0.0746796578168869, 0.22696943581104279, -0.20774291455745697, 0.022747289389371872, 0.09726513922214508, -0.13988126814365387, -0.3371293544769287, 0.12531538307666779, 0.18475554883480072, 0.2663184106349945, -0.7784715294837952, 0.3018791377544403, 0.07510163635015488, 0.10637904703617096, -0.027423197403550148, -0.9707654714584351, -0.0045589604414999485, -0.22066831588745117, 0.058879587799310684, 0.1945263147354126, -0.04191761463880539, 0.05768732354044914, -0.3741113543510437, 0.02900395728647709, 0.07071084529161453, 0.203373983502388, -0.018062885850667953, -0.0793616771697998, 0.2716005742549896, 0.0577823705971241, -0.11497556418180466, 0.05441766977310181, 0.066351979970932, -0.34428682923316956, -0.15573632717132568, -0.13955093920230865, -0.12576739490032196, 0.5199936032295227, 0.4150136709213257, 0.11544952541589737, -0.4009217917919159, 0.174856036901474, 0.4146931767463684, 0.49800387024879456, -1.9549181461334229, -0.015766650438308716, -0.07232236117124557, -0.09286042302846909, 0.09421562403440475, -0.21049076318740845, -0.19126082956790924, -0.20160625874996185, -0.07133640348911285, 0.3543945252895355, -0.09712567925453186, -0.6916593909263611, -0.5128698945045471, 0.3326064348220825, 0.3103879690170288, 0.23584474623203278, -0.754274845123291, 0.37895894050598145, -0.10518805682659149, 0.043448254466056824, -0.10932832211256027, -0.20404623448848724, -0.38727453351020813, -0.12943129241466522, -0.0038727656938135624, 0.012997370213270187, 0.13312724232673645, 0.0886353850364685, 0.039783280342817307, -0.01709778420627117, -0.0858549103140831, 0.009852821938693523, 0.04316744953393936, 0.12207668274641037, 0.03697614371776581, -0.048836685717105865, 0.1718759387731552, -0.036972079426050186, 0.10854324698448181, 0.04591313749551773, 0.19934992492198944, 0.1964760422706604, -0.11667244881391525, -0.19101305305957794, 0.13915908336639404, -0.14893735945224762, 0.07463941723108292, 0.09453567862510681, 0.20601661503314972, 0.008857452310621738, -0.1463388353586197, 0.07771935313940048, 0.1697579026222229, 0.1139705702662468, -0.2062404602766037, 0.014939356595277786, 0.07629290968179703, 0.03231382369995117, 0.25171831250190735, -0.020127493888139725, 0.4949146509170532, -0.046057235449552536, -0.8597362041473389, -0.5356594324111938, -1.7205421924591064, 1.266184687614441, -0.2436082512140274, 0.2048398107290268, 0.24072207510471344, 0.06273303180932999, 0.1992524117231369, 0.10100869089365005, 0.014790189452469349, 0.10146520286798477, -0.26409095525741577, -0.11671853065490723, -0.0068495990708470345, -0.31772753596305847, -0.07435688376426697, -1.2940784692764282, -0.6466142535209656, -0.42891591787338257, -0.37237057089805603, -0.07387643307447433, 0.08456063270568848, -0.13389107584953308, 0.3173677921295166, -0.23454728722572327, 0.04276550933718681, -0.04449867829680443, 0.08317767083644867, 0.0827038586139679, 0.09371420741081238, 0.05936531722545624, -0.03794645518064499, -0.8604446053504944, 0.15970000624656677, -0.0006214955355972052, -0.08669912815093994, -0.32680436968803406, 0.11413246393203735, -0.24709773063659668, -0.40645942091941833, -0.10019975900650024, 0.31303951144218445, 0.2122306227684021, 0.31125736236572266, -0.07030723243951797, -0.01885364204645157, 0.08492760360240936, 0.1447826772928238, 0.03975841775536537, 0.15987184643745422, -0.16372621059417725, -0.08752992749214172, -0.0636773556470871, -0.3525143265724182, 0.12040822952985764, 0.13683554530143738, 0.11402963846921921, -0.15007881820201874, -0.23551423847675323, -0.09107489138841629, -0.046927180141210556, -0.012479831464588642, 0.34015530347824097, -0.11856034398078918, -0.05793165788054466, -0.2985101640224457, -0.08974362909793854, -0.23832280933856964, -0.5564131736755371, 0.8331366181373596, -0.2848881483078003, -0.3747831881046295, -0.1375824213027954, -0.3462052643299103, -0.08222350478172302, 0.009217904880642891, -0.06203180178999901, 0.036852702498435974, 0.22627699375152588, -0.22151662409305573, 0.07708444446325302, 0.1583499163389206, -0.3102644383907318, 0.020011089742183685, -0.25093400478363037, -0.08681588619947433, 0.1650363951921463, 0.32909610867500305, 0.1994437873363495, 0.07351213693618774, -0.4626930058002472, -0.32226014137268066, 0.4108617901802063, -0.004458677023649216, -0.20571893453598022, 0.23749248683452606, 0.01962425746023655, -0.07675543427467346, 0.16625992953777313, 0.0006391819333657622, 0.034012652933597565, -0.1955055445432663, 0.15689879655838013, 0.40167564153671265, 0.24744215607643127, 0.3451237976551056, -0.05723009258508682, -0.21645881235599518, -0.10881504416465759, -0.33991533517837524, -0.0839054137468338, 0.10296254605054855, -0.2904348075389862, 0.19356809556484222, 0.19765855371952057, -0.053275033831596375, -0.05763743445277214, 0.002893415978178382, 0.003079742658883333, -0.15391816198825836, -0.03217197209596634, -0.11958911269903183, 0.11901584267616272, -0.011390243656933308, -0.0072178966365754604, 0.033851027488708496, 0.07994160056114197, -0.03730861842632294, 0.20459569990634918, -0.17725372314453125, -0.054466620087623596, 0.008878733962774277, 0.06592795252799988, 0.7735297083854675, -0.06691598147153854, -0.7913965582847595, -0.9685901999473572, 0.059788353741168976, -0.44140222668647766, -0.9434281587600708, -0.4937344789505005, -0.44497150182724, -0.08288411796092987, -0.18474340438842773, 0.14307743310928345, 0.1945391595363617, -0.41942930221557617, 0.021578310057520866, -0.18998144567012787, -0.09387100487947464, -0.0713026151061058, 0.10184730589389801, 0.006184867117553949, -0.32012033462524414, -0.3292645812034607, 0.002657475881278515, 0.08397714793682098, 0.12524442374706268, 0.40879762172698975, -0.16685564815998077, -0.007724023424088955, 0.6656684279441833, 0.16215957701206207, 0.2607959806919098, -0.3871084153652191, 0.3475501239299774, 0.30806413292884827, 0.15534649789333344, -0.011914904229342937, -0.14902363717556, -0.45549100637435913, -0.16363690793514252, -0.09628080576658249, -0.0321897491812706, -0.0869954451918602, -0.20892682671546936, -0.09932315349578857, 0.13738489151000977, -0.13509151339530945, 0.1550559401512146, 0.016836531460285187, -0.17386573553085327, -0.08148381859064102, 0.06784806400537491, -0.15614867210388184, -0.03477463126182556, 0.07596388459205627, 0.16580471396446228, -0.0937601700425148, -0.1516142040491104, 0.16546492278575897, 0.38104066252708435, 0.06586090475320816, 0.03902742639183998, -0.24262017011642456, -0.26520073413848877, -0.04729136824607849, 0.0935235321521759, -0.23916049301624298, 0.2625204026699066, -0.15594366192817688, 0.6616302132606506, -0.409794420003891, 0.07217466086149216, -0.4739564061164856, -0.035311583429574966, 0.5194380283355713, 0.34422022104263306, 0.2620956003665924, 0.05793667957186699, -0.14681828022003174, -0.5684172511100769, 0.05053601786494255, 0.3224656581878662, 0.06916575878858566, -0.24559451639652252, 0.16598498821258545, -0.41321948170661926, -0.1441541165113449, 0.1023140549659729, -0.18671461939811707, -0.3388749957084656, -0.6052608489990234, 0.1015772670507431, -0.8499637842178345, 0.1925186812877655, 0.6162310838699341, -0.3969409167766571, 0.07420240342617035, 0.40800827741622925, -0.2739250659942627, 0.024726156145334244, 0.37923264503479004, 0.3930658996105194, 0.33407020568847656, 0.1693950891494751, 0.3877808153629303, -0.4895419776439667, 0.0552007295191288, 0.17638304829597473, 0.1400424987077713, 0.2732353210449219, -0.033758435398340225, 0.2297906130552292, 0.251545250415802, 0.40756139159202576, 0.11889046430587769, -0.6168060898780823, -0.08250339329242706, 0.0433964729309082, -0.015627913177013397, -0.195328950881958, -0.001765555702149868, 0.021320194005966187, -0.09261105954647064, -0.13735006749629974, 0.18144822120666504, -0.09622708708047867, -0.2311682552099228, -0.3838410973548889, 0.2101205587387085, 0.4190830588340759, -0.33239129185676575, -0.19390968978405, 0.07144732773303986, 0.018694687634706497, -0.14457005262374878, -0.05217461660504341, -0.13205476105213165, 0.7479249238967896, -0.13874457776546478, -1.322157859802246, -1.5920443534851074, 0.4491128623485565, -0.37440502643585205, 0.2888985574245453, 0.19993512332439423, -0.1699019968509674, 0.009512344375252724, 0.12217439711093903, 0.10812307894229889, 0.15486085414886475, 0.31026989221572876, 0.0048643918707966805, 0.20596817135810852, -0.20235159993171692, 0.0026215536054223776, 0.049472179263830185, -0.14563140273094177, -0.484335720539093, -0.09599640965461731, -0.031146038323640823, 0.0894099548459053, -0.30246514081954956, -0.21191804111003876, 0.13142482936382294, -1.0067280530929565, -0.08878377079963684, 0.3596281409263611, -0.5407854318618774, 0.21924304962158203, 0.22161927819252014, 0.4477696716785431, -0.13536149263381958, 0.04525734856724739, 0.11053495854139328, 0.5897352695465088, 0.4649074971675873, -0.018232574686408043, -0.21349310874938965, 0.04426803067326546, -0.3771919012069702, 0.2139730602502823, -0.17042025923728943, -0.08157090097665787, 0.2648281455039978, 0.32722753286361694, -0.08806026726961136, -0.3076449930667877, 0.04331900179386139, 0.025640474632382393, 0.25007370114326477, 0.006866431329399347, 0.09616735577583313, 0.09053920209407806, -0.3159089982509613, -0.029749538749456406, 0.22786079347133636, 0.10972968488931656, -0.054057057946920395, 0.2231161743402481, -0.16655856370925903, -0.17014098167419434, -0.043774545192718506, -0.11463350057601929, -0.08753488212823868, -0.4231221079826355, 0.11075226217508316, -0.18277421593666077, -1.2821637392044067, -1.30852210521698, 0.08801396191120148, 0.08564882725477219, 0.30866923928260803, -0.024542270228266716, 0.0745815709233284, 0.19913722574710846, -0.5990499258041382, 0.06069742515683174, -0.3296808898448944, 0.28662723302841187, -0.03750746697187424, -0.27685627341270447, -0.021668706089258194, 0.05775769427418709, 0.06432925909757614, 0.20205309987068176, -0.07322553545236588, -0.10096095502376556, -0.6220920085906982, 0.2768300175666809, 0.14896340668201447, -0.22163547575473785, -0.4080759882926941, 0.5507740378379822, 0.6211889386177063, -0.523884117603302, 0.15440058708190918, -0.33662253618240356, 0.42390549182891846, -0.026993805542588234, -0.11412880569696426, 0.3031308948993683, 0.4795743227005005, 0.2335532158613205, 0.42955878376960754, -0.49889034032821655, 0.14515921473503113, -0.29875513911247253, -0.014350764453411102, -0.1988905966281891, 0.09255486726760864, 0.5326533913612366, -0.6387381553649902, 0.20281919836997986, -0.014278215356171131, -0.09623683243989944, 0.06825120002031326, 0.029497196897864342, 0.015055307187139988, -0.10403606295585632, 0.30764710903167725, -0.22565774619579315, 0.3239622712135315, -0.3212434947490692, -0.1731904000043869, 0.2138582020998001, -0.19879470765590668, 0.06762029975652695, 0.1507372111082077, 0.1346970945596695, -0.058670252561569214, -0.3663167655467987, 0.23028704524040222, -0.07102334499359131, 0.30911511182785034, -0.2287469357252121, -0.951269268989563, -0.9835190773010254, -2.8600504398345947, -0.0215450432151556, -0.03431715443730354, -0.03253088891506195, 0.2168949544429779, 0.10805635899305344, 0.09159389138221741, 0.09769117832183838, 0.035656802356243134, 0.1838148981332779, -0.1667609065771103, -0.03307630494236946, 0.05237475782632828, -0.13511377573013306, 0.3764302730560303, 0.061240654438734055, 0.303047239780426, -0.07696657627820969, -0.44034045934677124, 0.06966442614793777, 0.19129516184329987, 0.09699977934360504, 0.0679032951593399, -0.09698440879583359, 0.3272807002067566, -0.044739626348018646, -0.08652568608522415, -0.06914453208446503, 0.14634063839912415, -0.07855827361345291, 0.14272543787956238, -0.13406921923160553, 0.22669337689876556, 0.20761726796627045, -0.005372349172830582, 0.3034520447254181, -0.3668135106563568, -0.16783592104911804, -0.32972827553749084, 0.1151788979768753, -0.0004951853770762682, -0.38778990507125854, -0.43042054772377014, -0.17583538591861725, -0.08380407094955444, -0.1508810669183731, 0.06481005251407623, -0.06433264911174774, 0.09501831233501434, -0.019939929246902466, 0.06182851269841194, -0.40285003185272217, 0.29010236263275146, 0.3630591332912445, 0.16251203417778015, -0.014053327962756157, 0.2585076093673706, -0.00039385101990774274, -0.0652027502655983, 0.07288490235805511, -0.043134137988090515, -0.11889305710792542, -0.10379254817962646, 0.061493247747421265, -0.033969152718782425, -0.25741299986839294, -1.0751681327819824, -0.616345226764679, -0.2686041593551636, 0.5676272511482239, -0.03245619684457779, 0.003785001114010811, -0.16152656078338623, 0.05101855471730232, -0.2117847502231598, -0.0703621655702591, -0.3650798499584198, 0.017974229529500008, 0.03440108895301819, 0.15239930152893066, -0.27421554923057556, -0.04871605336666107, -0.04112544655799866, 0.5440284013748169, 0.24881915748119354, -1.1502747535705566, -0.23767484724521637, -1.0376561880111694, -0.1841893345117569, -0.4090076684951782, -0.46758028864860535, 0.026676597073674202, -0.12071942538022995, 0.34557005763053894, -0.20648552477359772, 0.19703309237957, -0.1830715388059616, 0.17332059144973755, 0.059010207653045654, 0.39832788705825806, -0.06928984075784683, 0.22998423874378204, 0.3673933148384094, 0.15416020154953003, 0.5126599669456482, 0.12366409599781036, 0.25574514269828796, 0.17138084769248962, -0.39094260334968567, 0.09499448537826538, 0.08537991344928741, 0.18582017719745636, -0.06027550622820854, -0.202603280544281, -0.2778545618057251, 0.042790308594703674, -0.18897147476673126, 0.09500293433666229, 0.21964892745018005, 0.15787898004055023, 0.10063471645116806, -0.09670379012823105, -0.056571029126644135, -0.6669242978096008, 0.10255549103021622, -0.10723685473203659, 0.0605987086892128, -0.16515669226646423, -0.15207433700561523, 0.15839216113090515, -0.044561710208654404, 0.17702816426753998, -0.09699443727731705, 0.14624741673469543, -0.28773197531700134, -0.48316290974617004, 0.08988426625728607, -1.3502100706100464, -0.16097989678382874, -0.04294975474476814, 0.4180545508861542, 0.406620055437088, 0.3991870582103729, 0.3155941367149353, 0.1507081836462021, -0.41283825039863586, 0.21542024612426758, 0.03372563049197197, 0.09649919718503952, -0.0280266422778368, -0.15096814930438995, 0.6677031517028809, 0.24579176306724548, -0.5856249928474426, 0.2850714921951294, -0.03350760415196419, -0.22116848826408386, 0.1479964256286621, -0.06829140335321426, -0.009277972392737865, 0.12111087888479233, -0.10405480861663818, -0.2053111344575882, 0.13234680891036987, -0.9455785751342773, -0.14017918705940247, 0.18526390194892883, 0.10853385925292969, 0.18458828330039978, -0.09525764733552933, 0.12159940600395203, 0.008890235796570778, -0.0883321538567543, 0.3050582706928253, -0.4124596118927002, 0.01953948847949505, -0.003606219310313463, -0.41216370463371277, 0.6431293487548828, -0.08965059369802475, -0.056463323533535004, -0.1315975934267044, 0.003540053963661194, 0.13085044920444489, 0.02043827623128891, -0.07154960930347443, -0.01454697735607624, 0.29473233222961426, 0.021783336997032166, 0.057832662016153336, 0.1607481688261032, -0.120754674077034, -0.041482310742139816, -0.06636245548725128, -0.22827447950839996, -0.290187805891037, -0.004941488616168499, 0.08315817266702652, -0.26672136783599854, 0.09149494767189026, -0.12281441688537598, -0.07972397655248642, -1.3587990999221802, -1.3386255502700806, 0.157427117228508, -0.01779753342270851, -0.6124575138092041, -0.04944804683327675, -0.23996272683143616, 0.13711151480674744, 0.23600876331329346, -0.38707104325294495, -0.0057917265221476555, 0.2732030749320984, 0.15667128562927246, 0.04053144156932831, 0.09547547996044159, 0.09689202159643173, 0.13973946869373322, -0.11035589128732681, -0.01231440156698227, -0.47807058691978455, -0.6562132239341736, 0.35551971197128296, 0.15002459287643433, -0.053642112761735916, -0.7411860227584839, 0.23267222940921783, -0.25726237893104553, 0.13815222680568695, -0.2180740386247635, 0.2556878328323364, -0.15951845049858093, 0.20644891262054443, 0.04001719132065773, 0.2710033059120178, 0.1907348781824112, 0.5262882709503174, 0.3083014488220215, 0.09352036565542221, 0.10026812553405762, 0.3484361469745636, 0.35760030150413513, 0.2666316330432892, 0.05417103320360184, -0.38216632604599, -0.33292266726493835, 0.1329975724220276, 0.18949954211711884, -0.06379606574773788, 0.14755216240882874, -0.06008545309305191, -0.04376945644617081, 0.26512861251831055, 0.16736096143722534, 0.14897865056991577, 0.2543047368526459, -0.4595356583595276, 0.5120234489440918, -0.3821520209312439, 0.09021903574466705, -0.10377933084964752, 0.2415427714586258, -0.055679842829704285, -0.44446656107902527, -0.38294777274131775, -0.32574817538261414, -0.05620524659752846, 1.078402042388916, -0.31484895944595337, -0.6547205448150635, -0.879721462726593, -0.26722168922424316, -0.464830219745636, 0.05079291760921478, -0.4803762435913086, -0.12591086328029633, 0.29731544852256775, 0.3039637804031372, -0.03351283073425293, 0.17276190221309662, -0.18224288523197174, 0.27413761615753174, 0.10743515193462372, 0.11121752858161926, 0.21756431460380554, -0.0874813124537468, 0.4354397654533386, 0.6205585598945618, -0.5313529372215271, -0.18196293711662292, -0.44567573070526123, 0.046083468943834305, 0.1355929672718048, 0.09017839282751083, 0.12497097253799438, 0.2545730769634247, 0.03997766226530075, -0.10848252475261688, 0.22599256038665771, 0.0653756856918335, -0.00558730773627758, 0.12912651896476746, -0.22818496823310852, 0.1876731812953949, 0.15148267149925232, 0.24800048768520355, -0.2562987208366394, 0.15834493935108185, -0.3078283667564392, 0.21315011382102966, -0.3248204290866852, -0.05041421949863434, 0.3730870485305786, -0.298275887966156, -0.21539311110973358, -0.019936678931117058, 0.03507562726736069, 0.0004312934761401266, -0.10100865364074707, 0.029325462877750397, 0.263480544090271, -0.31066733598709106, 0.0656166821718216, -0.12437596917152405, 0.1022132858633995, -0.15346206724643707, 0.13743022084236145, -0.08073606342077255, 0.1984376162290573, 0.4141919016838074, -0.1772044152021408, -0.33827534317970276, 0.12437406927347183, 0.4351295530796051, -0.34914425015449524, 0.705097496509552, -0.32353782653808594, -0.46078407764434814, -0.47722357511520386, -0.6023786067962646, 0.38484692573547363, 0.7498382329940796, 0.8427159786224365, -0.5243361592292786, -0.2861689031124115, 0.22538214921951294, 0.18294189870357513, -0.003115954576060176, -0.2627156674861908, -0.05293075740337372, 0.005983005743473768, -0.3420387804508209, 0.012305127456784248, -0.7510151267051697, 0.1258263885974884, -0.07307667285203934, -0.27362263202667236, -0.3601739704608917, -0.32996925711631775, 0.13901536166667938, -0.190826416015625, -0.4523859918117523, -0.413494735956192, -0.612474799156189, 0.2766028642654419, 0.16515396535396576, 0.18317671120166779, 0.2978781759738922, 0.1566917896270752, 0.12789715826511383, -0.33618050813674927, -0.23482643067836761, 0.4486657977104187, 0.2601819336414337, -0.15285788476467133, -0.27112188935279846, 0.18522217869758606, -0.21857298910617828, -0.11082296818494797, -0.21077890694141388, 0.05886797606945038, -0.24869967997074127, 0.025463063269853592, -0.0937202125787735, -0.04758291691541672, -0.20713932812213898, -0.09898258745670319, 0.17899197340011597, -0.08609797805547714, -0.31507381796836853, -0.11729507893323898, 0.12246924638748169, -0.018841933459043503, 0.10209544748067856, 0.24234318733215332, -0.3864991366863251, 0.07436349242925644, 0.13920529186725616, 0.3364241421222687, 0.17537197470664978, 0.012618377804756165, -0.3428250551223755, 0.3496156930923462, 0.26801711320877075, 0.193769171833992, 0.3198866844177246, 0.16460072994232178, 0.6991806030273438, -0.36037442088127136, 0.014578131958842278, 0.06962340325117111, -0.006138946395367384, -0.0006728405714966357, -0.2797238826751709, 0.09259076416492462, -0.009837357327342033, 0.0028274543583393097, -0.12603659927845, 0.03389807045459747, 0.38342374563217163, -0.05307980626821518, 0.14066317677497864, -0.1264752745628357, -0.24880315363407135, 0.09890422970056534, -0.25981685519218445, -0.06919004023075104, 0.23777973651885986, -0.11585716903209686, -0.06879966706037521, 0.17162826657295227, -0.23397132754325867, 0.07046234607696533, 0.24038831889629364, 0.3647671341896057, 0.2634072005748749, 0.06468906998634338, 0.1781807839870453, 0.06391116976737976, 0.24151058495044708, -0.005423869471997023, 0.19701364636421204, -0.010376772843301296, -0.06315319985151291, -0.19949263334274292, -0.02803073823451996, -0.009936594404280186, 0.20373612642288208, 0.31573423743247986, -0.053533002734184265, -0.37410616874694824, -0.18747521936893463, 0.000628021196462214, -0.19868497550487518, -0.11152807623147964, -0.24901823699474335, -0.11599438637495041, 0.2401622086763382, 0.0010895688319578767, 0.07367529720067978, -0.057005055248737335, -0.03541390597820282, 0.0024921020958572626, -0.17224843800067902, 0.016483750194311142, 0.18783457577228546, -0.12789765000343323, -0.3177613615989685, 0.13514693081378937, -0.23845280706882477, -0.09403052181005478, 0.07529568672180176, -0.161092147231102, 0.305134654045105, 0.5006620287895203, 0.37864091992378235, -0.13825705647468567, 0.13067515194416046, -0.005069717299193144, 0.17054422199726105, -0.006989149376749992, 0.7654668688774109, 0.04684539511799812, 0.3294861614704132, -0.007795236073434353, 0.02475098893046379, -0.2276693433523178, -0.16449902951717377, 0.13210777938365936, -0.27879267930984497, 0.5338011980056763, 0.3186747431755066, -0.1365528106689453, -0.3769204616546631, -0.1764831691980362, 0.01794627122581005, -0.1601429134607315, -0.08537667989730835, -0.17692065238952637, -0.02821827307343483, -0.19581469893455505, -0.009176370687782764, 0.15955130755901337, 0.004000640474259853, 0.23803752660751343, -0.01129869557917118, 0.21230177581310272, 0.19960220158100128, -0.070736825466156, -0.11518466472625732, 0.29193079471588135, -0.05887977406382561, -0.11948850750923157, -0.4878188371658325, 0.044020965695381165, 0.09557836502790451, 0.002807704033330083, 0.10927688330411911, 0.3004823625087738, -0.308991402387619, 0.10263673961162567, 0.14351414144039154, 0.12177308648824692, 0.04699138551950455, -0.07656875252723694, -0.12494544684886932, 0.20086896419525146, -0.10391843318939209, 0.07751796394586563, 0.04908737167716026, 0.15660232305526733, 0.018182598054409027, -0.06610751152038574, 0.05828654766082764, -0.13151906430721283, 0.11999950557947159, -0.04201788827776909, -0.057813193649053574, 0.12275346368551254, -0.1199447512626648, 0.10265432298183441, -0.5900206565856934, -0.7324032783508301, 0.3131685256958008, -0.973633885383606, -0.3724585473537445, -0.18359652161598206, 0.45598891377449036, -0.10629290342330933, -0.02379978634417057, -0.11138031631708145, -0.13739320635795593, 0.20685316622257233, -0.016854701563715935, 0.0030090983491390944, 0.056606024503707886, -0.07686572521924973, -0.2862355411052704, 0.29979753494262695, 0.48229140043258667, -0.33289363980293274, 0.05237623304128647, 0.5048306584358215, -0.3843902051448822, 0.5026759505271912, 0.16961568593978882, 0.49228617548942566, -0.40624868869781494, 0.07057235389947891, 0.023183761164546013, -0.582033634185791, 0.002688113832846284, -0.08579064160585403, -0.037591274827718735, 0.1801895797252655, 0.25982800126075745, 0.01980677992105484, 0.1362602561712265, -0.08843796700239182, -0.08927324414253235, -0.10097678005695343, -0.14950288832187653, -0.017502183094620705, 0.26973623037338257, -0.1550089567899704, -0.9772189259529114, 0.10070128738880157, -0.1378570795059204, 0.004961639177054167, 0.09289099276065826, -0.022391775622963905, 0.27738362550735474, -0.24912075698375702, 0.12661945819854736, 0.2552799582481384, -0.12414977699518204, -0.16157077252864838, -0.23511120676994324, -0.11042790859937668, 0.21888111531734467, -0.02243790030479431, 0.0651412159204483, 0.10705112665891647, 0.10436215996742249, 0.07023845613002777, -0.05479273572564125, -0.2059982270002365, 1.576001763343811, -0.6580228805541992, -0.6143838763237, -0.6060789823532104, -0.5996488332748413, 0.6775356531143188, -0.8646490573883057, -0.1329578161239624, 0.16929441690444946, -0.08863183856010437, 0.44657665491104126, -0.21292342245578766, 0.08129005134105682, -0.4142220616340637, 0.40175408124923706, 0.3748733401298523, -0.15581506490707397, -0.004366130568087101, -0.013390261679887772, 0.1363774836063385, -0.07129383832216263, -0.31848254799842834, -0.004650660790503025, 0.13297799229621887, -0.2943113148212433, -0.12900377810001373, -0.7436448931694031, 0.3189205229282379, 0.04504640772938728, 0.2124369740486145, 0.059814758598804474, 0.14192438125610352, 0.041422612965106964, -0.028835056349635124, -0.06890340149402618, -0.17662237584590912, 0.004588531330227852, -0.4399430751800537, 0.022851871326565742, -0.12771867215633392, -0.04499375447630882, 0.26216256618499756, -0.010328849777579308, -0.04265378415584564, -0.08501491695642471, -0.5832312107086182, 0.04390810430049896, 0.5277969837188721, -0.2611168622970581, 0.27039870619773865, 0.08190920203924179, 0.10558824986219406, -0.025156954303383827, -0.26587027311325073, -0.2805063724517822, 0.2789766788482666, -0.2596805989742279, -0.07894272357225418, -0.07815166562795639, 0.13132841885089874, 0.04037277773022652, 0.1534275859594345, -0.1001192107796669, 0.10326910018920898, -0.17715291678905487, 0.4027300477027893, -0.15540814399719238, -0.25820687413215637, 0.758158802986145, -0.07718417793512344, -0.7729762196540833, -0.9461672902107239, -0.019338518381118774, -1.3152323961257935, -0.16823996603488922, -0.8971655964851379, -0.25266698002815247, 0.26492807269096375, 0.09166908264160156, 0.10916724801063538, 0.20188890397548676, 0.023506291210651398, -0.15772300958633423, 0.055240239948034286, -0.03487673029303551, 0.14933614432811737, 0.14193709194660187, 0.07006057351827621, -0.040006037801504135, -0.07791867852210999, -0.38652461767196655, 0.14896409213542938, -0.14528800547122955, -0.12056456506252289, -0.27916255593299866, -0.3524634540081024, -0.11579666286706924, 0.14593641459941864, 0.277017742395401, 0.46723783016204834, 0.2475523054599762, 0.1614723652601242, 0.024957755580544472, -0.23737353086471558, -0.2856392562389374, -0.20292337238788605, 0.33366283774375916, -0.8903627991676331, 0.08572443574666977, 0.15134644508361816, -0.3092195987701416, 0.3714047074317932, 0.23649494349956512, 0.24915674328804016, -1.210268259048462, 0.160049706697464, 0.0863993838429451, -0.220508873462677, -0.16146999597549438, 0.13719139993190765, 0.06588838994503021, 0.1311974674463272, -0.04033621773123741, -0.051571570336818695, 0.07698491960763931, -0.022682243958115578, -0.3302425444126129, 0.20260830223560333, 0.23656050860881805, -0.03412405028939247, 0.3414890468120575, -0.3692851960659027, -0.023080602288246155, 0.1584182232618332, 0.459855854511261, 0.1859494149684906, 0.5258938074111938, -0.0038192688953131437, -0.9875247478485107, -0.8233051300048828, -0.25006428360939026, -0.05316741019487381, -0.5328173041343689, 0.514072060585022, 0.7598267793655396, 0.13248546421527863, -0.5836935043334961, 0.014592038467526436, 0.2625690698623657, 0.1500755101442337, -0.23427066206932068, -0.5331546664237976, 0.042469900101423264, -0.05001586303114891, -0.2086387574672699, 0.38813501596450806, -0.13163124024868011, -0.48456263542175293, -0.30861756205558777, 0.5770215392112732, -0.08782936632633209, 0.08107265084981918, 0.2229381501674652, 0.5158271193504333, 0.6537216901779175, 0.5029380321502686, -0.20013712346553802, 0.5132283568382263, 0.2959323525428772, 0.1338159441947937, -0.019789118319749832, -0.4818561375141144, 0.08696233481168747, -0.7989436388015747, 0.08240920305252075, -0.6093011498451233, -0.174346923828125, -0.11403647065162659, 0.16448462009429932, 0.22246485948562622, -0.14370077848434448, 0.35227319598197937, -0.7665791511535645, 0.25280579924583435, -0.006233887746930122, -0.030499974265694618, 0.15942904353141785, -0.0660412386059761, 0.2149827778339386, 0.13595400750637054, 0.13006359338760376, -0.3404490649700165, -0.18383574485778809, -0.006505278404802084, -0.14135466516017914, -0.22258034348487854, -0.1614765226840973, -0.07005493342876434, 0.0024742549285292625, -0.04626387730240822, 0.0739898607134819, -0.102259561419487, 0.05692341551184654, 0.21494866907596588, -0.9372593760490417, 0.2863210439682007, 0.07993417233228683, -0.11910057812929153, 0.21030355989933014, 0.025461098179221153, 0.49109503626823425, -0.06309124827384949, 0.3991435766220093, -0.0024265763349831104, -0.27745091915130615, 0.008532951585948467, -0.19027526676654816, -0.38652345538139343, -0.12983335554599762, 0.0874670222401619, -0.04159696772694588, 0.2675539553165436, -0.5437150597572327, -0.035385191440582275, 0.34539154171943665, -0.09341740608215332, 0.21364004909992218, 0.2190488576889038, -0.043224040418863297, 0.05680383741855621, -0.36809009313583374, -0.3426758050918579, -0.13755112886428833, -0.39504459500312805, -0.33142390847206116, 0.03151991218328476, 0.14669087529182434, -0.2832229733467102, 0.1346692591905594, -0.16645322740077972, -0.054474540054798126, -0.02793724648654461, 0.5819562673568726, 0.0728195384144783, 0.4861007034778595, -0.10461965948343277, -0.18081405758857727, -0.1102936714887619, 0.23745758831501007, 0.291022926568985, 0.1880037486553192, 0.4851687550544739, 0.15698908269405365, -0.17564518749713898, 0.028596706688404083, -0.10375628620386124, 0.2255222648382187, 0.2170075923204422, 0.00464821420609951, -0.022457314655184746, -0.12689915299415588, 0.295486181974411, -0.22883817553520203, 0.15852375328540802, -0.015994731336832047, -0.1695048063993454, -0.3235531151294708, -0.17934449017047882, 0.10956007987260818, 0.44287627935409546, 0.14254309237003326, -0.3608745336532593, -0.10665085911750793, -0.5241208672523499, -0.5350146889686584, -0.7240380048751831, -1.10197114944458, 0.3283328115940094, 0.18290886282920837, -0.5101203322410583, -0.057787083089351654, -0.16765828430652618, 0.3756902813911438, -0.08639200776815414, -0.2746947705745697, -0.016665861010551453, -0.12779965996742249, -0.060813043266534805, -0.05815961956977844, -0.03775710612535477, 0.11245231330394745, -0.6576661467552185, -0.13346409797668457, -0.3513582646846771, -0.12771986424922943, -0.36913612484931946, 0.2924878001213074, -0.19451399147510529, -0.11308541148900986, 0.22136002779006958, -0.2826494574546814, -0.4779624044895172, -0.407335102558136, -0.025384698063135147, -0.09741917997598648, -0.9503017067909241, 0.20915734767913818, -1.611539602279663, -0.26841092109680176, -0.7750809192657471, 0.024526113644242287, 0.05195917934179306, -0.4397889971733093, -0.15232306718826294, 0.2587461769580841, 0.25623077154159546, 0.33088433742523193, -0.910541832447052, 0.4714750051498413, -0.21266122162342072, -0.005868750624358654, 0.1355530470609665, 0.11112033575773239, 0.03958303481340408, 0.06491325050592422, -0.05174200236797333, -0.0014525573933497071, -0.27504077553749084, -0.051361046731472015, -0.2781040370464325, 0.39714565873146057, -0.12158557772636414, -0.25768667459487915, 0.29959797859191895, 0.13658057153224945, -0.5783509016036987, -0.23755556344985962, -0.22943885624408722, -0.3296816051006317, -0.24191993474960327, 0.06347113102674484, 0.2645007073879242, -1.359150767326355, -1.2822617292404175, -0.1608026772737503, -0.13578949868679047, 0.39558297395706177, 0.10825832188129425, -0.5630145072937012, 0.17207364737987518, 0.3401949107646942, -0.08526943624019623, -0.3753453493118286, -0.22200767695903778, 0.01687825657427311, 0.3412919044494629, 0.07749448716640472, -0.13893622159957886, 0.0789051502943039, 0.38574349880218506, -0.25167664885520935, -0.49600979685783386, -0.25212162733078003, -0.16748292744159698, -0.4305134117603302, 0.3631327748298645, -0.6653833389282227, 0.3703039288520813, -0.08982934802770615, 0.22963102161884308, -0.199794203042984, -0.2646939754486084, -0.12427518516778946, -0.305642306804657, -0.05767537280917168, -0.07438851147890091, 0.03866963088512421, -0.6054561734199524, -0.1593494564294815, -0.06941758841276169, -0.24319039285182953, 0.02147899754345417, -0.19385410845279694, 0.015349838882684708, -0.10284771770238876, -0.38414594531059265, -0.06818538159132004, -0.25165507197380066, -0.2424963116645813, 0.04051190987229347, 0.08025906980037689, 0.15215931832790375, -0.11277718842029572, -0.05265742912888527, -0.0929972305893898, -0.11252645403146744, 0.15571525692939758, -0.07257217913866043, 0.11641479283571243, -0.5736553072929382, -0.06928371638059616, 0.056091006845235825, -0.022609196603298187, -0.25221654772758484, -0.3925037086009979, 0.15150238573551178, -0.32912519574165344, -0.14936551451683044, -0.45189380645751953, 0.09181960672140121, 0.13442857563495636, 0.027775246649980545, -0.39009398221969604, -0.188773974776268, -0.09876453876495361, 0.13227024674415588, -1.9895763397216797, -0.004951129201799631, 0.39324328303337097, 0.3437729775905609, 0.04515119269490242, -0.06414096057415009, 0.21124182641506195, 0.011867969296872616, 0.064283087849617, -0.14193114638328552, 0.06432633101940155, 0.25611308217048645, -0.2758944630622864, 0.04366159066557884, 0.17671887576580048, -0.176347017288208, -0.004324629437178373, -0.08632757514715195, 0.03624654561281204, -0.27713292837142944, 0.16467563807964325, -0.1073942556977272, 0.036018986254930496, -0.022143671289086342, 0.18132345378398895, 0.22036060690879822, 0.14169973134994507, 0.18366533517837524, 0.03898826986551285, 0.07775990664958954, 0.10858377069234848, 0.04996643215417862, 0.3283599317073822, 0.30098479986190796, 0.19795557856559753, 0.14873448014259338, 0.06258702278137207, 0.278606653213501, 0.27039220929145813, 0.30652642250061035, 0.03064107708632946, -0.06942722201347351, 0.10476548969745636, -0.10427030175924301, -0.0017483666306361556, 0.20032748579978943, -0.19609718024730682, -0.02520168013870716, -0.04905771091580391, 0.10319622606039047, -0.0429978109896183, -0.3035769760608673, -0.026597684249281883, 0.036646220833063126, 0.12070561945438385, 0.21351197361946106, 0.16293717920780182, 0.03877374902367592, 0.02275053784251213, -0.18247660994529724, 0.41766250133514404, 0.06066066399216652, -0.9387111663818359, -1.5821985006332397, -0.66620272397995, -0.6503126621246338, 0.5157588124275208, 0.11723287403583527, 0.22477254271507263, 0.16791830956935883, -0.5477956533432007, 0.21494026482105255, -0.06244679540395737, -0.11582744121551514, 0.10339537262916565, 0.16832923889160156, 0.09504003822803497, 0.07590407133102417, 0.32846418023109436, -1.1028746366500854, 0.6781558394432068, -0.36458951234817505, 0.272776335477829, 0.3064912259578705, -0.22684413194656372, 0.319351464509964, 0.3946317434310913, -0.6246604323387146, -0.18785586953163147, -0.1678898185491562, 0.15015099942684174, -0.1610908955335617, -0.8210572600364685, -0.2494814246892929, 0.19369496405124664, 0.07519495487213135, 0.36058247089385986, -0.7002196907997131, 0.04041239246726036, 0.09282933175563812, 0.12300160527229309, 0.39668557047843933, 0.027758272364735603, 0.005139286629855633, 0.1468445062637329, -0.09112611413002014, -0.07899712771177292, -0.16735678911209106, -0.006882073823362589, 0.3063959777355194, -0.1028585135936737, -0.10006124526262283, -0.05234263464808464, 0.08104204386472702, -0.2700579762458801, 0.03190528228878975, -0.0606340691447258, 0.07978716492652893, -0.2847698926925659, 0.012601133435964584, -0.005983984563499689, 0.34302282333374023, 0.41196781396865845, 0.05126101151108742, -0.07249616086483002, 0.20582962036132812, 0.2123066484928131, 0.007982663810253143, -0.19122566282749176, -0.1439589262008667, -1.0066580772399902, -0.6599789261817932, -0.5891556739807129, -0.09382522851228714, 0.17866499722003937, -0.0727064460515976, 0.14659129083156586, -0.26742082834243774, 0.3082475960254669, -0.039006736129522324, 0.2737903892993927, 0.16652987897396088, 0.09119854867458344, -0.06340891867876053, 0.03976335749030113, -0.1312791258096695, -0.35045287013053894, -0.17331671714782715, 0.10893281549215317, -0.18743786215782166, 0.6066499352455139, 0.2639820873737335, 0.4219874441623688, -0.3925422430038452, -0.049660760909318924, -0.2671818733215332, -0.34323203563690186, -0.4152102470397949, -0.3097744286060333, 0.06832849979400635, 0.02718069776892662, -0.09209755808115005, 0.040027834475040436, 0.0935889258980751, -0.12825927138328552, 0.05568217486143112, 0.10687700659036636, 0.24793151021003723, -0.29006198048591614, -0.23170924186706543, 0.13588695228099823, 0.17013157904148102, 0.1149233877658844, -0.12487291544675827, 0.24648922681808472, 0.04747411608695984, 0.1321439892053604, -0.19658713042736053, -0.35600829124450684, -0.015649713575839996, -0.06954264640808105, -0.34886908531188965, -0.04186183959245682, 0.00951966643333435, 0.019489049911499023, -0.10824619233608246, 0.3548771142959595, -0.18484658002853394, 0.36964669823646545, 0.08627612143754959, -0.02273879386484623, 0.09334191679954529, -0.2562820017337799, 0.28561559319496155, -0.4441342055797577, 0.14391212165355682, 0.2510066330432892, -0.18246990442276, 0.2860247492790222, 0.0744689330458641, -0.4728640019893646, -0.04598313570022583, -0.5229896306991577, 0.4222131371498108, -0.10188045352697372, -0.09198535978794098, -0.19146884977817535, -0.25252822041511536, 0.4923664629459381, -0.27649444341659546, -0.4562787413597107, 0.14328379929065704, -0.2904278635978699, 0.22363804280757904, 0.3301631808280945, -0.9883207678794861, -0.2608313262462616, 0.061596743762493134, -0.2654453217983246, -0.2451281100511551, 0.21692943572998047, 0.13838380575180054, -0.5989658236503601, 0.13872036337852478, 0.2854630649089813, -0.0019212194019928575, 0.11267974972724915, -0.6139616966247559, 0.051558539271354675, 0.2391052097082138, -0.051070183515548706, -0.32579049468040466, 0.17340362071990967, -0.4255719780921936, -0.38931411504745483, 0.12246809899806976, -0.16658933460712433, -0.11179735511541367, -0.20161932706832886, -0.014111767522990704, 0.1966293305158615, 0.04299388453364372, -0.23868955671787262, 0.0784020870923996, 0.29951924085617065, 0.2904065251350403, 0.028184941038489342, -0.2116803675889969, -0.2317918986082077, 0.1748727560043335, -0.25715169310569763, -0.12403376400470734, -0.1500127911567688, 0.12470347434282303, 0.40793362259864807, -0.15000133216381073, -0.025585666298866272, 0.15818491578102112, 0.20618733763694763, 0.09739774465560913, 0.1995486617088318, 0.20087002217769623, 0.06774232536554337, -0.02492034249007702, 0.21090026199817657, -0.14623962342739105, -0.40506047010421753, -0.2763666808605194, 0.42545080184936523, 0.30527105927467346, 0.374782532453537, 0.08340957760810852, -0.24035754799842834, -0.18299861252307892, -0.5903351902961731, 0.10011614859104156, -0.2696685194969177, 0.14158132672309875, 0.21244306862354279, -0.16989126801490784, 0.374105304479599, 0.10611341148614883, 0.18010544776916504, -0.3532876670360565, 0.1378619223833084, -0.3139752149581909, -0.19672398269176483, 0.3199750483036041, -0.17554040253162384, -0.15327076613903046, -0.3287495970726013, -0.33075249195098877, -0.47145625948905945, 0.124176524579525, 0.153252512216568, -0.4418339729309082, 0.0373416468501091, 0.15665949881076813, 0.28724801540374756, -0.024428892880678177, -0.08571518957614899, 0.20934909582138062, -0.058115288615226746, 0.0405459851026535, -0.11403154581785202, -0.0489002950489521, -0.22471608221530914, -0.16194957494735718, 0.0008433537441305816, 0.3706594705581665, -0.32466205954551697, 0.0877356305718422, -0.21236148476600647, 0.042822495102882385, -0.009802041575312614, 0.13289085030555725, 0.069477878510952, 0.1334526389837265, 0.07553775608539581, 0.045713432133197784, 0.2666187286376953, -0.014258917421102524, -0.14946161210536957, -0.060604795813560486, 0.04280565306544304, -0.19869466125965118, -0.3909216523170471, -0.007906725630164146, 0.08831630647182465, 0.036165427416563034, -0.20343749225139618, 0.0820324644446373, 0.5557757019996643, 0.007623454090207815, -1.0833766460418701, -1.06977117061615, -0.641732931137085, 0.4708646833896637, -0.5456050634384155, -0.3580321669578552, -0.03263743966817856, 0.19972293078899384, -0.13145440816879272, -0.02906123176217079, -0.45440423488616943, -0.4247007369995117, 0.07749713957309723, 0.062077634036540985, 0.19048519432544708, -0.045692604035139084, -0.18469849228858948, 0.26636284589767456, 0.21496474742889404, 0.020869797095656395, -0.26091375946998596, 0.21148352324962616, -0.2825717329978943, -0.2092330902814865, 0.23850442469120026, 0.0846560001373291, -0.4762767255306244, 0.2783564031124115, -0.04077382758259773, 0.3591811954975128, -0.15867921710014343, -0.04022133722901344, 0.06454144418239594, 0.40066635608673096, -0.2176392525434494, -0.07819349318742752, 0.4597831666469574, -0.3847683370113373, 0.014773562550544739, -0.04840441793203354, -0.3035668134689331, 0.14539489150047302, 0.069617360830307, -0.3783588111400604, 0.18931624293327332, -0.4193354547023773, -0.21266716718673706, -0.06914224475622177, -0.10118579864501953, 0.053873345255851746, 0.012128934264183044, -0.05158248171210289, -0.05432947352528572, 0.10322970151901245, -0.022478224709630013, 0.09039746969938278, 0.09002824127674103, -0.6045277714729309, -0.07852153480052948, -0.20331890881061554, -0.07750100642442703, 0.14785508811473846, -0.16643214225769043, 0.11053463071584702, 0.08771079778671265, -0.053647931665182114, 0.08854863047599792, -0.11300578713417053, -1.5428574085235596, -2.1164190769195557, -0.8927836418151855, -0.13497315347194672, -0.36850109696388245, -0.054450441151857376, -0.07284843176603317, 0.04488189145922661, 0.3688907325267792, 0.31475088000297546, -0.38418048620224, -0.1257718801498413, -0.1101580485701561, 0.17602534592151642, 0.033544011414051056, -0.048173725605010986, -0.0719582661986351, -0.20415876805782318, -0.41622868180274963, -0.09980128705501556, 0.012778139673173428, 0.06301424652338028, -0.3132224977016449, 0.1535435914993286, 0.37521758675575256, -0.6005845665931702, -0.16525903344154358, 0.24829119443893433, 0.11405418068170547, 0.3737383186817169, 0.08147125691175461, 0.25618627667427063, 0.2514369487762451, 0.28605785965919495, 0.2549327313899994, 0.07247396558523178, 0.18278197944164276, 0.169993594288826, -0.12398573011159897, 0.1311739981174469, -0.45416682958602905, -0.15731416642665863, -0.16205927729606628, 0.23577652871608734, 0.1815161108970642, -0.3030112385749817, -0.043180737644433975, -0.19593681395053864, 0.15550574660301208, 0.05092564970254898, 0.013680747710168362, 0.3158724308013916, -0.11323723942041397, 0.12546387314796448, 0.3810736835002899, -0.14321443438529968, 0.268570214509964, -0.09443135559558868, 0.11337270587682724, 0.027354100719094276, 0.08170956373214722, 0.03274010866880417, 0.05934564396739006, 0.11834407597780228, 0.11373677849769592, -0.06635406613349915, 1.700370192527771, 1.0063214302062988, 0.3151065409183502, 0.20733177661895752, -0.21379220485687256, -0.5042575001716614, 0.1774701178073883, 0.5653475522994995, 0.5020931363105774, -0.0937679335474968, 0.0966138169169426, -0.09514343738555908, -0.22969083487987518, 0.13238339126110077, -0.015225670300424099, -0.30848705768585205, 0.12462970614433289, -0.13846808671951294, 0.2487402707338333, -0.11107592284679413, 0.3730415999889374, 0.13218629360198975, -0.14551503956317902, 0.6628352999687195, 0.11967214941978455, 0.40586230158805847, -0.4453446567058563, 0.15731386840343475, 0.6233640909194946, 0.07785205543041229, 0.14558769762516022, 0.4537277817726135, -0.08876272290945053, -0.0892791673541069, 0.2063700556755066, -0.04635883495211601, 0.25863713026046753, -0.09255122393369675, -0.029245400801301003, -0.15262161195278168, -0.13559424877166748, 0.12690140306949615, -0.21946276724338531, 0.009992080740630627, 0.2378770411014557, 0.3052402436733246, -0.07658377289772034, 0.543601930141449, -0.05386834591627121, 0.2515852749347687, -0.17801426351070404, 0.12476949393749237, -0.4104718863964081, 0.0537235327064991, 0.04135575145483017, 0.15896247327327728, 0.09484461694955826, -0.1254110038280487, -0.13675165176391602, -0.022680096328258514, 0.026613976806402206, -0.33094483613967896, -0.0017328060930594802, 0.06612589210271835, -0.06176786124706268, -0.1323118656873703, 0.009866759181022644, 0.12767058610916138, 0.8278863430023193, -0.43887564539909363, -0.01783076860010624, -0.49275100231170654, -0.34419092535972595, 0.22497114539146423, -0.6186822652816772, 0.06994941085577011, -1.010347604751587, -0.5186045169830322, -0.6293298006057739, -0.03047817014157772, -0.13193824887275696, 0.3671768009662628, 0.2621288597583771, -0.03541076183319092, -0.03163794055581093, -0.1481858193874359, 0.02796723134815693, -0.38868364691734314, -0.5749931931495667, -0.9968432188034058, -0.7473776340484619, -0.38760504126548767, 0.5303027033805847, -0.03484753519296646, -0.37622591853141785, -0.22238986194133759, 0.7300761342048645, 0.38050490617752075, 0.13104799389839172, 0.008008311502635479, 0.341020405292511, -0.0992199033498764, 0.09642741084098816, -0.16105866432189941, 0.3487236499786377, 0.2923703193664551, 0.019711755216121674, 0.27857476472854614, 0.16109082102775574, 0.06992308050394058, -0.25327855348587036, -0.11917262524366379, -0.13965372741222382, -0.27968671917915344, 0.32005631923675537, 0.0673074722290039, -0.05351110175251961, 0.2155521959066391, 0.18306861817836761, -0.23770023882389069, 0.21557703614234924, 0.015153095126152039, 0.15764276683330536, 0.1731622964143753, 0.11192403733730316, 0.0357096903026104, -0.2664720416069031, 0.28047722578048706, 0.21738259494304657, 0.016375752165913582, -0.272788405418396, 0.08651049435138702, 0.12533007562160492, 0.23392581939697266, -0.1348465234041214, -0.09249168634414673, 0.2199883610010147, 0.4005148410797119, -0.32491442561149597, -0.42332959175109863, 0.01347015704959631, -0.9513989686965942, -0.18785947561264038, -0.20179344713687897, -0.11929812282323837, -0.6345393657684326, 0.035371918231248856, 0.3939661383628845, -0.44673952460289, -0.3699471652507782, -0.12322511523962021, -0.2896232604980469, 0.09718886762857437, -0.06694122403860092, 0.3751503825187683, 0.1679873764514923, 0.07025349140167236, -0.14864666759967804, -0.3815959095954895, -0.5958102941513062, 0.39485132694244385, -0.5944290161132812, -0.10079370439052582, -0.42735469341278076, -0.3752289414405823, -0.10263731330633163, 0.17069488763809204, -0.569308340549469, 0.6261310577392578, -0.23819172382354736, -0.1590617448091507, -0.6060630679130554, -0.4777964651584625, -0.08265558630228043, -0.03860225901007652, -0.6107943058013916, 0.4377937614917755, -0.5522946715354919, 0.268545538187027, 0.3956843614578247, -0.7614181637763977, -0.382533460855484, -0.5559178590774536, 0.16524596512317657, -0.03582468256354332, -0.13340811431407928, 0.037513524293899536, 0.05855488404631615, -0.10550984740257263, -0.020958155393600464, 0.1752857267856598, -0.00011642122990451753, -0.01728239841759205, -0.21981438994407654, -0.09413879364728928, -0.0847155898809433, -0.03666442260146141, -0.06867318600416183, 0.057453617453575134, -0.3229469060897827, -0.42658424377441406, 0.01703628897666931, 0.24527038633823395, -0.2956244945526123, 0.07144492864608765, 0.13192307949066162, -0.3197390139102936, -0.8200328946113586, -0.04590857774019241, -0.2280423492193222, -0.16600599884986877, -0.3250730037689209, -0.24306154251098633, -0.2194364219903946, -0.24240116775035858, 0.06513591855764389, 0.10625433176755905, -0.11267398297786713, -0.0920468419790268, -0.12451554834842682, 0.03001410886645317, 0.05228958651423454, 0.5794256329536438, 0.10364875942468643, -0.33586058020591736, -0.030173201113939285, -0.42961353063583374, 0.3544122874736786, 0.0855623111128807, 0.17233538627624512, -0.5633911490440369, -0.6254774332046509, 0.13683615624904633, 0.07943882048130035, 0.3335999548435211, -0.6671399474143982, -0.05989765748381615, 0.14685140550136566, 0.08838165551424026, 0.15325695276260376, -0.294400691986084, 0.25170010328292847, 0.08844181895256042, -0.1436006724834442, 0.16932792961597443, 0.22382712364196777, -0.43526726961135864, -0.1584111750125885, -0.1585952341556549, 0.4578738212585449, -0.47635260224342346, 0.03057033009827137, -0.1869804561138153, -0.04392416775226593, -0.17751778662204742, 0.08100591599941254, -0.3437329828739166, 0.08783011138439178, 0.09870635718107224, -0.3277822434902191, 0.19804924726486206, -0.04508376494050026, 0.07853307574987411, -0.2786065638065338, 0.34037163853645325, 0.10382048785686493, -0.07951299101114273, 0.0021670879796147346, 0.336830735206604, -0.025965867564082146, 0.09203901141881943, 0.0632830560207367, 0.15638981759548187, -0.5976371169090271, -1.7153691053390503, -1.6513383388519287, -0.1579674780368805, -0.19300174713134766, -0.5690609216690063, 0.1507505625486374, -0.21587102115154266, 0.14385059475898743, 0.19340993463993073, 0.20637090504169464, 0.147385835647583, 0.2952825427055359, 0.09591859579086304, -0.0999830961227417, 0.14249399304389954, -0.2717832922935486, 0.21656790375709534, 0.4517258107662201, -0.49375006556510925, -0.2719672918319702, -0.5395250916481018, -0.055869124829769135, -0.4700878858566284, 0.24760882556438446, -0.2994932234287262, 0.06618565320968628, -0.17409148812294006, 0.05520658940076828, 0.0473138801753521, -0.12512275576591492, -0.02402930147945881, -0.12513574957847595, 0.09252087771892548, -0.6125423908233643, 0.13792626559734344, -0.23593653738498688, -0.035328153520822525, -0.07977630943059921, 0.29807785153388977, -0.3619473874568939, -0.34644755721092224, 0.26341816782951355, -0.010760997422039509, -0.013277634978294373, -0.5522658824920654, 0.07179688662290573, -0.08753769844770432, 0.12515051662921906, 0.022942092269659042, 0.33395859599113464, 0.0776694267988205, 0.014795089140534401, 0.05844855681061745, 0.1829327642917633, 0.06946910172700882, 0.22611753642559052, 0.0269358828663826, 0.13692721724510193, -0.5722319483757019, -0.005961240269243717, 0.05768030881881714, -0.14930936694145203, -0.17377251386642456, -0.13598228991031647, -0.053070317953825, 0.27234628796577454, 0.06303171068429947, 0.001225898158736527, -0.6434465646743774, -1.1563084125518799, -0.16382890939712524, -0.29095369577407837, -0.7160829305648804, 