{"weights": {"layers": [{"weights": [-0.21560454368591309, -0.06987985968589783, -0.020789198577404022, -0.03396010771393776, 0.14917871356010437, -0.02261224202811718, -0.03481239080429077, 0.25834327936172485, -0.4763946235179901, -0.06075233966112137, -0.747879147529602, 0.12908080220222473, -0.10926550626754761, 0.13330551981925964, 0.007328524719923735, -0.15313883125782013, 0.08692331612110138, -0.03458656370639801, -0.4308333098888397, -0.4816168248653412, -0.04755868390202522, -0.012088512070477009, -0.08451811969280243, 0.13609246909618378, 0.12471187859773636, 0.13519078493118286, -0.1630895733833313, -0.14958997070789337, 0.40298205614089966, 0.05857165530323982, -0.27578267455101013, -0.17182154953479767, -0.06011459231376648, -0.11487656831741333, 0.14110007882118225, 0.0306901503354311, -0.16233322024345398, 0.22455160319805145, 0.17917369306087494, -0.06070159748196602, 0.03639199212193489, 0.1682715117931366, 0.2655716836452484, 0.03679407760500908, 0.24938218295574188, 0.12785404920578003, 0.25897178053855896, -0.2146589457988739, 0.1277512162923813, -0.1207592710852623, 0.1949739009141922, -0.04481535777449608, 0.04485287889838219, -0.17860627174377441, -0.010501714423298836, -0.04321904852986336, 0.24520912766456604, -0.28047603368759155, -0.07630253583192825, 0.26994600892066956, 0.22465017437934875, -0.0161195807158947, -0.05279725044965744, 0.10557499527931213, -0.09699280560016632, -0.034996069967746735, 0.46399685740470886, 0.2417614609003067, 0.48360785841941833, 0.1322391927242279, -0.24047072231769562, -0.2931387424468994, 0.1783485859632492, 0.09658096730709076, 0.36554819345474243, -0.5677686333656311, 0.13578958809375763, -0.03169776871800423, -0.3766722083091736, 0.060899678617715836, 0.2185424566268921, -0.22521549463272095, -0.07472947239875793, 0.21887017786502838, -0.336968332529068, 0.0027180106844753027, 0.14405687153339386, 0.3725038170814514, -0.18949349224567413, -0.1839730143547058, -0.01809048280119896, -0.5790050029754639, 0.40950992703437805, 0.28270190954208374, -0.19696207344532013, 0.29102635383605957, -0.31558898091316223, 0.1815555840730667, -0.3519473671913147, -0.4225417971611023, -0.056422777473926544, -0.29163670539855957, 0.21803538501262665, -0.2815418541431427, 0.13485990464687347, 0.10600510239601135, 0.24614623188972473, -0.43267643451690674, 0.20377510786056519, -0.14440326392650604, 0.089618980884552, 0.07577362656593323, 0.11455915868282318, 0.09444617480039597, -0.07727804780006409, -0.08560354262590408, -0.15636183321475983, 0.399678111076355, -0.11004872620105743, -0.06194048747420311, 0.09947356581687927, 0.202589213848114, -0.14523865282535553, 0.04749060049653053, -0.13675081729888916, 0.008049365133047104, 0.002827147487550974, 0.22524867951869965, 0.08173968642950058, -0.004087293054908514, 0.1991848349571228, -0.0064034429378807545, -0.005292150657624006, 0.1155616044998169, 0.113230861723423, 0.01192099042236805, 0.00863285269588232, -0.24618253111839294, 0.09998061507940292, 0.2604823112487793, -0.0693502426147461, -0.46048250794410706, 0.22300292551517487, 0.2976433038711548, -0.06926457583904266, -0.12705668807029724, -0.187447652220726, 0.06490008533000946, -0.2236538976430893, 0.09152419865131378, 0.05946464091539383, -0.0926513820886612, 0.06468219310045242, 0.029454734176397324, 0.043101876974105835, 0.2615455090999603, 0.33840829133987427, 0.05316413566470146, -0.030527886003255844, 0.06083887815475464, 0.037444617599248886, 0.1196352168917656, 0.0863460972905159, 0.29560649394989014, -0.03519024699926376, 0.4267255663871765, 0.14437483251094818, 0.2489852011203766, -0.02873292937874794, 0.037131790071725845, 0.047376882284879684, 0.04731747508049011, -0.0045288666151463985, 0.05695527046918869, -0.18183204531669617, 0.21298490464687347, -0.1847909539937973, -0.06469571590423584, 0.0452784039080143, 0.2085067629814148, 0.12382250279188156, -0.017276998609304428, 0.10374388098716736, 0.25841930508613586, -0.17164534330368042, -0.11354908347129822, 0.15403267741203308, 0.2944927215576172, 0.21609589457511902, -0.14473216235637665, -0.08087177574634552, -0.1391505002975464, -0.09181194007396698, 0.02544752135872841, 0.21955938637256622, -0.38404691219329834, 0.17959392070770264, -0.21600812673568726, -0.14205583930015564, 0.2672223746776581, 0.009484801441431046, 0.17234601080417633, 0.06352339684963226, -0.02416934072971344, -0.1194760650396347, 0.10367607325315475, -0.1203836053609848, 0.42225292325019836, 0.41029655933380127, -0.2171410769224167, -0.3468686044216156, 0.12630055844783783, 0.3551672101020813, -0.04588750749826431, 0.13368292152881622, -0.2954040467739105, 0.12070214003324509, 0.0029770713299512863, 0.0010586162097752094, 0.04172082617878914, -0.26974067091941833, 0.020367300137877464, -0.3054073452949524, -0.05952506139874458, 0.18168674409389496, 0.18058709800243378, 0.3057841658592224, 0.09173326194286346, 0.07455266267061234, 0.2516348958015442, 0.18938808143138885, 0.26993322372436523, 0.35408708453178406, -0.14269784092903137, 0.2359972894191742, 0.15293189883232117, -0.18990397453308105, -0.03636378422379494, 0.061310503631830215, -0.006750010885298252, -0.14868612587451935, 0.06587281823158264, 0.08226313441991806, -0.017612295225262642, -0.08289872109889984, -0.19482597708702087, -0.2223849594593048, -0.15717460215091705, -0.09130831062793732, -0.0434824638068676, -0.15865029394626617, -0.1771276891231537, -0.15456432104110718, 0.022073693573474884, -0.057025328278541565, 0.14471843838691711, -0.19345971941947937, -0.1324673742055893, 0.10344487428665161, 0.2619348168373108, -0.00377751630730927, 0.0011424768017604947, 0.16592638194561005, 0.002549039898440242, -0.159811332821846, -0.10340927541255951, -0.1298280656337738, -0.09044706076383591, 0.22526784241199493, -0.1878000646829605, 0.04708421975374222, 0.12262576073408127, 0.1972978413105011, -0.20746667683124542, -0.27495867013931274, -0.37040063738822937, -0.11532057076692581, -1.631814956665039, 0.5232812166213989, -0.06342580169439316, 0.11650564521551132, 0.1385970115661621, -0.03549047186970711, 0.21831507980823517, -0.22789864242076874, 0.41278067231178284, 0.07943099737167358, -0.10836093127727509, -0.02247527614235878, 0.12093088775873184, -0.30997321009635925, -0.06058582663536072, 0.054348137229681015, 0.20282180607318878, -0.8326833844184875, 0.1250467151403427, -0.12277615815401077, -0.0831572636961937, 0.1224624365568161, -0.0874967947602272, -0.051390983164310455, -0.017650993540883064, 0.14919017255306244, 0.013048061169683933, 0.27006837725639343, -0.12546195089817047, 0.06519258767366409, 0.05495055019855499, 0.05716922506690025, 0.14145711064338684, -0.43062084913253784, 0.09004104137420654, 0.264999657869339, 0.07834913581609726, -0.12071650475263596, 0.2775416672229767, 0.5084988474845886, -0.16293032467365265, 0.10510212928056717, 0.17203447222709656, -0.12343025207519531, -0.0036492012441158295, 0.12463743984699249, 0.06375543028116226, 0.015589665621519089, 0.2715117037296295, 0.2264021635055542, -0.18562132120132446, -0.20550674200057983, 0.016496311873197556, 0.10342159122228622, -0.27501997351646423, 0.03236132860183716, -0.07153652608394623, -0.03400567173957825, -0.2831401526927948, 0.19222447276115417, -0.1164780929684639, 0.17237438261508942, 0.2367563247680664, 0.956474781036377, 0.5591263771057129, -0.8699893355369568, -0.8855160474777222, 0.1015884131193161, -0.07135184109210968, -0.30726537108421326, 0.48364996910095215, 0.6222531199455261, 0.05509474501013756, 0.20699229836463928, 0.13333863019943237, -0.10474315285682678, -0.2806812524795532, 0.13888169825077057, 0.015943093225359917, -0.06813833862543106, 0.19617705047130585, 0.03716485574841499, -0.20671972632408142, -0.36633747816085815, -0.47283655405044556, -0.1066620722413063, -0.0004644362779799849, 0.3249824047088623, 0.26728329062461853, 0.18422573804855347, -0.5078717470169067, 0.09945251047611237, -0.48335254192352295, -0.15582075715065002, 0.040539707988500595, -0.04397149011492729, 0.07872914522886276, 0.02319192886352539, -0.7545593976974487, 0.05259782448410988, 0.02173239178955555, 0.22312630712985992, 0.25633949041366577, 0.13277506828308105, 0.145744189620018, 0.16495084762573242, 0.33414262533187866, 0.2059066891670227, 0.2788982391357422, 0.0516531877219677, 0.010463527403771877, 0.14953066408634186, -0.07954920828342438, -0.04994514212012291, -0.03157918155193329, 0.097395159304142, 0.0257249865680933, 0.2783322334289551, -0.03490341827273369, 0.0514359250664711, -0.5127071738243103, 0.07241233438253403, -0.1997416913509369, 0.2584367096424103, 0.11845295876264572, 0.2560066282749176, -0.08105841279029846, -0.17336440086364746, 0.18237999081611633, 0.08505385369062424, -0.22350077331066132, -0.3802597224712372, 0.3024991452693939, 0.17961247265338898, 0.20683538913726807, 0.12693282961845398, 0.23503483831882477, -0.1748204082250595, -0.14029785990715027, 0.4070728123188019, -0.030568040907382965, -0.6093605756759644, 0.05696764215826988, -0.09684806317090988, 0.10937602818012238, -0.12073800712823868, -0.019114451482892036, 0.05971274897456169, 0.1854238063097, 0.06598486751317978, -1.0716516971588135, 0.22418059408664703, -0.023842277005314827, 0.21116356551647186, -0.09755702316761017, 0.37760624289512634, 0.22015656530857086, -0.23876290023326874, 0.1977928727865219, -0.5335569977760315, -0.13747066259384155, 0.43779173493385315, -0.21005170047283173, -0.12401552498340607, -0.055204663425683975, 0.10445067286491394, -0.0842481255531311, 0.22060054540634155, 0.07669401913881302, 0.22956737875938416, -0.018628176301717758, 0.25579607486724854, 0.11769147962331772, 0.039605263620615005, 0.08473935723304749, 0.15200461447238922, -0.025565816089510918, 0.10800018161535263, 0.07332147657871246, 0.06667942553758621, 0.4732913076877594, -0.2503989338874817, -0.04771380126476288, -0.02353542298078537, -0.1787271499633789, -0.0363076776266098, -0.09071553498506546, 0.04019280895590782, -0.07295911759138107, -0.10897423326969147, -0.18214622139930725, -0.3234378695487976, 0.18201200664043427, -0.1002684086561203, -0.22997069358825684, 0.06838355958461761, 0.06554429978132248, -0.012425386346876621, 0.08893943578004837, 0.7580719590187073, 0.019725028425455093, -1.0954166650772095, -0.8944607973098755, 0.11383627355098724, -0.03231802210211754, 0.15463201701641083, -0.2581007480621338, -0.37937796115875244, 0.006399377249181271, 0.19436359405517578, 0.15241050720214844, 0.17928284406661987, 0.006830446422100067, 0.0004147409927099943, -0.07189124077558517, -0.038264233618974686, 0.13335180282592773, -0.4827916920185089, -0.23375628888607025, 0.38574954867362976, 0.6044461727142334, -0.031527288258075714, -0.2000090479850769, 0.031355880200862885, 0.25058963894844055, 0.12974785268306732, -0.2647402882575989, -0.3048033118247986, -0.5619077086448669, -0.036058396100997925, -0.12233076989650726, -0.050648242235183716, -0.0242473091930151, 0.273470938205719, -0.13439138233661652, 0.06841909885406494, -0.01013079285621643, 0.06339336186647415, -0.33500662446022034, 0.1591549664735794, 0.08833575248718262, 0.2193770706653595, 0.40627381205558777, 0.10634785890579224, 0.4507991373538971, -0.0020319551695138216, 0.35283052921295166, 0.09633375704288483, 0.19304421544075012, -0.18878909945487976, 0.2134496569633484, -0.023541418835520744, -0.0032066453713923693, 0.023719651624560356, -0.044323984533548355, 0.016129648312926292, 0.0877511277794838, -0.25169894099235535, 0.17763733863830566, 0.18780972063541412, 0.1036897823214531, 0.20555400848388672, -0.08366334438323975, 0.15100105106830597, -0.11039619892835617, -0.33797892928123474, -0.2414611428976059, 0.4847556948661804, -0.0686359852552414, -0.41584742069244385, -0.5716003775596619, -0.010637150146067142, -0.4623921811580658, -0.4591831564903259, 0.029516074806451797, -0.496636301279068, 0.30459657311439514, 0.5803813338279724, -0.04179537296295166, -0.07263106852769852, 0.396641343832016, 0.07582005858421326, -0.005519322585314512, -0.18148797750473022, -0.20783650875091553, -0.38322800397872925, -0.3256063759326935, 0.34536242485046387, -0.5354785323143005, -0.2947215139865875, -0.0009836964309215546, -0.22564977407455444, -0.05583614483475685, 0.2458275556564331, -0.7444230914115906, 0.35325971245765686, 0.1781734675168991, 0.1620202362537384, 0.183498352766037, 0.026721151545643806, 0.0715099424123764, -0.3492792248725891, -0.10552561283111572, 0.04671108350157738, 0.35240867733955383, 0.12364888936281204, 0.07669099420309067, 0.1634884923696518, 0.048446543514728546, 0.0643104538321495, 0.2780100107192993, -0.8479949831962585, -0.027056735008955002, -0.26694199442863464, -0.276825487613678, -0.021622860804200172, 0.013338681310415268, -0.16507571935653687, 0.1975226253271103, 0.09620373696088791, -0.22705037891864777, 0.21031159162521362, -0.07752574235200882, 0.08195042610168457, -0.07841324806213379, 0.015204320661723614, -0.11572682857513428, -0.14059628546237946, 0.06406894326210022, 0.15310007333755493, 0.11620301008224487, 0.02640732005238533, -0.19529788196086884, -0.18872509896755219, -0.0713224783539772, -0.018021248281002045, -0.1275770217180252, -0.041141580790281296, -0.0790099948644638, -0.08090678602457047, -0.13393114507198334, 0.1820584088563919, -0.0908082127571106, 0.08721035718917847, -0.328490287065506, -0.0826338604092598, -0.1838797628879547, -0.1975102573633194, 0.06197337433695793, -0.28955188393592834, 0.11066005378961563, 0.013583358377218246, -0.14539572596549988, 0.1594674289226532, -0.13375797867774963, -0.3477558195590973, -0.1231740340590477, 0.015656642615795135, -0.19944791495800018, -0.2505219280719757, -0.16394156217575073, -0.0004129032604396343, 0.024235205724835396, 0.5008265376091003, -0.16465075314044952, 0.2249012142419815, 0.31532859802246094, 0.17116431891918182, -0.04616798087954521, -0.11233986914157867, 0.270131379365921, -0.043738219887018204, -0.11645589768886566, -0.17605741322040558, -0.2963049113750458, -0.2374701052904129, 0.08006009459495544, 0.10857528448104858, -0.17249630391597748, -0.12782157957553864, 0.06685569882392883, 0.10067372769117355, -0.03031880594789982, -0.18159522116184235, -0.04154326394200325, 0.046430811285972595, -0.04096696153283119, 0.1315191239118576, 0.21322785317897797, 0.09672559052705765, -0.22447068989276886, -0.018187614157795906, -0.10179874300956726, -0.2570123076438904, 0.08651196211576462, -0.29620349407196045, -0.21759545803070068, -0.26807165145874023, 0.0017933531198650599, -0.0809902474284172, 0.12246156483888626, -0.5719950795173645, -0.17486941814422607, 0.24779656529426575, 0.5512576103210449, -0.5533205270767212, -1.1842931509017944, -0.49076759815216064, -0.7281721234321594, -0.3072318434715271, 0.6144794821739197, 0.31743282079696655, -0.11960044503211975, -0.1956644356250763, 0.2994006872177124, -0.36978769302368164, -0.31025999784469604, 0.06607083976268768, 0.28435221314430237, -0.28946012258529663, 0.08808492869138718, -0.13191144168376923, -0.17077286541461945, -0.1842062771320343, -0.467313289642334, 0.0317876935005188, 0.3777333199977875, 0.11803139001131058, -0.25332579016685486, 0.010937515646219254, -0.06978999078273773, 0.16608531773090363, 0.08350464701652527, -0.26000717282295227, 0.18906763195991516, 0.09667832404375076, 0.07232992351055145, -0.5218667984008789, -0.09914059191942215, 0.25787386298179626, 0.042069464921951294, -0.26641184091567993, 0.2665420472621918, 0.40731775760650635, -0.31251922249794006, 0.09274326264858246, -0.19406995177268982, -0.2836402952671051, -0.7874578833580017, -0.1903017908334732, 0.30090829730033875, -0.18778640031814575, -0.09976563602685928, -0.1103220283985138, -0.1919226050376892, -0.41004475951194763, 0.5371207594871521, -0.13652296364307404, 0.10933540016412735, 0.3805873394012451, -0.054762888699769974, 0.04601726680994034, -0.050241269171237946, -0.062236420810222626, -0.13118767738342285, 0.18353548645973206, -0.17218533158302307, 0.12453359365463257, 0.14602047204971313, 0.3364003896713257, -0.004193606786429882, 0.10598282516002655, 0.020526772364974022, -0.36141133308410645, -0.8722589015960693, 0.041210636496543884, 0.2027973234653473, -0.1390364021062851, -0.27595844864845276, 0.1771910935640335, 0.17244338989257812, -0.0254007950425148, 0.024357743561267853, -0.02203516662120819, -0.1717599481344223, -0.0065158274956047535, -0.40405330061912537, -0.2748223543167114, 0.2558598220348358, 0.21651768684387207, 0.2567339241504669, 0.6651138663291931, -0.6414839029312134, -0.5303279757499695, 0.13290895521640778, -0.020405542105436325, -0.8447057008743286, 0.020969081670045853, -0.24979610741138458, -0.18458865582942963, 0.21987095475196838, 0.16953884065151215, -0.5400615930557251, 0.026307692751288414, -0.23726658523082733, 0.034158557653427124, -0.028173604980111122, 0.18433691561222076, 0.10046306997537613, 0.26658785343170166, 0.01825997233390808, -0.32451319694519043, 0.00535509642213583, -0.14973661303520203, 0.07006750255823135, 0.11916239559650421, 0.16723071038722992, 0.3031572997570038, -0.4202815890312195, -0.05997994914650917, 0.13030852377414703, -0.07911355048418045, 0.23363763093948364, 0.19918808341026306, 0.028105145320296288, -0.04578620567917824, -0.11989667266607285, 0.18590758740901947, -0.10731004178524017, -0.3728618323802948, 0.3376244008541107, -0.17311891913414001, -0.1076161190867424, -0.39625322818756104, -0.1200561672449112, 0.054964397102594376, -0.011455083265900612, 0.09761776775121689, -0.16266022622585297, 0.46577656269073486, 0.04552772268652916, -0.445651113986969, -0.5512945055961609, -0.361646443605423, 0.021109839901328087, -0.5906760096549988, -0.2619533836841583, -0.034301042556762695, 0.14785438776016235, -0.1435348242521286, -0.02072937972843647, 0.7741072773933411, 0.3514569103717804, -0.017198214307427406, -0.24365217983722687, -0.25474971532821655, 0.14513787627220154, -0.5219590663909912, 0.6522632241249084, 0.3574046194553375, -0.1334293633699417, 0.2025367021560669, -0.56010901927948, 0.2212475687265396, -0.0326768159866333, 0.01931891217827797, 0.07153408229351044, -0.12581904232501984, -0.5141372680664062, 0.29244264960289, 0.3364204168319702, 0.03525535762310028, 0.1045166552066803, 0.1966312676668167, -0.8084753155708313, 0.12280566990375519, 0.3975553810596466, 0.19487643241882324, 0.16870154440402985, -0.09449620544910431, -0.16034673154354095, 0.4241279065608978, 0.2599579989910126, 0.18664728105068207, 0.011159304529428482, 0.1339089274406433, -0.10047929733991623, -0.06771682947874069, -0.23986664414405823, -0.0011300045298412442, -0.0007310765795409679, -0.555335521697998, 0.1403188556432724, -0.06029929220676422, 0.1439909189939499, 0.2939954400062561, -0.31879159808158875, 0.07705578953027725, -0.10518047213554382, -0.007415290921926498, -0.22689443826675415, -0.15715500712394714, -0.04353904351592064, -0.045579444617033005, 0.07226955145597458, 0.1942722499370575, -0.2548740804195404, 0.048711635172367096, 0.16218559443950653, 0.03154836222529411, 0.10507920384407043, -0.19760704040527344, -0.15742804110050201, -0.011598961427807808, 0.17775888741016388, 7.707599434070289e-05, 0.26604631543159485, -0.14055830240249634, -0.12024886906147003, -0.07074710726737976, 0.010700715705752373, 0.15461541712284088, -0.028694957494735718, -0.1759534329175949, 0.10956618934869766, -0.03111332282423973, 0.07093103975057602, -0.22308005392551422, -0.19572848081588745, -0.18916195631027222, 0.04566160589456558, -0.0664723813533783, 0.07421652972698212, 0.15519435703754425, 0.08366904407739639, 0.19709160923957825, 0.1229340136051178, -0.15957488119602203, -0.12253718078136444, 0.06444813311100006, -0.3309674561023712, -0.047826603055000305, 0.05560994893312454, -0.07576853036880493, 0.011419843882322311, -0.01638425700366497, -0.14826203882694244, -0.03133951872587204, 0.10740580409765244, -0.3349848687648773, 0.08036311715841293, 0.27296411991119385, 0.2619410455226898, 0.06687520444393158, 0.2181212604045868, 0.26338547468185425, -0.04264025017619133, 0.10019417852163315, 0.008134783245623112, -0.12774626910686493, 0.10433591157197952, -0.22229363024234772, -0.28235310316085815, -0.09790880978107452, 0.04492036625742912, 0.10238761454820633, 0.018050704151391983, -0.04186329245567322, -0.04181564226746559, -0.08415441960096359, -0.25662100315093994, -0.46534499526023865, -0.234426811337471, -0.24673911929130554, -0.22004994750022888, -0.28037145733833313, -0.2940634489059448, -0.2176063060760498, -0.26489734649658203, -1.1460391283035278, -0.20255878567695618, 0.3193635940551758, 0.38271966576576233, 0.04966570436954498, 0.21998919546604156, 0.09064634144306183, -0.005584432277828455, 0.16619046032428741, -0.0610954612493515, 0.1403750777244568, -0.2657351493835449, 0.1651873141527176, -0.09265988320112228, -0.2882702052593231, -0.41878989338874817, -0.11106932163238525, -0.678007185459137, -0.08349548280239105, -0.5556529760360718, 0.7116740345954895, 0.28407612442970276, 0.001041814568452537, -0.21842053532600403, 0.2327970266342163, -0.35620737075805664, -0.045722462236881256, -0.15402202308177948, 0.21420736610889435, 0.5230905413627625, 0.0032003021333366632, -0.3292990028858185, -0.33861401677131653, 0.07252485305070877, 0.7436994910240173, -0.2566092908382416, 0.1438332349061966, 0.1125219464302063, 0.14523154497146606, 0.03649957850575447, 0.19770735502243042, 0.30824923515319824, 0.015516390092670918, -0.46795839071273804, -0.03618659824132919, 0.010600235313177109, -0.28284019231796265, -0.08497413992881775, -0.188487708568573, -0.19832587242126465, 0.20272566378116608, -0.2847949266433716, -0.14579994976520538, 0.13766469061374664, -0.20527110993862152, -0.03666307404637337, -0.4191978871822357, -0.39755403995513916, -0.15168768167495728, -0.08661434054374695, -0.08528070896863937, 0.1382896453142166, -0.13217619061470032, 0.04077998176217079, -0.0034658736549317837, 0.2545585632324219, -0.8312689065933228, -1.140103816986084, 0.42902976274490356, -0.31613102555274963, 0.040500249713659286, -0.09698622673749924, 0.2755712568759918, 0.0019880535546690226, 0.011471722275018692, -0.524722158908844, 0.054352544248104095, -0.3343326151371002, 0.02461899071931839, 0.1493818163871765, 0.163971409201622, 0.06784848123788834, -0.6500118970870972, 0.01660478673875332, -0.05446852371096611, -0.2010001540184021, 0.06328415125608444, 0.34511396288871765, 0.33973678946495056, 0.09296716749668121, -0.09505506604909897, -0.10512964427471161, 0.1819482147693634, 0.1960250288248062, 0.10123926401138306, -0.17925310134887695, 0.3882480263710022, 0.4219575524330139, -0.18193840980529785, 0.3013351559638977, -0.13512100279331207, -0.07046552747488022, 0.0664830356836319, 0.07241003215312958, -0.016338592395186424, 0.22838909924030304, -0.030649464577436447, 0.04868423566222191, 0.15456455945968628, 0.00592553336173296, 0.11425671726465225, -0.2430942803621292, -0.13153845071792603, 0.08931712061166763, -0.031013213098049164, 0.05944797396659851, -0.03760765120387077, 0.21333712339401245, -0.07861017435789108, -0.011023707687854767, -0.18162189424037933, -0.2900734543800354, -0.027683591470122337, 0.2245948612689972, 0.1995418518781662, -0.02946443296968937, 0.34419989585876465, -0.22370390594005585, -0.13218484818935394, -0.05202256888151169, 0.04880699887871742, -0.3140013813972473, -0.06422418355941772, -0.06374680995941162, 0.2108180820941925, 0.15631859004497528, -0.3754296898841858, 0.20486074686050415, -0.06846015155315399, -0.2135201245546341, -0.20126667618751526, -0.008514381013810635, 0.03758633881807327, -0.361667275428772, 0.05024326592683792, -0.028006726875901222, -0.0976782739162445, -0.0036806773860007524, 0.15077222883701324, -0.08417066931724548, 0.20897622406482697, 0.33397921919822693, 0.05332191288471222, 0.11951684951782227, 0.3816308379173279, -0.016000153496861458, -0.03829173743724823, -0.08152288943529129, -0.06249352917075157, 0.022207513451576233, 0.2725057303905487, -0.057582076638936996, -0.11504463106393814, 0.04621448367834091, -0.04396872967481613, 0.08335792273283005, 0.06510748714208603, -0.05425301566720009, -0.186977356672287, 0.03576820716261864, 0.03437234088778496, -0.09271242469549179, 0.1553436815738678, 0.10596036165952682, 0.06533925235271454, 0.22001424431800842, 0.044151421636343, 0.2816295623779297, 0.05805668607354164, -0.05450798198580742, -0.22947730123996735, 0.10760673880577087, -0.031169027090072632, -0.08245239406824112, 0.09491243958473206, -0.04353971406817436, 0.30196502804756165, -0.3388589322566986, -0.6489188075065613, -0.04721251130104065, 0.188136026263237, 0.03566957265138626, 0.09120781719684601, -0.15009257197380066, 0.1615981161594391, -0.05844172462821007, -0.14768864214420319, -0.2812774181365967, -0.020456310361623764, 0.04519658908247948, 0.34565603733062744, -0.11481858789920807, -1.0059973001480103, -0.9530842304229736, -0.5351054668426514, -0.5147210359573364, 0.46082010865211487, -0.3480331301689148, 0.7072349786758423, -0.29624930024147034, 0.5412324666976929, -0.12984052300453186, -0.41392484307289124, 0.2860170602798462, 0.1568181961774826, 0.16539150476455688, 0.18144656717777252, 0.011177152395248413, 0.013216856867074966, -0.23341335356235504, -0.1471881866455078, -0.38261568546295166, 0.12885181605815887, -0.6189537644386292, -0.0671922042965889, 0.19722047448158264, -0.1398465782403946, 0.18107569217681885, -0.3406296670436859, -0.2272012084722519, 0.16666699945926666, 0.014938578009605408, -0.6804418563842773, -0.4255965054035187, 0.06975644826889038, 0.28295305371284485, -0.19249723851680756, 0.44810765981674194, -0.34690478444099426, 0.06663364171981812, -0.11932526528835297, -0.18776467442512512, 0.11378315091133118, 0.025230856612324715, -0.08020922541618347, 0.08967708796262741, -0.4420078992843628, -0.14387768507003784, 0.05660252273082733, 0.2700222134590149, 0.06287235766649246, 0.13876409828662872, 0.06007606163620949, -0.032626476138830185, 0.3855912983417511, 0.2883063554763794, -0.1571008861064911, -0.026901867240667343, 0.25235515832901, -0.5110083818435669, -0.09281276166439056, -0.18365900218486786, 0.06486698240041733, 0.12122045457363129, 0.27127310633659363, -0.06702457368373871, -0.0636732429265976, -0.20687560737133026, -0.006958620622754097, 0.07529474794864655, -0.5848242044448853, -0.5558980107307434, -1.4240645170211792, -0.3453395366668701, 0.05609959363937378, -0.320141464471817, 0.1494903266429901, 0.002405651146546006, 0.05971530079841614, -0.21882657706737518, -0.1674736738204956, 0.3219909369945526, -0.03197837248444557, 0.6014884114265442, -0.1503366082906723, -0.1879890263080597, -0.5732207894325256, 0.6618368625640869, 0.35106945037841797, -0.5697745680809021, 0.2603699564933777, 0.28465983271598816, 0.5861127972602844, -0.13580019772052765, -0.019017338752746582, 0.39022400975227356, 0.5557851195335388, 0.5443198084831238, 0.25223544239997864, 0.20766621828079224, 0.3282981812953949, 0.17821021378040314, -0.4219229221343994, -0.16373175382614136, -0.0894877016544342, -0.24746057391166687, -0.38470613956451416, 0.4696768522262573, -0.21509940922260284, -0.8619063496589661, -0.09873367846012115, -0.5686547756195068, 0.04944256320595741, 0.12888002395629883, -0.43532395362854004, 0.20476530492305756, 0.3052692413330078, -0.022971974685788155, -0.07590579241514206, 0.28436312079429626, -0.22480615973472595, 0.23622234165668488, 0.15784241259098053, 0.10498911887407303, -0.013820321299135685, -0.34065571427345276, -0.06063615530729294, 0.1994585245847702, -0.24502010643482208, 0.13629160821437836, 0.13502083718776703, 0.18283356726169586, 0.1901865452528, -0.4382055401802063, 0.01254337653517723, -0.17139235138893127, 0.13177227973937988, -0.0038579758256673813, -0.02833511494100094, 0.1207350566983223, -0.08712977916002274, -0.11276659369468689, 0.3019008934497833, 0.034088268876075745, -0.32377758622169495, 0.10438577830791473, -0.2575438320636749, -0.343151718378067, -0.07153422385454178, 0.010808191262185574, 0.026980523020029068, -0.0017985084559768438, 0.008416911587119102, 0.03733103349804878, 0.21002888679504395, -0.016766661778092384, -0.10141794383525848, 0.05838734284043312, -0.08503958582878113, 0.08369666337966919, 0.05449393391609192, -0.20080630481243134, -0.025887884199619293, 0.11785290390253067, -0.050573624670505524, -0.1226443275809288, 0.14134857058525085, -0.0200066976249218, 0.33291321992874146, -0.02492278441786766, 0.26801443099975586, -0.11244476586580276, 0.32513365149497986, 0.04445525258779526, 0.06784863024950027, 0.13021524250507355, 0.061435144394636154, 0.0735577642917633, -0.05053127184510231, -0.07673177123069763, -0.15373054146766663, -0.2712111473083496, -0.1471596509218216, -0.14407600462436676, 0.26823854446411133, 0.0705024003982544, -0.07477284222841263, 0.07863017171621323, 0.15556588768959045, -0.0525071918964386, 0.009683874435722828, 0.09130751341581345, -0.14566248655319214, -0.074269600212574, -0.43772441148757935, -0.038092806935310364, -0.1258755475282669, -0.03826317563652992, -0.2518986761569977, -0.06667162477970123, -0.3222534954547882, -0.014929385855793953, 0.10588878393173218, -0.1665288805961609, 0.26100221276283264, 0.011037486605346203, -0.24915894865989685, -0.3269103467464447, -0.3953173756599426, -0.17051707208156586, -0.2151394933462143, -0.06197846680879593, -0.4852127134799957, -0.08827751129865646, 0.20774321258068085, 0.1725776195526123, -0.011568685062229633, 0.04875444620847702, 0.33558711409568787, 0.20923203229904175, -0.298595666885376, -0.15665562450885773, -0.02661277912557125, 0.19775880873203278, -0.2409960776567459, -0.11990036070346832, 0.3711736798286438, 0.30043700337409973, -0.21240681409835815, -0.3031161427497864, -0.36900705099105835, 0.05636099353432655, 0.4503464698791504, -0.06528276950120926, 0.07958438992500305, 0.1114538162946701, -0.06259765475988388, 0.22011876106262207, -0.38563916087150574, 0.06251150369644165, -0.14185747504234314, -0.15393228828907013, -0.1680481731891632, -0.08929028362035751, 0.19060367345809937, -0.15661758184432983, -0.03682085499167442, -0.19095811247825623, -0.15181347727775574, -0.5142384767532349, 0.3012668490409851, -0.08839218318462372, -0.07421703636646271, 0.1894666999578476, 0.041328903287649155, -0.10642313957214355, -0.06377620995044708, -0.1747175008058548, -0.1319374293088913, 0.12740516662597656, 0.1964227855205536, 0.02819875255227089, -0.26580238342285156, -0.1537664383649826, 0.017135046422481537, 0.13952165842056274, -0.029333679005503654, -0.06552930921316147, -0.391133576631546, -0.08850621432065964, -0.24907638132572174, -0.15852221846580505, 0.8312093615531921, 0.024294231086969376, -0.1953146904706955, -0.3190487325191498, -0.03564899414777756, -0.3176344931125641, -0.7370409369468689, -0.38782334327697754, -0.0063213687390089035, 0.05351853370666504, 0.2159775346517563, 0.00034233173937536776, -0.18951278924942017, 0.059641268104314804, 0.2873872220516205, -0.27924060821533203, -0.2384020835161209, 0.23735922574996948, -0.03076278604567051, -0.1324886977672577, 0.18772874772548676, -0.4125311076641083, -0.11237820982933044, -0.054929468780756, 0.14626501500606537, -0.13069967925548553, -0.060770560055971146, 0.11450451612472534, 0.11974427849054337, 0.4580840766429901, 0.2831786274909973, 0.2991904020309448, 0.24292820692062378, -0.14528146386146545, -0.2641388475894928, -0.3550325632095337, 0.22127766907215118, -0.23218704760074615, -0.2682836651802063, -0.17407125234603882, -0.008919279091060162, -0.04164624214172363, -0.22699540853500366, 0.024908944964408875, 0.13818040490150452, -0.2798755168914795, -0.23349618911743164, 0.11927521228790283, -0.19357770681381226, 0.0808626264333725, -0.13510511815547943, 0.06538357585668564, 0.30817246437072754, 0.08948691934347153, -0.04777661710977554, -0.06811845302581787, -0.0038829445838928223, -0.1402566283941269, 0.10008189082145691, -0.10784181952476501, 0.19259235262870789, 0.14140033721923828, 0.3847024142742157, -0.03541315346956253, -0.22396592795848846, -0.13391099870204926, -0.5444769859313965, 0.24233825504779816, 0.2950316369533539, -0.1425103396177292, -0.26810163259506226, -0.4426163136959076, 0.36161568760871887, -0.07663550227880478, 0.07236877083778381, -0.01808343641459942, -0.06259766221046448, -0.05148038640618324, -0.31014126539230347, 0.20054225623607635, 0.09211895614862442, -0.1740853637456894, -0.11983001232147217, 0.1902748942375183, 0.15184906125068665, 0.2748095989227295, 0.09047567844390869, -0.10224829614162445, 0.2265876978635788, -0.5313083529472351, 0.0955013558268547, 0.1827334463596344, -0.020910276100039482, -0.5113474726676941, -0.018531670793890953, 0.3538123071193695, -0.30396226048469543, -0.022816810756921768, 0.46202945709228516, -0.2570999562740326, 0.08902957290410995, 0.31118276715278625, 0.2888012230396271, 0.0817795917391777, 0.40862852334976196, 0.2342650592327118, 0.20040231943130493, 0.2195054292678833, -0.03229658678174019, 0.21954913437366486, 0.484935462474823, 0.16629637777805328, -0.13129864633083344, 0.5575945377349854, -0.08106778562068939, 0.14123737812042236, -0.13259068131446838, 0.1676911562681198, 0.17306889593601227, -0.18934749066829681, 0.17706318199634552, -0.2586102783679962, -0.049167558550834656, -0.017770402133464813, -0.08923904597759247, -0.2848222851753235, -0.0028620946686714888, -0.3120487928390503, 0.06801256537437439, -0.5554787516593933, 0.11996229737997055, -0.0646028220653534, 0.024071194231510162, 0.25351470708847046, -0.13918478786945343, -0.18427804112434387, -0.16095097362995148, 0.17429356276988983, -0.23963171243667603, -0.5437198877334595, -0.492666631937027, -0.037656404078006744, -0.9552000164985657, -0.525585949420929, 0.04918069764971733, 0.09416453540325165, 0.5154224634170532, 0.05584396421909332, 0.25292471051216125, 0.1981191188097, 0.1444171518087387, 0.031199337914586067, 0.1464773416519165, -0.18250668048858643, 0.5093114376068115, -0.28087449073791504, 0.6257132291793823, -0.35045406222343445, -0.44214269518852234, -0.25995439291000366, 0.10663340985774994, 0.45532041788101196, 0.13727988302707672, -0.07768197357654572, 0.7259833216667175, 0.21448642015457153, 0.047254420816898346, 0.36679401993751526, -0.30044636130332947, 0.09661097824573517, -0.16512790322303772, 0.10751760751008987, 0.25822773575782776, -0.31974127888679504, 0.3618479371070862, -0.19786986708641052, 0.4082012176513672, -0.40507936477661133, -0.08248094469308853, -0.14946816861629486, -0.003926876001060009, -0.6611456871032715, 0.1722656786441803, -0.6983563303947449, 0.014163332059979439, -0.11607996374368668, 0.07567274570465088, -0.07907357066869736, 0.07786048948764801, 0.2514664828777313, -0.1420670747756958, 0.07343883067369461, -0.19191399216651917, -0.173031285405159, -0.2077120542526245, -0.25657954812049866, -0.20750324428081512, -0.019124969840049744, -0.13297437131404877, -0.35557061433792114, 0.2569141089916229, -0.2328994870185852, -0.29757753014564514, -0.17526136338710785, 0.6237702965736389, 0.22238191962242126, -0.8600217700004578, -1.183508038520813, -0.3442673683166504, -0.7521730661392212, -0.7332701086997986, -0.12477792799472809, 0.17357322573661804, -0.10329148173332214, -0.11027564108371735, -0.07808001339435577, -0.23464757204055786, 0.48710575699806213, 0.00897004920989275, 0.32103729248046875, 0.12739548087120056, 0.05582942068576813, -0.41959047317504883, 0.1379205733537674, -0.14020533859729767, -0.33835679292678833, -0.5088199377059937, 0.21973809599876404, -0.2899574935436249, 0.2763380706310272, -0.07284369319677353, 0.03037097491323948, -0.17324817180633545, -0.306244432926178, -0.3633590042591095, 0.23674245178699493, 0.1303589791059494, 0.12694872915744781, 0.2054019421339035, 0.20927205681800842, 0.022315163165330887, 0.10344366729259491, -0.2853374779224396, -0.37676435708999634, -0.5408088564872742, 0.3584621250629425, -0.16564755141735077, 0.3361191153526306, 0.1997283548116684, 0.4167462885379791, 0.09039265662431717, -0.28520336747169495, 0.10243180394172668, 0.09636998921632767, 0.23338764905929565, -0.017581811174750328, -0.1455075889825821, -0.07230355590581894, -0.26258736848831177, -0.08579257875680923, 0.18910028040409088, 0.0914958044886589, 0.04926585778594017, -0.007517306134104729, 0.20780377089977264, -0.26233038306236267, 0.1833236962556839, -0.017726097255945206, 0.008268827572464943, -0.05079351365566254, 0.05523991957306862, -0.05657922476530075, 0.015519227832555771, -0.053353551775217056, 0.03901657462120056, 0.05796045437455177, 0.13356874883174896, -0.3843574523925781, -0.0688522458076477, -0.001968536525964737, 0.05958861485123634, -0.01934317871928215, 0.05160686373710632, 0.0581534169614315, -0.1689683198928833, 0.07054392248392105, -0.11697177588939667, 0.061135925352573395, 0.07521776109933853, 0.20664983987808228, -0.024753345176577568, 0.49278533458709717, -0.17406751215457916, 0.017981693148612976, 0.08390394598245621, -0.02159828320145607, 0.4975796043872833, -0.15999937057495117, 0.15369683504104614, -0.1828596591949463, 0.41525501012802124, 0.3761324882507324, 0.21665304899215698, 0.27502375841140747, -0.22098517417907715, -0.19098089635372162, -0.049909912049770355, -0.05108751356601715, -0.3618229031562805, -0.09517798572778702, -0.4316655099391937, -0.2659752070903778, -0.17465324699878693, -0.10551116615533829, -0.08180549740791321, -0.12336718291044235, -0.13722679018974304, 0.0005809187423437834, 0.012743830680847168, -0.17207001149654388, -0.12873958051204681, 0.010031484998762608, -0.0003492235264275223, -0.15259021520614624, -0.027018869295716286, 0.02436225861310959, 0.017102185636758804, -0.03831368312239647, 0.013642065227031708, -0.037874478846788406, 0.28705722093582153, 0.02994004264473915, 0.5991146564483643, -0.08389612287282944, -0.08648638427257538, 0.047344837337732315, -0.19542713463306427, -0.10696631669998169, 0.07864081114530563, -0.031810689717531204, -0.17154569923877716, -0.09263937920331955, -0.20906904339790344, -0.2230982929468155, -0.12851525843143463, -0.014667649753391743, -0.11961578577756882, 0.3520788848400116, 0.6674439311027527, 0.13167326152324677, -0.5218281745910645, 0.02622372843325138, -0.014278756454586983, 0.08218998461961746, -0.1659228503704071, 0.12307149916887283, 0.13145899772644043, -0.026543453335762024, 0.10885563492774963, 0.33605125546455383, -0.31600698828697205, -0.06013597175478935, -0.051678240299224854, -0.4813587963581085, -0.06985149532556534, 0.23026229441165924, 0.07532526552677155, -0.011083805002272129, -0.39399856328964233, 0.1931687593460083, 0.2557334303855896, 0.11386234313249588, -0.041405629366636276, 0.11500491946935654, -0.06907858699560165, -0.07168742269277573, 0.15769122540950775, 0.058610111474990845, 0.17311066389083862, -0.03158112242817879, -0.09193842113018036, -0.11700042337179184, -0.26646143198013306, 0.20880284905433655, 0.0475635789334774, -0.24784697592258453, -0.03418349474668503, -0.1330084353685379, 0.010487995110452175, -0.014329997822642326, -0.14231812953948975, -0.29601043462753296, -0.20036254823207855, 0.13950136303901672, 0.5045062899589539, 0.03324958309531212, -0.08259695768356323, -0.09837216883897781, -0.22039374709129333, 0.21321986615657806, 0.16252245008945465, 0.0769902914762497, 0.12560954689979553, -0.2511231601238251, 0.08749095350503922, -0.09369323402643204, 0.08578061312437057, -0.06806017458438873, 0.21792179346084595, -0.017399346455931664, -0.010606772266328335, -0.0017985838931053877, 0.38287004828453064, -0.08650689572095871, 0.2669174373149872, 0.03396494314074516, -0.29792147874832153, 0.08498722314834595, -0.5909522175788879, -0.03385993465781212, 0.06638402491807938, 0.04735201597213745, -0.04958992823958397, 0.16817893087863922, 0.08847132325172424, 0.16144660115242004, 0.2618345618247986, -0.01174430176615715, -0.0852377638220787, 0.05032123625278473, 0.09421999752521515, -0.10089855641126633, 0.09027086198329926, -0.006624625064432621, -0.050675466656684875, -0.03894060105085373, -0.1770947426557541, 0.10935944318771362, 0.0661201924085617, 0.2379942387342453, 0.09544724225997925, 0.04058723896741867, -0.09528738260269165, 0.1465744823217392, 0.2738223373889923, -0.12163151055574417, 0.37154802680015564, -0.19325831532478333, -0.004868021234869957, -0.1265389770269394, -0.03536440432071686, 0.15650740265846252, -0.11288047581911087, -0.13142167031764984, -0.09456611424684525, 0.23970915377140045, 0.07740944623947144, 0.08622639626264572, 0.10639070719480515, 0.10533019155263901, -0.19944912195205688, -0.18927016854286194, 0.22517018020153046, -0.165460467338562, 0.02459050714969635, 0.49310728907585144, 0.15697260200977325, -0.020097440108656883, -0.13907259702682495, -0.12261933833360672, 0.3439825773239136, -0.30576252937316895, -0.05339205265045166, -0.0012232541339471936, 0.012116305530071259, -0.06537530571222305, -0.02759549207985401, 0.2466060370206833, -0.4425256550312042, -0.46836912631988525, -0.22333841025829315, 0.230784073472023, 0.518284022808075, -0.44249671697616577, -0.04432068392634392, 0.018744396045804024, 0.10005740821361542, 0.1444801390171051, 0.11009621620178223, 0.022153340280056, -0.028748076409101486, 0.23966823518276215, -0.668021023273468, -0.27690231800079346, 0.486396849155426, 0.42767030000686646, -0.2520372271537781, -0.2241395264863968, 0.005032260902225971, -0.376475065946579, 0.4527524709701538, -0.3515825867652893, 0.10831473767757416, 0.21457800269126892, -0.24487243592739105, -0.1956605613231659, 0.08331957459449768, -0.19279196858406067, 0.26572471857070923, 0.17385408282279968, 0.02835782617330551, 0.06309635937213898, -0.054703131318092346, 0.39213424921035767, -0.02430805005133152, 0.25128909945487976, 0.17943137884140015, 0.16092565655708313, 0.08939529210329056, -0.033903080970048904, -0.037034936249256134, -0.07871933281421661, 0.1715303361415863, 0.2757762372493744, 0.17458148300647736, 0.11659257858991623, 0.33732572197914124, -0.1371016502380371, -0.08971218764781952, 0.057746436446905136, -0.01698676124215126, 0.1776391863822937, 0.39945366978645325, 0.27724364399909973, -0.9308909773826599, 0.16899864375591278, -0.5222219228744507, -0.2680704593658447, -0.29163527488708496, 0.12061407417058945, -0.00225999066606164, -0.04020637646317482, 0.14919087290763855, -0.08823473751544952, -0.0034127538092434406, 0.1113266870379448, -0.20215678215026855, -0.29660552740097046, -0.3958657383918762, -0.5439725518226624, -0.34054720401763916, -0.2473936527967453, 0.5678926110267639, -0.03088366612792015, -0.12606815993785858, 0.10772473365068436, 0.3526461124420166, -0.1654946655035019, 0.000846773327793926, -0.05671520158648491, 0.07185976207256317, 0.1337757408618927, -0.16287612915039062, 0.29090026021003723, 0.41791489720344543, -0.18347275257110596, -0.08228173106908798, 0.26339322328567505, 0.27717772126197815, 0.09056061506271362, 0.23783165216445923, 0.5781043171882629, 0.5024846792221069, 0.46953701972961426, 0.2836593687534332, 0.10065143555402756, 0.2070751190185547, 0.13945767283439636, 0.4156566262245178, -0.21228541433811188, 0.0492529571056366, 0.08148455619812012, 0.15597765147686005, -0.04852897301316261, 0.23956410586833954, 0.3553939759731293, 0.3166535198688507, 0.10069577395915985, -0.4157900810241699, 0.2573338747024536, 0.129786416888237, 0.0674775019288063, -0.1028846874833107, 0.07888391613960266, 0.024956554174423218, 0.02145897038280964, -0.14042121171951294, 0.30457162857055664, 0.055472105741500854, -0.09719887375831604, -0.2044323831796646, 0.16117168962955475, 0.004253698512911797, -0.07969783246517181, -0.18068894743919373, -0.020908907055854797, -0.14799773693084717, 0.04213975369930267, 0.21760769188404083, -0.24729761481285095, -0.009179644286632538, -0.024798624217510223, 0.3884120583534241, -0.15099434554576874, -0.1795637011528015, -0.1877422034740448, 0.613945722579956, -0.11161908507347107, -0.32550016045570374, -0.5350565910339355, -0.3174034357070923, 0.048618968576192856, -0.15028496086597443, 0.037313301116228104, -0.27450791001319885, 0.27783748507499695, -0.38480931520462036, -0.11951740086078644, 0.08460482954978943, -0.24207095801830292, -0.0781567320227623, -0.654984176158905, -0.10010243952274323, -0.2723168432712555, -0.6053819060325623, 0.2641918361186981, 0.22776521742343903, 0.265829473733902, -0.3554084599018097, 0.17355318367481232, 0.48357704281806946, -0.10657471418380737, 0.13537126779556274, 0.009775456041097641, 0.08454188704490662, 0.0017496959771960974, 0.13356921076774597, 0.08416300266981125, 0.20833347737789154, 0.21796254813671112, -0.2596927583217621, -0.13423407077789307, -0.19667840003967285, -0.15541721880435944, 0.12278663367033005, 0.03735865280032158, 0.07122477144002914, -0.024166859686374664, -0.033084437251091, -0.6472963690757751, -0.15953293442726135, 0.13110101222991943, 0.017874814569950104, 0.10134214907884598, 0.09813150763511658, 0.0037046177312731743, 0.020101087167859077, 0.07461689412593842, -0.3544914126396179, -0.2341454178094864, -0.06543489545583725, -0.12405281513929367, 0.04397406056523323, 0.14347872138023376, 0.03831527754664421, 0.11114539951086044, -0.010308120399713516, -0.034614447504282, -0.2133176028728485, -0.3214568793773651, 0.07615230977535248, 0.06801004707813263, 0.25145113468170166, 0.37015146017074585, -0.01972365565598011, -0.10542989522218704, -0.06858289241790771, -0.2845786213874817, 0.41028642654418945, -0.16566359996795654, -0.09491761028766632, -0.02958439663052559, 0.06778575479984283, 0.027885843068361282, -0.034803569316864014, 0.01169594842940569, 0.07931753993034363, -0.07711656391620636, -0.002192472806200385, 0.2180771678686142, 0.11142800003290176, 0.04586556553840637, 0.09921461343765259, 0.29456987977027893, 0.04775407165288925, 0.01023035030812025, 0.07278969883918762, -0.19144268333911896, 0.4436924457550049, 0.07182051986455917, -0.25209349393844604, 0.1995597928762436, 0.015227016061544418, -0.14904369413852692, 0.09258199483156204, -0.08661733567714691, -0.12916970252990723, -0.08270174264907837, 0.22283488512039185, 0.040400099009275436, 0.003950166516005993, 0.13967609405517578, 0.35480377078056335, 0.16198574006557465, 0.09291934221982956, 0.13631951808929443, 0.12543851137161255, 0.148980513215065, -0.20176176726818085, -0.047541189938783646, -0.009283307939767838, -0.22731295228004456, 0.023179883137345314, -0.24737435579299927, 0.06362607330083847, -0.07989968359470367, -0.21975891292095184, 0.23824076354503632, 0.20464816689491272, -0.05199653282761574, 0.0764726847410202, -0.38828879594802856, -0.006931701675057411, -0.23667220771312714, -0.17880436778068542, -0.03456233814358711, 0.052142269909381866, 0.18131227791309357, -0.12729264795780182, 0.022790707647800446, -0.6008140444755554, -0.6606231927871704, -0.38965365290641785, -0.2792647182941437, 0.47902143001556396, -0.2713855504989624, 0.34956660866737366, -0.00023305370996240526, 0.014885068871080875, 0.04554566740989685, -0.17511896789073944, -0.3957268297672272, 0.12922002375125885, -0.4499281942844391, -0.33849313855171204, 0.006661342456936836, -0.5656369924545288, 0.012819614261388779, -0.11310603469610214, -0.24585631489753723, 0.5293374061584473, 0.2849990725517273, -0.21353447437286377, -0.07202796638011932, -0.04900185763835907, -0.3107084035873413, -0.035437777638435364, -0.31247076392173767, -0.38339513540267944, -0.2048134207725525, -0.06653286516666412, -0.08379126340150833, -0.16876859962940216, -0.031186632812023163, 0.05492672324180603, 0.38157474994659424, 0.25198841094970703, -0.2871384620666504, 0.005619120318442583, 0.5528607964515686, 0.2883264124393463, -0.330645889043808, 0.48172029852867126, -0.16036365926265717, 0.14496663212776184, 0.3083818852901459, 0.33650076389312744, -0.08035788685083389, 0.057678114622831345, 0.025087347254157066, 0.13499689102172852, 0.00907808169722557, -0.37955906987190247, -0.07751670479774475, 0.10515950620174408, -0.2582130432128906, 0.018336014822125435, -0.3401993215084076, -0.1240810677409172, 0.021639052778482437, 0.3352870047092438, -0.01935984008014202, -0.44514989852905273, -0.0025563181843608618, 0.22116945683956146, -0.01716652698814869, 0.1632707566022873, -0.6960664987564087, -0.3391031324863434, -0.062211211770772934, -0.12324066460132599, -0.09329353272914886, -0.5112940073013306, -0.5717180371284485, 0.40890124440193176, 0.21654310822486877, -0.2552075982093811, 0.2433663308620453, -0.17060764133930206, -0.39792874455451965, 0.24359463155269623, -0.18111345171928406, -0.08144016563892365, 0.16505850851535797, 0.14266370236873627, 0.04728752374649048, 0.5044311285018921, -0.9144165515899658, -0.17035123705863953, 0.2733604609966278, -0.09569531679153442, -0.30014774203300476, 0.009690787643194199, 0.08717555552721024, -0.13565824925899506, 0.47887468338012695, -0.24518679082393646, -0.7181157469749451, 0.11853406578302383, -0.29866477847099304, 0.026259461417794228, -0.3947297930717468, -0.11613409966230392, 0.16503939032554626, 0.18746384978294373, -0.031670473515987396, -0.1320025473833084, -0.1787627637386322, 0.19044595956802368, 0.18408362567424774, -0.017358439043164253, -0.19246041774749756, -0.2726125419139862, -0.05160737782716751, -0.31529977917671204, -0.11531602591276169, -0.2266646772623062, 0.07293734699487686, 0.2015194445848465, -0.07997146993875504, 0.00032227911287918687, 0.03764553740620613, -0.09758070111274719, 0.16182875633239746, -0.34968388080596924, -0.2572561502456665, -0.12841472029685974, 0.20054684579372406, -0.13316476345062256, -0.1907719075679779, 0.03463346138596535, -0.005475227255374193, 0.26226112246513367, 0.0774812400341034, -0.30068403482437134, 0.17145919799804688, -0.07685311138629913, 0.17070454359054565, -0.3321646451950073, -0.12511958181858063, 0.20186622440814972, -0.03777412697672844, -0.5743371844291687, -0.1879349946975708, -0.3970714211463928, -0.02809317037463188, 0.12040510028600693, 0.012950146570801735, -0.0460166372358799, -0.007960719987750053, -0.08997728675603867, 0.22398777306079865, 0.11005226522684097, 0.05510453134775162, 0.32068780064582825, 0.04661106318235397, 0.1930960714817047, 0.053064022213220596, 0.044866204261779785, 0.3542783856391907, -0.11865537613630295, -0.5537728667259216, 0.06546740233898163, -0.2181156873703003, -0.010922650806605816, 0.007171281147748232, -0.027302531525492668, 0.09869485348463058, 0.06449119746685028, 0.21405772864818573, -0.14879156649112701, 0.08689423650503159, 0.39791300892829895, 0.022137759253382683, 0.053129952400922775, -0.08503803610801697, -0.08103815466165543, -0.00955783948302269, -0.030900968238711357, -0.004571025725454092, -0.02054486982524395, 0.012090450152754784, 0.07674957811832428, -0.42642033100128174, 0.18851019442081451, -0.12328281253576279, 0.017348064109683037, 0.10279788076877594, 0.3161088526248932, -0.07134730368852615, -0.031637657433748245, 0.1120874434709549, 0.01219632476568222, 0.01428243238478899, 0.04439667612314224, -0.3167019486427307, 0.15470649302005768, 0.1017560064792633, -0.16036772727966309, 0.18686968088150024, 0.045730799436569214, 0.17400649189949036, -0.1325080841779709, 0.14207227528095245, -0.0190846286714077, 0.25377994775772095, -0.30918341875076294, 0.31033626198768616, 0.10581685602664948, 0.01940273493528366, 0.2551456391811371, -0.004759431350976229, 0.5046437382698059, -0.004346553701907396, 0.04716473072767258, 0.09050504863262177, -0.007541112136095762, -0.020851951092481613, -0.07143638283014297, -0.2999586760997772, -0.05150339752435684, 0.03646700084209442, 0.057687681168317795, -0.10457228869199753, 0.05366938188672066, -0.016507014632225037, 0.05703120678663254, -0.04341263696551323, 0.18706320226192474, -0.08963695913553238, 0.05250929296016693, 0.16369566321372986, 0.08795464038848877, 0.25413084030151367, -0.18470393121242523, -0.11273716390132904, -0.031026197597384453, -0.09257311373949051, -0.17575137317180634, -0.042029544711112976, 0.012746610678732395, -0.13080689311027527, -0.0793461799621582, -0.0623500794172287, -0.019040782004594803, 0.03338531404733658, -0.0033293047454208136, -0.04290289059281349, 0.011022943072021008, 0.043514080345630646, -0.1679462045431137, -0.2638820707798004, 0.039532847702503204, -0.12230709940195084, 0.37860411405563354, 0.07498736679553986, 0.004290437791496515, 0.31010517477989197, 0.15768449008464813, -0.0641474723815918, -0.07981941103935242, 0.0483010858297348, 0.05815138667821884, -0.09699509292840958, 0.07618211954832077, -0.1158246174454689, 0.07514774799346924, 0.041768770664930344, 0.09527810662984848, 0.10478518903255463, 0.02198529988527298, 0.2124977558851242, -0.8273931741714478, -0.7374448180198669, -0.12712590396404266, -1.3001594543457031, -0.5307226777076721, 0.34315887093544006, 0.25888919830322266, 0.03603503108024597, 0.3531476855278015, -0.012705746106803417, 0.03030017763376236, -0.11870366334915161, -0.08198053389787674, -0.08678193390369415, 0.05218864604830742, 0.0181169081479311, 0.06450915336608887, 0.20628175139427185, 0.1808728724718094, 0.20662358403205872, -0.6551375985145569, -0.20732414722442627, 0.3387175500392914, 0.30765336751937866, -0.13944324851036072, 0.04361497983336449, 0.027924794703722, -0.029828861355781555, 0.25165072083473206, 0.06999235600233078, -0.16580311954021454, 0.06601142883300781, 0.24322734773159027, 0.06893260031938553, 0.15956436097621918, 0.131837859749794, 0.13367819786071777, 0.15690934658050537, -0.04129686579108238, -0.08187784254550934, -0.1457405686378479, -0.11500057578086853, -0.07442089170217514, -0.02334318310022354, 0.031623657792806625, -0.0364723801612854, -0.13163304328918457, 0.140297070145607, 0.09944526106119156, 0.0006001552101224661, 0.10239551961421967, 0.06532403081655502, 0.08056596666574478, -0.007791973650455475, 0.1260654181241989, 0.3992951214313507, 0.1837359368801117, 0.15914812684059143, 0.011795087717473507, 0.08213107287883759, 0.06824934482574463, -0.3101256489753723, -0.005523044150322676, -0.14342762529850006, 0.13222992420196533, -0.13264793157577515, -0.1452317088842392, 0.23973941802978516, -0.0018307199934497476, 0.11063731461763382, -0.2988060712814331, -0.07442210614681244, 0.24822181463241577, -0.5814115405082703, 0.11679752171039581, -0.2012510746717453, -0.02086024545133114, -0.13568949699401855, 0.2564450800418854, 0.08033289760351181, 0.0395059734582901, 0.07101212441921234, -0.4331989586353302, 0.16135190427303314, 0.12542301416397095, 0.13068120181560516, 0.26668137311935425, -0.1260344535112381, 0.09854359179735184, 0.156777486205101, -0.10439189523458481, 0.2836483418941498, -0.000643200590275228, 0.030611764639616013, 0.10718324035406113, 0.06219669431447983, -0.07259916514158249, 0.007474855519831181, -0.21034717559814453, -0.19825203716754913, 0.055986594408750534, -0.02810569666326046, 0.01690586470067501, 0.08082669973373413, 0.02618277445435524, 0.06764226406812668, 0.22349517047405243, -0.06616871803998947, 0.04740157350897789, -0.07979101687669754, -0.17560343444347382, 0.14024558663368225, -0.33145537972450256, 0.008157739415764809, 0.3269578218460083, -0.18436864018440247, -0.3191545307636261, -0.23874805867671967, -0.1349589228630066, -0.014845522120594978, 0.14599236845970154, -0.1406644880771637, -0.14581868052482605, -0.15556025505065918, -0.1484355926513672, -0.43319833278656006, -0.05157330632209778, -0.006995026487857103, -0.04569760337471962, -0.0968179926276207, -0.16953186690807343, -0.2353992909193039, -0.24414129555225372, 0.00264792051166296, -0.0051811980083584785, -0.2368265837430954, 0.08861725777387619, -0.20398865640163422, -0.04019540548324585, -0.702399730682373, 0.45834144949913025, 0.11427691578865051, -0.2551170289516449, 0.04809240996837616, -0.18580982089042664, -0.22087106108665466, 0.39287957549095154, -0.08984266221523285, 0.10074813663959503, 0.31272074580192566, -0.06777865439653397, 0.1910705417394638, -0.16051113605499268, 0.011350665241479874, -0.38257119059562683, -0.002635916694998741, 0.01567987911403179, 0.04792386293411255, -0.35804083943367004, -0.3710314929485321, -0.0071928128600120544, 0.11071900278329849, -0.3333047926425934, -0.08695389330387115, 0.06246054917573929, -0.12984547019004822, -0.29787927865982056, 0.14845338463783264, 0.14952747523784637, 0.11224337667226791, -0.24430876970291138, 0.23329907655715942, 0.19693298637866974, -0.002991005079820752, 0.14955544471740723, -0.05216632038354874, -0.11726827174425125, 0.1659109890460968, 0.16262665390968323, 0.0005531179485842586, 0.13271665573120117, 0.35376495122909546, 0.12991377711296082, -0.020332252606749535, -0.1786719262599945, 0.11051077395677567, 0.14433783292770386, 0.044781312346458435, -0.3061951696872711, -0.26490211486816406, 0.36053532361984253, 0.03741873800754547, 0.03336237370967865, -0.23910093307495117, -0.12338370829820633, 0.07876695692539215, -0.1202273890376091, -0.36501339077949524, -0.20087093114852905, -0.024917498230934143, -0.32218557596206665, -0.06070595607161522, 1.0029428005218506, 0.10564812272787094, -0.3857203423976898, -0.624914824962616, -1.0323089361190796, -0.1375870555639267, -0.047479402273893356, -0.4086593687534332, -0.34753260016441345, -0.20052941143512726, 0.7207605838775635, -0.021236831322312355, -0.07716609537601471, 0.30486899614334106, -0.0043094577267766, -0.043001312762498856, 0.1451965719461441, 0.24828395247459412, -0.0006007436895743012, -0.5099854469299316, 0.31388816237449646, -0.3296080529689789, -0.4580427408218384, -0.35196688771247864, -0.19974999129772186, 0.30706900358200073, -0.1735123097896576, 0.4073241353034973, -0.1534409075975418, -0.46108880639076233, -0.00974979903548956, 0.020956501364707947, -0.2120841145515442, -0.07160269469022751, 0.4128330647945404, -0.21900229156017303, -0.19577962160110474, 0.22176530957221985, 0.21059291064739227, 0.0741942822933197, 0.30965331196784973, 0.23370610177516937, -0.2589808702468872, -0.3508532643318176, -0.38386857509613037, 0.005572688765823841, 0.5261760354042053, -0.09514882415533066, 0.04924392327666283, 0.05983426049351692, -0.2587517201900482, 0.16947031021118164, -0.09521598368883133, -0.009534690529108047, -0.1860036849975586, 0.06587743014097214, 0.024013875052332878, -0.054069988429546356, 0.13178570568561554, 0.0734267309308052, -0.053571488708257675, -0.30719977617263794, 0.0205317884683609, 0.16337931156158447, -0.16349299252033234, 0.3034874498844147, -0.4809642434120178, 0.08766399323940277, 0.14430740475654602, -0.32213521003723145, -0.21730707585811615, -0.23672588169574738, -0.18576335906982422, -0.5185465812683105, -0.6399905681610107, 0.2172960340976715, 0.026750534772872925, 0.11169783771038055, -0.2864302098751068, -0.09836044907569885, 0.18043015897274017, 0.18574440479278564, -0.17481675744056702, -0.004755544941872358, -0.0925612822175026, -0.00124931032769382, -0.4705253541469574, 0.5413355827331543, -0.4995897710323334, -0.3864380717277527, -0.02066037990152836, -0.4010807275772095, 0.2336513251066208, -0.1645773947238922, 0.06286638975143433, -0.04240688309073448, -0.37005093693733215, 0.06010636314749718, 0.03233049809932709, -0.6619178056716919, 0.30157670378685, -0.22398249804973602, -0.1626846194267273, -0.438907265663147, 0.655418336391449, -0.1268116980791092, 0.05179110914468765, -0.46627986431121826, -0.21651235222816467, -0.25076189637184143, -0.4957759976387024, 0.15434938669204712, -0.46121546626091003, 0.02108154632151127, -0.11295708268880844, 0.0855950340628624, 0.18468306958675385, 0.3293728530406952, 0.2516731023788452, 0.029920833185315132, -0.22044377028942108, 0.32647567987442017, 0.06431084871292114, -0.1505245715379715, 0.13291655480861664, -0.22952841222286224, -0.34380996227264404, 0.42460164427757263, -0.22724545001983643, -0.057942964136600494, -0.10082163661718369, 0.037882234901189804, -0.3775721490383148, 0.16274181008338928, 0.09248022735118866, 0.180935800075531, -0.10220551490783691, -0.21825648844242096, -0.1411866545677185, 0.01695338822901249, 0.11675975471735, -0.31949275732040405, -0.056342270225286484, 0.4270494878292084, 0.4745480418205261, -0.17853473126888275, 0.02957458607852459, -0.17727221548557281, 0.13885483145713806, 0.003411408280953765, 0.09661277383565903, 0.02228405512869358, 0.2153048813343048, 0.03225293010473251, 0.33532893657684326, 0.28616610169410706, -0.0828002467751503, -0.16659176349639893, 0.19100499153137207, 0.08653867989778519, 0.600736141204834, 0.27393972873687744, 0.24955794215202332, -0.5839149951934814, 0.09067463129758835, 0.32857683300971985, 0.012485763989388943, 0.25589805841445923, 0.037210531532764435, -0.4434431195259094, -0.177423357963562, 0.039187975227832794, -0.09686177968978882, -0.010942801833152771, 0.27113643288612366, -0.1673492193222046, 0.06433196365833282, -0.08174541592597961, 0.02763698436319828, -0.124819815158844, -0.007889855653047562, -0.0800895020365715, 0.07819478958845139, -0.02659466862678528, -0.30709806084632874, 0.3336832523345947, -0.035159964114427567, -0.09782550483942032, -0.07551980763673782, -0.11902803182601929, 0.1916816085577011, -0.09183356165885925, 0.1886315643787384, -0.16387665271759033, -0.40019670128822327, -0.038934655487537384, -0.2348961979150772, 0.10195530205965042, -0.04786784201860428, 0.08827057480812073, 0.12070805579423904, 0.025581294670701027, 0.19156800210475922, 0.14907623827457428, 0.514596700668335, -0.08997500687837601, -0.5076673626899719, -0.7042964100837708, -0.09313874691724777, 0.1623273342847824, -0.5340614318847656, 0.5947823524475098, -0.05587261915206909, -0.2595551908016205, 0.47628432512283325, -0.22009152173995972, 0.40112078189849854, 0.4313200116157532, -0.12414439767599106, 0.2121601104736328, 0.21724233031272888, -0.028320224955677986, -0.4470840096473694, 0.20314496755599976, 0.3460780084133148, -0.13071855902671814, -0.041739244014024734, -0.27201539278030396, 0.2274666577577591, -0.4237346649169922, -0.38563045859336853, 0.11590112000703812, 0.1804899126291275, -0.005227014422416687, 0.12465642392635345, 0.07199262827634811, 0.5108106136322021, 0.4258754253387451, 0.16862885653972626, -0.6594521403312683, -0.4672521650791168, 0.3465651571750641, -0.3288549780845642, -0.7170599102973938, -0.17951424419879913, -0.3510323166847229, -0.02613542228937149, 0.18739858269691467, 0.3449646532535553, -0.19762703776359558, -0.19921694695949554, 0.10715833306312561, -0.022817319259047508, 0.1529274433851242, 0.036955587565898895, -0.04239729046821594, 0.03677469491958618, -0.12600578367710114, -0.19329936802387238, -0.0072021144442260265, -0.1402467042207718, -0.29351839423179626, -0.08254264295101166, -0.15789121389389038, -0.1046772375702858, -0.0529487319290638, -0.45423275232315063, 0.04904142767190933, -0.6085521578788757, 0.13286830484867096, -0.03259757533669472, 0.12787610292434692, 0.2564467489719391, -0.12213172018527985, -0.46558448672294617, -0.27364102005958557, 0.11679481714963913, -0.35717612504959106, -0.02797790989279747, 0.03528214618563652, 0.3580232262611389, 0.24021385610103607, 0.3525252640247345, 0.131455659866333, -0.03504492715001106, 0.074750155210495, -0.019590239971876144, 0.08115094155073166, 0.150962233543396, 0.13615036010742188, 0.09831821173429489, 0.41719701886177063, -0.0876946970820427, -0.13381655514240265, 0.15179701149463654, -0.2641679048538208, 0.021078534424304962, -0.08285380899906158, -0.06255199760198593, 0.3025127053260803, -0.7332678437232971, -0.06404151022434235, 0.1621261090040207, 0.06956374645233154, 0.17758679389953613, -0.16249369084835052, 0.16949975490570068, -0.01061930414289236, 0.17156630754470825, 0.10501454770565033, 0.10971343517303467, 0.21825367212295532, 0.12725889682769775, 0.04663291573524475, 0.1437876671552658, 0.10257933288812637, -0.29171884059906006, 0.1470564901828766, -0.020085342228412628, 0.14536011219024658, 0.16139072179794312, -0.015164384618401527, -0.012529319152235985, -0.10634645819664001, -0.07624704390764236, -0.09132430702447891, -0.015367522835731506, 0.003342691343277693, -0.1381203532218933, 0.17098942399024963, -0.06526125222444534, 0.5331714153289795, -0.10523609071969986, -0.1258934587240219, -0.03896808996796608, -0.11373499780893326, -0.17069034278392792, -0.05464727431535721, -0.1269749253988266, -0.30924293398857117, 0.305691659450531, 0.30208733677864075, -0.08103816211223602, -0.18632307648658752, -1.2596266269683838, -0.744833767414093, 0.5973377823829651, -0.3260176181793213, -0.4673503637313843, 0.2267647385597229, 0.4249480962753296, 0.09938861429691315, 0.27667462825775146, 0.27189335227012634, 0.2900020480155945, -0.2774542570114136, -0.3568650186061859, 0.08616987615823746, -0.5615359544754028, -0.10540244728326797, -0.013027913868427277, -0.49190205335617065, -0.18794414401054382, 0.2824961841106415, -0.02744772657752037, -0.05076934024691582, -0.4284679591655731, -0.3888392448425293, -0.0921827107667923, -0.22504957020282745, -0.16145063936710358, 0.040604185312986374, 0.3667651116847992, -0.28556105494499207, -0.11353284120559692, -0.20319364964962006, -0.08954813331365585, -0.2045166790485382, -0.3490431010723114, 0.13689911365509033, 0.08383501321077347, -0.3747428059577942, 0.12412495911121368, -0.09471166133880615, 0.3639390766620636, -0.05121370032429695, -0.020973356440663338, -0.2842668294906616, 0.08764567226171494, -0.03622480481863022, -0.2433525025844574, 0.05012897029519081, 0.3157767951488495, 0.061789095401763916, -0.33893007040023804, 0.25109782814979553, -0.2510353922843933, -0.06412363797426224, 0.04418541118502617, -0.02903261035680771, -0.3029173016548157, 0.10993266850709915, -0.12431816756725311, 0.10982203483581543, 0.1392105668783188, 0.1157790943980217, 0.043933551758527756, -0.02003045380115509, -0.0523703433573246, 0.13880136609077454, 0.1540464460849762, 0.2675105929374695, -0.7201893925666809, 0.17562182247638702, -0.2438865602016449, -0.34603869915008545, 0.4696166515350342, -0.0612327978014946, -0.6901103854179382, -0.058304574340581894, -0.13250698149204254, 0.27403828501701355, 0.10793870687484741, 0.043167658150196075, 0.10529816150665283, 0.008945627138018608, 0.39510348439216614, -0.5402159690856934, 0.3070449233055115, 0.08300981670618057, 0.346425324678421, 0.5712897181510925, 0.1773587018251419, 0.04698515310883522, 0.13154107332229614, 0.5698421597480774, 0.25192922353744507, 0.25752153992652893, 0.11948155611753464, 0.18580862879753113, -0.1012917086482048, 0.07839669287204742, 0.09995683282613754, 0.08039268106222153, -0.12179999053478241, -0.019471993669867516, -0.08870641142129898, -0.13602308928966522, -0.019025389105081558, -0.055631570518016815, -0.017136678099632263, 0.03013693355023861, 0.04007868841290474, 0.09896210581064224, 0.10572327673435211, 0.15934251248836517, 0.31981000304222107, -0.09643512964248657, 0.2142496407032013, -0.07699625194072723, -0.33858710527420044, 0.21742725372314453, 0.030307333916425705, 0.08435512334108353, 0.04429187998175621, 0.22185906767845154, -0.18684159219264984, 0.020658424124121666, -0.04924194887280464, -0.11622972041368484, 0.03879611939191818, 0.09546900540590286, 0.052443865686655045, 0.0633121207356453, -0.36432504653930664, 0.09239352494478226, 0.07499430328607559, -0.49643421173095703, -0.14655905961990356, 0.2898639738559723, 0.15689630806446075, -0.575984537601471, -0.06713908165693283, -0.13973626494407654, 0.13757777214050293, 0.11851301789283752, -0.42462509870529175, -0.10591938346624374, 0.3080674707889557, -0.12124194949865341, 0.19161982834339142, -0.0073933773674070835, 0.32891175150871277, -0.09309021383523941, -0.0722900852560997, -0.617732048034668, 0.029859064146876335, -0.25596436858177185, 0.027190782129764557, 0.1903633028268814, -0.038072291761636734, 0.06478467583656311, -0.06692896783351898, 0.3356253206729889, -0.027473758906126022, 0.1807195097208023, -0.40226683020591736, 0.23533998429775238, -0.09779585152864456, 0.3160601854324341, 0.16701851785182953, 0.09776047617197037, 0.16342413425445557, 0.20432646572589874, 0.13337083160877228, -0.022487379610538483, 0.014166086912155151, 0.09503842145204544, 0.10619188100099564, -0.013567180372774601, -0.00575697235763073, 0.10196661949157715, 0.15106824040412903, 0.014621044509112835, -0.028906188905239105, 0.31260430812835693, 0.06065938249230385, -0.06371604651212692, -0.118824802339077, -0.13744468986988068, -0.012683810666203499, -0.1276676058769226, 0.1976803094148636, 0.111744724214077, -0.1696537882089615, 0.07729551196098328, -0.32949861884117126, -0.001200597151182592, -0.1029188260436058, 0.16443197429180145, 0.17550139129161835, -0.05418829992413521, 0.12601543962955475, -0.24859602749347687, 0.43298840522766113, -0.11266329139471054, 0.056284017860889435, 0.2664788067340851, -0.06211300566792488, -0.4678835868835449, 0.8068918585777283, -0.7053191661834717, 0.06143224984407425, 0.19339792430400848, 0.5411661863327026, -0.32738879323005676, -0.061549339443445206, 0.13933689892292023, -0.13818077743053436, -0.018640650436282158, -0.198690727353096, 0.07517256587743759, 0.05769724026322365, -0.3149385452270508, 0.5887097120285034, -0.4556952118873596, -0.19592295587062836, -0.5857723355293274, -0.18275989592075348, 0.5123284459114075, -0.1746612936258316, 0.03786635026335716, -0.3984925448894501, -0.0868544727563858, 0.26805397868156433, 0.021760696545243263, 0.3431342542171478, -0.07162168622016907, -0.1581539809703827, 0.1644643396139145, -0.18331070244312286, 0.09773364663124084, -0.3525749444961548, -0.034937869757413864, -0.3818094730377197, 0.3425865173339844, 0.09373869746923447, 0.09810110181570053, 0.3939608633518219, -0.13815633952617645, -0.29456374049186707, 0.14074251055717468, -0.5926252007484436, -0.23241448402404785, 0.30531683564186096, -0.3454200029373169, -0.03458867967128754, -0.23285913467407227, -0.023297233507037163, 0.1364515870809555, -0.41205519437789917, -0.0030327276326715946, 0.03989666327834129, 0.2657950520515442, -0.004001501481980085, -0.38281968235969543, -0.15258938074111938, -0.22419288754463196, -0.19388847053050995, -0.20430132746696472, -0.020700152963399887, 0.0909532681107521, 0.5675610899925232, 0.3347078561782837, -0.5234432220458984, -0.7089662551879883, 0.016181301325559616, 0.3171854615211487, -0.1493515819311142, -0.3037732243537903, -0.023163482546806335, 0.35753175616264343, 0.5702247023582458, -0.21835145354270935, 0.23783768713474274, 0.006476332899183035, -0.1329740285873413, 0.05536336824297905, -0.06882666051387787, 0.47666171193122864, 0.031184827908873558, 0.8894516825675964, 0.04334443435072899, -0.17084632813930511, -0.22476939857006073, 0.06969371438026428, -0.33460116386413574, 0.1275579333305359, -0.0841292068362236, 0.6005037426948547, -0.258903831243515, 0.24108587205410004, 0.11221694201231003, -0.04954371228814125, 0.02431129477918148, 0.24522919952869415, -0.028426384553313255, -0.307628333568573, 0.008001853711903095, -0.05450518801808357, 0.055501002818346024, 0.004558127839118242, 0.11772767454385757, 0.1750795692205429, 0.04753626510500908, 0.3633602559566498, -0.03437906876206398, 0.1357007920742035, 0.18949422240257263, -0.047339312732219696, 0.04429921880364418, -0.01647522673010826, -0.08352213352918625, 0.13952797651290894, 0.0387209914624691, 0.0019061352359130979, 0.02234838344156742, -0.16772720217704773, -0.037395890802145004, 0.09335089474916458, -0.0002797473862301558, -0.14400054514408112, -0.11775270849466324, -0.16615542769432068, 0.24508768320083618, -0.24286913871765137, -0.14468015730381012, -0.46133437752723694, 0.06944277137517929, -0.00804346613585949, -0.3008689880371094, -0.5328115820884705, -0.5462844967842102, -0.2192927896976471, -0.9988670945167542, -0.22543032467365265, -0.2576332986354828, -0.4301847815513611, 0.16856777667999268, -0.28193235397338867, 0.45131054520606995, 0.12688609957695007, 0.9178720712661743, -0.017809081822633743, -0.1996546983718872, -0.01142087858170271, 0.1638510376214981, -0.0029289284721016884, 0.04293941706418991, 0.07722505182027817, 0.28899088501930237, -0.11197668313980103, -0.30593329668045044, 0.3519573211669922, -0.05184801667928696, -0.6445095539093018, 0.3210582435131073, -0.14254319667816162, 0.5980544686317444, 0.06601811200380325, -0.20402219891548157, -0.32641083002090454, 0.17836211621761322, -0.17820455133914948, 0.2494964748620987, -0.24527888000011444, 0.019561531022191048, -0.012514942325651646, -0.014814306981861591, -0.24664738774299622, -0.06549888849258423, -0.12972155213356018, -0.03200836479663849, 0.01974722370505333, 0.06718657910823822, -0.3730721175670624, -0.13135437667369843, -0.5907749533653259, -0.13999812304973602, -0.12801705300807953, 0.05337897688150406, 0.028323298320174217, -0.09280156344175339, 0.1930629462003708, -0.04761582985520363, 0.1615128368139267, 0.10035554319620132, 0.03662364184856415, -0.20239950716495514, 0.09429088234901428, -0.15522262454032898, -0.007479999680072069, 0.166828915476799, -0.05235126242041588, -0.12624065577983856, 0.0796002522110939, 0.08858826756477356, -0.4233566224575043, 0.7756020426750183, 0.07562871277332306, 0.06604062020778656, 0.5329896807670593, 0.30265355110168457, -0.0144527992233634, -0.10668806731700897, -0.3274831473827362, 0.09548857808113098, 0.1790676862001419, -0.21607862412929535, 0.24622522294521332, 0.47651493549346924, -0.1029919907450676, 0.02883424237370491, 0.23197126388549805, 0.2729629874229431, -0.04042670503258705, 0.2781629264354706, -0.028883883729577065, 0.11251592636108398, -0.09177089482545853, 0.24127031862735748, -0.3331660032272339, 0.4637259840965271, 0.3999340534210205, 0.06965452432632446, 0.27855587005615234, 0.07168087363243103, -0.13134896755218506, 0.39335665106773376, 0.0250383373349905, -0.20697759091854095, 0.056183815002441406, 0.11496451497077942, -0.23286177217960358, 0.13582290709018707, 0.11321926862001419, -0.05007031932473183, -0.2659767270088196, 0.05533210188150406, 0.05547788366675377, -0.14249980449676514, 0.21090172231197357, -0.0281623937189579, 0.3032190203666687, 0.06832684576511383, 0.12035291641950607, -0.05159149318933487, -0.10666663944721222, 0.17091619968414307, 0.16095003485679626, -0.12115176767110825, 0.047354113310575485, -0.011818536557257175, -0.11588609963655472, -0.10603116452693939, 0.02686314657330513, -0.14060863852500916, 0.1058262437582016, -0.15575353801250458, -0.1487925946712494, 0.034018032252788544, 0.2105817198753357, -0.17873594164848328, -0.25833120942115784, -0.024073349311947823, -0.2239922434091568, -0.21197161078453064, -0.12009649723768234, 0.09796857088804245, 0.1452229619026184, 0.241302490234375, -0.09770067781209946, -0.10341637581586838, -0.01981026865541935, -0.5636621117591858, 0.16754873096942902, -0.12129314243793488, -0.10705895721912384, 0.1760638952255249, 0.015512223355472088, 0.2750290632247925, -0.006045382469892502, 0.14727619290351868, -0.11114028841257095, -0.1916348934173584, 0.15142717957496643, -0.02843276970088482, -0.04022320732474327, 0.20781274139881134, 0.018057482317090034, 0.004340420011430979, 0.3132408857345581, 0.05352519452571869, 0.35152146220207214, 0.09192682057619095, -0.08101426064968109, 0.21585333347320557, 0.33599650859832764, -0.010340599343180656, 0.04150741919875145, 0.07391911000013351, 0.1633194237947464, -0.176447793841362, 0.10440642386674881, 0.04208216071128845, -0.16583025455474854, 0.008201929740607738, -0.06433405727148056, 0.05287085101008415, -0.016491977497935295, -0.06006869301199913, 0.1407558023929596, 0.03178836405277252, 0.11130967736244202, -0.040245991200208664, -0.19702832400798798, 0.1414070725440979, -0.4031129479408264, 0.17335742712020874, -0.02711871638894081, -0.39630332589149475, 0.02591453492641449, -0.09139624983072281, 0.19582396745681763, 0.0692996010184288, -0.0772194117307663, 0.0751979798078537, -0.11040502041578293, -0.2748706340789795, 0.20518246293067932, -0.01215491071343422, -0.31043118238449097, 0.1321837157011032, 0.1285438984632492, 0.6377261281013489, 0.018402118235826492, -0.7058283090591431, -0.8632709980010986, 0.13837964832782745, -0.2440376877784729, 0.6141541004180908, -0.2017202228307724, 0.2820826768875122, -0.2599085569381714, -0.520325779914856, 0.01766611635684967, 0.005682983435690403, -0.15140341222286224, -0.022178122773766518, -0.17391066253185272, 0.08778396248817444, -0.06709526479244232, 0.4199914336204529, -0.30983880162239075, 0.04111437499523163, -0.08018986880779266, -0.8037813901901245, 0.03269483149051666, 0.08498714119195938, -0.11638088524341583, -0.05189124494791031, -0.1697317361831665, 0.20944301784038544, 0.031229106709361076, 0.24379634857177734, -0.026192957535386086, 0.3404556214809418, 0.10483644902706146, 0.18982312083244324, 0.009929900988936424, -0.13325674831867218, 0.16518248617649078, -0.1587447226047516, 0.047927260398864746, 0.24439764022827148, 0.2016887366771698, 0.28751054406166077, 0.014782070182263851, 0.02652432583272457, -0.3406073749065399, 0.07655899226665497, 0.12264242023229599, -0.14530038833618164, -0.11797089874744415, -0.02528231032192707, -0.07628262788057327, 0.27960190176963806, 0.07637011259794235, 0.054769366979599, -0.007628933526575565, -0.2076198160648346, 0.10346522927284241, 0.13507071137428284, 0.32367971539497375, 0.13283959031105042, 0.07948166877031326, -0.17730237543582916, -0.0574033297598362, -0.10647617280483246, -0.20644618570804596, -0.05058037117123604, 0.04382534697651863, -0.27050432562828064, -0.0192683394998312, -0.20165181159973145, -0.19017213582992554, 0.22310224175453186, 0.18618015944957733, 0.21183894574642181, 0.23071008920669556, -0.21295572817325592, 0.15181198716163635, 0.39371296763420105, -0.3893166184425354, 0.07842029631137848, 0.056967612355947495, -0.1464860588312149, -0.0731193795800209, -0.11357902735471725, 0.15063095092773438, 0.009668934158980846, 0.201588436961174, 0.22387464344501495, 0.13709823787212372, 0.051917850971221924, 0.30294501781463623, 0.5430769920349121, -0.06429828703403473, -0.18903577327728271, 0.7337749004364014, 0.014435479417443275, -0.25855833292007446, 0.17216697335243225, 0.17200663685798645, 0.06003306433558464, -0.0485219806432724, -0.12188784033060074, -0.09105782210826874, 0.13704097270965576, 0.202859029173851, 0.25011229515075684, 0.14660491049289703, 0.08288644254207611, 0.1260620653629303, 0.05398935824632645, -0.19195902347564697, 0.1636614203453064, 0.1167883574962616, 0.159690260887146, -0.05887734144926071, -0.4794633388519287, -0.04453952983021736, 0.1441861093044281, 0.03467949479818344, 0.08008768409490585, 0.29739686846733093, -0.25484564900398254, 0.2467263787984848, -0.2389618456363678, -0.09990858286619186, -0.37197285890579224, -0.12667199969291687, 0.08601447194814682, 0.20720846951007843, 0.12852448225021362, -0.019400352612137794, -0.01512189768254757, -0.1565355509519577, -0.13920697569847107, 0.35980844497680664, 0.5974084138870239, -0.041231922805309296, -1.1875253915786743, -0.8624157905578613, -0.035591624677181244, 0.14088323712348938, 0.4262879192829132, -0.9311234354972839, 0.24578596651554108, 0.24022731184959412, 0.21777565777301788, -0.13199825584888458, 0.5763741135597229, 0.06966719031333923, -0.1662915199995041, -0.28155621886253357, -0.2606920003890991, -0.04628940299153328, -0.026743648573756218, -0.0013248937902972102, 0.275841623544693, 0.0911029800772667, 0.10916108638048172, 0.6773126125335693, -0.34445813298225403, -0.927940309047699, 0.23354606330394745, -0.1110726073384285, -0.4165484309196472, -0.39374101161956787, -0.1859501451253891, 0.322501540184021, 0.17053258419036865, -0.006795401684939861, 0.020585596561431885, 0.3262577950954437, -0.42608097195625305, -0.30429986119270325, 0.23850248754024506, 0.33158043026924133, 0.10368289053440094, -0.3700287640094757, 0.05420542508363724, 0.32073506712913513, -0.02049924246966839, -0.12390781939029694, 0.03573335334658623, 0.03035750426352024, 0.1744755208492279, 0.15064164996147156, -0.05780017748475075, 0.0056417095474898815, 0.2762635052204132, -0.013623927719891071, -0.13800451159477234, -0.2223152071237564, 0.16120880842208862, -0.0016984172398224473, -0.05173322930932045, 0.1692110002040863, 0.11922924220561981, -0.11761515587568283, -0.4224303960800171, -0.4565134644508362, -0.1178709864616394, 0.0026174839586019516, 0.5032903552055359, -0.14918473362922668, 0.4006366431713104, -0.23909609019756317, -0.10260799527168274, -0.5661978125572205, -0.6199851632118225, -0.13761574029922485, 0.08522671461105347, -0.49187588691711426, -0.47161221504211426, 0.031764667481184006, 0.4393561780452728, -0.02866927720606327, -0.09570322930812836, -0.612589955329895, 0.14179839193820953, 0.06855656206607819, -0.3890620470046997, -0.028547976166009903, -0.6226050853729248, 0.21860283613204956, -0.04156721383333206, -0.8417119383811951, 0.21595512330532074, -0.39841359853744507, 0.01644904352724552, -0.5597560405731201, 0.3274818956851959, -0.38351505994796753, -0.02578776143491268, -0.5042130351066589, 0.1417749524116516, -0.6806289553642273, -0.7696981430053711, 0.08058272302150726, 0.24895960092544556, -0.058599621057510376, -0.011265512555837631, 0.2794562876224518, -0.1094854399561882, -0.31941282749176025, 0.09367996454238892, -0.5733652114868164, -0.12679462134838104, -0.10310213267803192, -0.17971843481063843, 0.06433217227458954, -0.14631427824497223, 0.10208360850811005, 0.07810581475496292, -0.22366483509540558, -0.03162437677383423, 0.16414165496826172, 0.08142808824777603, 0.25334158539772034, 0.11156801879405975, 0.06251915544271469, -0.021593524143099785, 0.032040536403656006, -0.23493805527687073, 0.07737534493207932, -0.5158557891845703, -0.031936436891555786, 0.19164550304412842, -0.16384130716323853, 0.47952035069465637, 0.10739874094724655, 0.03715289384126663, 0.26180049777030945, 0.5310954451560974, 0.05797072499990463, -0.38775503635406494, -0.37824633717536926, -0.1548280566930771, -0.30242720246315, -1.6933081150054932, -0.38540834188461304, 0.6255165934562683, 0.05557930842041969, -0.35962334275245667, -0.02147742547094822, -0.32426226139068604, 0.07803401350975037, -0.3768680691719055, -0.19450229406356812, 0.061888232827186584, -0.09567926079034805, -0.6010660529136658, 0.004019297659397125, 0.24866335093975067, -0.022635964676737785, -0.33033737540245056, -0.13741916418075562, -0.1192062646150589, -0.02454748935997486, -0.1786501258611679, -0.8771154880523682, -0.13549086451530457, -0.4770556390285492, -0.11129661649465561, -0.24481268227100372, 0.00900942925363779, -0.28196313977241516, -0.16303376853466034, 0.5072174668312073, 0.4600760042667389, 0.43612340092658997, 0.25290563702583313, -0.10678663104772568, -0.5142151117324829, -0.016377784311771393, 0.10279533267021179, 0.14161840081214905, -0.1125360056757927, 0.09459439665079117, -0.40324097871780396, -0.4109671413898468, -0.046992626041173935, 0.25331392884254456, -0.4046463370323181, -0.04846614971756935, 0.0027760914526879787, 0.1609826534986496, -0.2106514871120453, -0.13263961672782898, 0.2418697476387024, 0.4200759530067444, -0.08359643816947937, -0.20301978290081024, -0.29004064202308655, -0.04367803409695625, 0.16505126655101776, 0.04470883682370186, 0.06908465921878815, 0.03805166110396385, 0.10786526650190353, -0.11077077686786652, 0.20386609435081482, 0.1797957420349121, -0.32662147283554077, -0.32882413268089294, -0.396989107131958, -0.5618716478347778, 0.03341657668352127, -0.7721288204193115, 0.4108710289001465, 0.35392019152641296, 0.2868082523345947, 0.1641729772090912, 0.2642401158809662, -0.24229177832603455, 0.008503792807459831, 0.27395328879356384, 0.18971973657608032, -0.2048151195049286, -0.6095148921012878, -0.18245624005794525, 0.03232476860284805, -0.31890222430229187, 0.062106724828481674, 0.33210694789886475, 0.19912970066070557, -0.04063340649008751, -0.22654001414775848, 0.15874068439006805, -0.46898090839385986, 0.07173806428909302, -0.006424369290471077, -0.005447423551231623, 0.2977670729160309, 0.2042408287525177, -0.0397162064909935, 0.09773251414299011, 0.03921659290790558, -0.3359960615634918, -0.016547683626413345, 0.19212225079536438, -0.17894358932971954, -0.2606703042984009, -0.30783358216285706, 0.18857444822788239, 0.3217944800853729, -0.21429862082004547, 0.20652136206626892, 0.12531086802482605, 0.3598523437976837, -0.0727502629160881, -0.17888346314430237, -0.43821561336517334, 0.012982658110558987, -0.014564421959221363, -0.08189284801483154, -0.10181736201047897, 0.030738476663827896, 0.30494755506515503, 0.16685593128204346, -0.008258527144789696, 0.15932627022266388, -0.5562385320663452, -0.5292726159095764, -0.06758107244968414, -0.3232268691062927, 0.09914498031139374, -0.3380151689052582, -0.2121516913175583, -0.15824222564697266, 0.013752155937254429, 0.21664725244045258, 0.4596579372882843, 0.5523672699928284, -0.3349272310733795, -0.05427446961402893, -0.10412244498729706, 0.2095976620912552, 0.05484481528401375, 0.08259503543376923, -0.06345591694116592, 0.13974876701831818, -0.030964186415076256, 0.01486840471625328, 0.04631221294403076, -0.19083665311336517, 0.10336176306009293, -0.2611336410045624, -0.09452637284994125, 0.20103108882904053, 0.16523899137973785, 0.05331902578473091, 0.2756814658641815, 0.22546923160552979, 0.05431319773197174, -0.030859310179948807, 0.2839895784854889, 0.1633591651916504, 0.329422265291214, -0.13950900733470917, 0.10094242542982101, 0.05736337974667549, -0.08203744143247604, 0.014061829075217247, -0.0429510772228241, 0.3035983145236969, -0.11238041520118713, 0.1397651582956314, 0.06922759115695953, -0.12728047370910645, 0.12862879037857056, -0.022746676579117775, 0.14021745324134827, 0.05981338769197464, -0.004590821452438831, 0.06001657620072365, 0.199427530169487, 0.09921140223741531, -0.11613710224628448, 0.1293123960494995, -0.035126492381095886, -0.10910891741514206, -0.3715779185295105, -0.21906723082065582, -0.03359371796250343, -0.053914349526166916, -0.1648603230714798, -0.03771360218524933, 0.09098076820373535, 0.016392678022384644, -0.2188350409269333, 0.022616486996412277, -0.37657371163368225, -0.13992123305797577, 0.11687934398651123, 0.3145354092121124, 0.2719210982322693, 0.2636037766933441, -0.17438019812107086, 0.02065340057015419, -0.33011960983276367, 0.15612204372882843, -0.07281553745269775, -0.1672855019569397, -0.5319709777832031, 0.09204842150211334, -0.13345564901828766, 0.2356773316860199, 0.0277714803814888, 0.12331195175647736, -0.18345926702022552, -0.08546490967273712, -0.028639420866966248, 0.04665479063987732, 0.17367711663246155, 0.23103541135787964, 0.3977893888950348, 0.4885074198246002, 0.16258612275123596, 0.6763535737991333, 0.25114718079566956, 0.271051824092865, 0.2606182396411896, -0.23913662135601044, 0.34189024567604065, 0.09469401836395264, -0.31947675347328186, -0.1938547044992447, 0.11875158548355103, 0.003674533450976014, 0.15763883292675018, -0.0100655322894454, -0.20600475370883942, -0.012919299304485321, -0.1157926544547081, 0.159540593624115, 0.21165640652179718, -0.11315982788801193, -0.04012173041701317, 0.02225000225007534, 0.1749732494354248, 0.005900831893086433, -0.20437628030776978, 0.09623309969902039, -0.023938201367855072, -0.09795080125331879, -0.026918750256299973, -0.15311475098133087, 0.035571347922086716, -0.10518185794353485, 0.06728602200746536, 0.07927119731903076, 0.10906412452459335, -0.04093346372246742, -0.23607313632965088, -0.1453382968902588, -0.02586297132074833, 0.13490553200244904, 0.219417542219162, 0.040560051798820496, 0.4503091871738434, -0.03838137909770012, -0.5971917510032654, -0.04703645780682564, 0.04523467272520065, -0.03332856297492981, -0.17278356850147247, 0.09170961380004883, 0.409321129322052, 0.3646634817123413, 0.4782748222351074, -0.340436190366745, -0.07310416549444199, -0.1789746731519699, 0.02395436353981495, -1.3202855587005615, 0.15104319155216217, 0.0694638267159462, -0.03437456116080284, 0.03654075413942337, -0.023429039865732193, -0.10482830554246902, -0.31807610392570496, 0.13771384954452515, 0.6355323195457458, 0.05243177339434624, -0.05115579068660736, 0.05632372573018074, 0.16596542298793793, 0.19383510947227478, 0.12669730186462402, -0.1612178087234497, -0.4480006992816925, 0.10784531384706497, 0.030381781980395317, 0.004927179776132107, 0.005210856441408396, -0.053137630224227905, -0.01669107750058174, -0.06414113193750381, -0.021682437509298325, 0.04029791057109833, -0.04481533542275429, -0.08901657909154892, -0.09266671538352966, 0.0532132051885128, -0.07307612895965576, -0.12470324337482452, 0.17112614214420319, 0.14577263593673706, 0.13295619189739227, 0.030120883136987686, 0.01369455736130476, -0.04422415792942047, -0.022510726004838943, -0.2678282558917999, -0.24035128951072693, -0.01348654180765152, -0.28735533356666565, -0.18732956051826477, 0.12590919435024261, 0.027557965368032455, 0.13027502596378326, -0.10062046349048615, -0.034093450754880905, -0.03506027162075043, -0.15013839304447174, 0.057245075702667236, 0.1732499599456787, 0.004559285473078489, -0.29544708132743835, -0.11322460323572159, 0.014735309407114983, 0.33814117312431335, 0.06680179387331009, -0.8516964316368103, -0.7181691527366638, 0.32159218192100525, -0.32488688826560974, -0.20529000461101532, 0.3215771019458771, 0.00016996034537442029, 0.08182793110609055, 0.754450261592865, 0.07405297458171844, -0.04029121622443199, -0.19510488212108612, 0.3292522132396698, 0.0175161175429821, -0.12261699885129929, 0.2085602581501007, 0.05241601541638374, -0.5621628165245056, 0.19110660254955292, 0.11205603182315826, -0.12049844115972519, -0.13923080265522003, -0.17290474474430084, -0.06491819769144058, 0.053091518580913544, 0.2717798352241516, -0.13030856847763062, 0.02234344743192196, -0.1815367043018341, 0.34351158142089844, 0.31851744651794434, 0.11652717739343643, -0.12403116375207901, -0.08705165982246399, 0.40145930647850037, -0.06958559155464172, -0.07802993059158325, -0.15614482760429382, 0.1696164309978485, 0.04478341341018677, 0.09925997257232666, 0.11761106550693512, 0.3006289601325989, -0.057192035019397736, -0.4969051480293274, -0.18443410098552704, 0.09097976982593536, -0.15397511422634125, -0.19197766482830048, -0.014701598323881626, -0.2670029401779175, -0.07284285128116608, -0.34175360202789307, -0.06481997668743134, -0.27169302105903625, 0.06341955065727234, -0.09146307408809662, 0.12819455564022064, -0.089182049036026, -0.02634444460272789, -0.2764827311038971, -0.040303587913513184, 0.0703335776925087, -0.20937757194042206, -0.2218354344367981, 0.12317220121622086, 0.5578664541244507, 0.007017747964709997, -0.2257872074842453, -0.08075256645679474, -0.08700917661190033, 0.550467312335968, 0.1418776661157608, -0.40120729804039, -0.07073518633842468, 0.17341318726539612, 0.09065743535757065, -0.045406635850667953, 0.06464191526174545, -0.0769277960062027, 0.20682194828987122, -0.04810220003128052, 0.14026187360286713, 0.1534644514322281, -0.6190185546875, 0.3927185535430908, 0.16198034584522247, -0.1547672599554062, 0.2880316376686096, 0.16100026667118073, 0.12731894850730896, 0.1890331357717514, -0.06532535701990128, -0.34197288751602173, -0.06282085925340652, -0.10119092464447021, 0.09535714238882065, 0.09515010565519333, -0.16121211647987366, 0.11380830407142639, 0.012241742573678493, -0.009611514396965504, 0.08443024754524231, -0.2414712905883789, 0.29608646035194397, 0.26831504702568054, 0.24432842433452606, -0.3293339014053345, 0.21849733591079712, -0.46465930342674255, 0.055804718285799026, -0.3002716302871704, 0.04971135035157204, 0.21053670346736908, -0.21855172514915466, 0.15299610793590546, 0.08885490149259567, -0.06779595464468002, -0.02240751124918461, 0.27777278423309326, -0.09372849017381668, 0.2199532389640808, -0.07033689320087433, 0.18205231428146362, -0.164706289768219, -0.2534126341342926, 0.11807768791913986, 0.010171188972890377, -0.1751508265733719, 0.23271393775939941, -0.24954652786254883, 0.1088474690914154, 0.14807337522506714, -0.2600080668926239, 0.18127165734767914, -0.3593735694885254, -0.8071553707122803, -0.8598034977912903, -0.24001148343086243, 0.11204618960618973, -0.2828386425971985, -0.26185083389282227, 0.02539471909403801, 0.10228817164897919, 0.7776179313659668, -0.0855446383357048, 0.06229745224118233, 0.10971865803003311, -0.0283681508153677, 0.3266599774360657, 0.0029428726993501186, 0.26913854479789734, 0.47417476773262024, -0.05396121367812157, -0.12406482547521591, 0.06638146936893463, 0.5173023343086243, -0.058685507625341415, 0.16716529428958893, -0.07042620331048965, -0.3942156732082367, 0.1580868512392044, -0.0721919909119606, -0.20367467403411865, -0.31748539209365845, -0.05339186638593674, 0.009311789646744728, -0.2911471128463745, -0.23840272426605225, 0.05244828015565872, -0.14102886617183685, -0.02923520840704441, 0.14809046685695648, -0.2957456409931183, -0.05713360756635666, 0.08088787645101547, -0.2964564561843872, 0.087883859872818, -0.10462689399719238, 0.033738020807504654, 0.2576804757118225, 0.30826202034950256, 0.31767144799232483, 0.2838859260082245, -0.19107745587825775, 0.3100232183933258, -0.11776918917894363, -0.16029947996139526, -0.01469618733972311, -0.0849551111459732, -0.1087627187371254, 0.06261180341243744, -0.12598225474357605, 0.35630354285240173, 0.05180680379271507, 0.18254666030406952, 0.23565776646137238, 0.11372336745262146, -0.012792734429240227, -0.16609333455562592, -0.21093513071537018, 0.0005675083375535905, -0.45869433879852295, -0.08936493843793869, -0.05443787947297096, 0.1874106377363205, -0.5933770537376404, 0.25254836678504944, -0.289885014295578, 0.20523282885551453, 0.38935139775276184, -0.02406204491853714, -0.15385682880878448, 0.23507222533226013, -0.06720297038555145, -0.08141154795885086, -0.06528878211975098, 0.0805208757519722, 0.2079295814037323, 0.022672630846500397, -0.03137919306755066, 0.2398839294910431, -0.15319940447807312, 0.1668684184551239, 0.2511609196662903, 0.04400089383125305, 0.2691802382469177, 0.27748867869377136, -0.21655508875846863, -0.16071182489395142, -0.02576892264187336, 0.12185743451118469, -0.03636272996664047, -0.11500854790210724, 0.047238610684871674, -0.012929433025419712, -0.08405761420726776, 0.015507923439145088, 0.0721101388335228, -0.21299639344215393, 0.11467466503381729, -0.008654533885419369, -0.0948009341955185, 0.0019576111808419228, 0.013536415994167328, -0.09379195421934128, -0.14081184566020966, -0.09546544402837753, 0.07189121097326279, 0.23551136255264282, -0.23590800166130066, -0.012501555494964123, -0.16225874423980713, -0.053716614842414856, 0.09361410140991211, -0.07280470430850983, 0.11189784854650497, -0.1550309658050537, 0.03134706988930702, 0.05708613246679306, 0.2616460621356964, -0.1356988400220871, -0.2574138939380646, -0.09872208535671234, -0.016229499131441116, -0.004881560802459717, 0.026248550042510033, 0.10262171179056168, 0.10236284881830215, 0.05835028737783432, -0.10318590700626373, 0.16450618207454681, 0.06053004786372185, 0.08902369439601898, 0.04611673951148987, -0.3237079679965973, -0.12930059432983398, -0.2238616645336151, 0.17073088884353638, -0.03412724658846855, -0.2989082932472229, 0.12626634538173676, 0.060194287449121475, -0.08921504020690918, -0.012408764101564884, -0.04066140949726105, -0.0006147371605038643, 0.029502561315894127, 0.014074474573135376, -0.018996935337781906, -0.4091578423976898, -0.198672354221344, 0.45400315523147583, 0.10196244716644287, 0.06305206567049026, 0.18772700428962708, -0.09753306210041046, 0.20886372029781342, -0.018659966066479683, -0.050977323204278946, 0.0463360920548439, 0.04924563318490982, 0.13088084757328033, 0.10000534355640411, 0.09601593017578125, -0.25617706775665283, -0.20782382786273956, 0.135758638381958, 0.11357840150594711, 0.16345185041427612, -0.1164282038807869, -0.13616496324539185, -0.20116792619228363, -0.06332004815340042, -0.29024234414100647, -0.05525945499539375, -0.06728626042604446, -0.0066922190599143505, -0.3498697578907013, 0.0049160802736878395, 0.1939314901828766, 0.10042984783649445, -0.05453891679644585, -0.20198893547058105, 0.22900202870368958, -0.20439866185188293, 0.19848540425300598, 0.15715022385120392, 0.08437279611825943, 0.1016455814242363, 0.07743282616138458, 0.018455227836966515, 0.33343014121055603, 0.018862910568714142, 0.057039909064769745, 0.05620409548282623, -0.225937157869339, 0.2014169991016388, 0.33861514925956726, 0.18204832077026367, -0.9509173035621643, -0.7405745983123779, -0.16184447705745697, -0.5320664048194885, 0.2900357246398926, 0.1535443365573883, -0.4381442070007324, 0.3939070701599121, -0.13465866446495056, -0.1853286623954773, 0.16724950075149536, 0.13012652099132538, 0.0866074338555336, 0.07128531485795975, 0.07876080274581909, 0.017558101564645767, 0.1059826910495758, 0.6289479732513428, 0.18303343653678894, -0.7105368375778198, -0.2109745889902115, -1.0314213037490845, -0.27983999252319336, 0.09556042402982712, -0.01744202710688114, -0.7417821288108826, -0.40389758348464966, -0.1951327621936798, -0.09903152287006378, 0.11802462488412857, 0.33460119366645813, 0.38451626896858215, 0.2791972756385803, -0.8808518052101135, -0.4588807225227356, 0.05999935045838356, -0.07396549731492996, 0.3945279121398926, -0.06429748237133026, -0.4220782518386841, -0.15799887478351593, 0.07704587280750275, 0.2529808282852173, 0.23172160983085632, 0.5111173391342163, 0.4480654001235962, -0.3661589026451111, -0.18027888238430023, -0.09911312162876129, -0.034356243908405304, -0.10850564390420914, -0.014868429861962795, -0.3599371612071991, 0.19482818245887756, 0.17547373473644257, 0.2740284502506256, -0.14887550473213196, 0.06497007608413696, -0.08040391653776169, -0.1326453536748886, 0.42066097259521484, -0.22697079181671143, 0.1625199317932129, 0.24741271138191223, -0.3201531767845154, -0.09706569463014603, -0.21694402396678925, 0.08034991472959518, 0.4109630286693573, 0.09772597253322601, -0.3799962103366852, 0.2887636125087738, 0.2780931293964386, -0.04261885583400726, -1.1764954328536987, -0.09351511299610138, 0.2656843066215515, -0.07043462246656418, 0.014152211137115955, -0.0749320238828659, -0.05069316178560257, -0.43722185492515564, -0.09990277141332626, 0.15513426065444946, -0.26346614956855774, -0.04802762717008591, -0.23372597992420197, 0.22540691494941711, 0.4674144685268402, 0.19041496515274048, 0.30587393045425415, 0.05452406778931618, -0.18369713425636292, -0.4915698170661926, -0.16032512485980988, -0.2947653532028198, -0.018907347694039345, -0.025715813040733337, -0.046070195734500885, -0.18298569321632385, 0.10484354943037033, 0.20564907789230347, -0.15623390674591064, 0.014430017210543156, 0.07591377943754196, 0.4416130483150482, -0.06455472111701965, -0.10844855010509491, 0.34938129782676697, -0.18774624168872833, 0.013036332093179226, 0.11202443391084671, 0.07154321670532227, 0.010250639170408249, 0.10126150399446487, 0.1652059257030487, -0.11679218709468842, 0.38485580682754517, 0.19845005869865417, 0.002372848568484187, 0.3532191216945648, 0.21568025648593903, -0.014359521679580212, -0.2908381223678589, -0.0072428942658007145, 0.057701822370290756, -0.19990332424640656, -0.022752802819013596, -0.23556774854660034, 0.06285367161035538, 0.022324055433273315, 0.09179382026195526, -0.03733065351843834, 0.21744674444198608, 0.6026935577392578, 0.38338911533355713, -1.04988694190979, -1.0088797807693481, 0.1647161841392517, 0.00469231279566884, 0.3900899291038513, 0.35433781147003174, -0.7273035049438477, 0.04343518614768982, -0.37063226103782654, -0.115012988448143, -0.09070789813995361, -0.4509377181529999, 0.033081527799367905, -0.03999403491616249, 0.15679581463336945, 0.15236787497997284, -0.02085758186876774, -0.3198407292366028, 0.06700339913368225, -0.46276766061782837, -0.5851897597312927, 0.08402995020151138, -0.7068142294883728, 0.2175385057926178, 0.1160135343670845, 0.3961206078529358, 0.05963669717311859, 0.21102426946163177, -0.13965538144111633, 0.18755395710468292, 0.008933008648455143, 0.09251073002815247, 0.12510651350021362, 0.03578491508960724, 0.10774655640125275, 0.07425861805677414, 0.16158072650432587, -0.0904502272605896, 0.2662999629974365, 0.3083491027355194, 0.22417742013931274, 0.32665693759918213, -0.0033047201577574015, 0.22316601872444153, 0.2639533281326294, 0.33034229278564453, -0.13526974618434906, 0.22733895480632782, -0.08660974353551865, 0.14822489023208618, -0.14141389727592468, 0.21118034422397614, -0.202480286359787, -0.2490629255771637, -0.09692487120628357, 0.1426714062690735, 0.077161505818367, -0.1693543940782547, 0.2401261180639267, -0.1413028985261917, 0.03260552138090134, 