{"weights": {"layers": [{"weights": [0.009273973293602467, -0.2766367793083191, -0.1701391488313675, -0.11503519117832184, -0.10975100845098495, -0.09586232155561447, 0.051789578050374985, -0.16927649080753326, 0.08451339602470398, 0.2230771780014038, 0.2840431034564972, 0.19551104307174683, 0.40728142857551575, -0.050305262207984924, 0.335305780172348, 0.13948842883110046, 0.007576529402285814, 0.023545611649751663, -0.23615817725658417, 0.48117297887802124, -0.06452274322509766, -0.10264558345079422, -0.1611044704914093, 0.4357134699821472, -0.28071966767311096, 0.08250326663255692, -0.06899408996105194, -0.25601980090141296, 0.2513052523136139, 0.0020701757166534662, -0.1630948781967163, -0.24750515818595886, 0.13660284876823425, 0.14387249946594238, 0.16276568174362183, 0.20908072590827942, 0.10001600533723831, 0.2353939414024353, -0.01262681558728218, 0.17550304532051086, 0.065673828125, -0.0981285572052002, 0.11775831133127213, -0.15052995085716248, -0.14241191744804382, 0.04369400069117546, -0.024332161992788315, 0.10687816888093948, 0.19414886832237244, 0.08070794492959976, -0.13679924607276917, -0.42239466309547424, -0.08654988557100296, 0.21411819756031036, 0.09295546263456345, -0.13042861223220825, -0.3167700171470642, 0.05055667459964752, 0.34579336643218994, 0.00645784055814147, 0.2586328387260437, -0.18090331554412842, -0.34499961137771606, -0.2229272425174713, -0.02543305978178978, 0.02831084094941616, -0.03239217400550842, -0.12182774394750595, 0.045653704553842545, 0.02049320563673973, -0.0164464320987463, 0.15379106998443604, 0.13229821622371674, 0.03217805176973343, -0.10734596848487854, -0.04507332667708397, -0.061886198818683624, 0.23027047514915466, -0.03457547351717949, 0.41503265500068665, -0.09536805003881454, 0.0750175267457962, 0.0012199576012790203, 0.013466165401041508, 0.1088990569114685, 0.07721750438213348, -0.2572129964828491, 0.023099394515156746, -0.07490700483322144, 0.010882539674639702, -0.1427001655101776, -0.14721643924713135, 0.13446299731731415, -0.07711233198642731, -0.06711751222610474, 0.16914193332195282, 0.08627413213253021, -0.03271520137786865, -0.006118368357419968, -0.18739363551139832, -0.13293024897575378, 0.20899657905101776, 0.17682649195194244, 0.004508308134973049, 0.06864333152770996, -0.0930439829826355, 0.38675785064697266, 0.0044935764744877815, -0.26342877745628357, -0.18778471648693085, 0.015787610784173012, -0.08674103766679764, -0.006376605946570635, -0.17831729352474213, -0.19183890521526337, -0.1402548998594284, 0.02698022685945034, -0.04241983965039253, 0.08220404386520386, 0.09049265086650848, 0.08188477158546448, -0.1771036684513092, -0.22274065017700195, -0.22428564727306366, 0.0562259703874588, 0.16016699373722076, -0.027156949043273926, 0.06649540364742279, 0.16277267038822174, -0.006308136507868767, -0.10924017429351807, -0.14099717140197754, 0.30799245834350586, 0.28281182050704956, 0.043827686458826065, -0.0968991219997406, 0.05538056418299675, -0.01547951065003872, 0.06546757370233536, -0.14884118735790253, 0.2649473547935486, 0.29269811511039734, 0.05365933105349541, 0.08456850796937943, 0.18370991945266724, 0.00960089173167944, 0.046959295868873596, 0.17371082305908203, -0.15399014949798584, -0.11574564129114151, -0.02953260950744152, 0.13644175231456757, -0.36477982997894287, 0.018666740506887436, -0.022760862484574318, -0.24254471063613892, 0.10934248566627502, 0.16899333894252777, 0.15293307602405548, 0.149915874004364, -0.1673750877380371, 0.11620575934648514, 0.3305756747722626, 0.1565973162651062, 0.18541134893894196, 0.12449193745851517, 0.2520424723625183, 0.18080021440982819, 0.06123315915465355, 0.02710888534784317, 0.16475246846675873, 0.12272782623767853, 0.19131942093372345, -0.02659696713089943, -0.1593361347913742, 0.0676555261015892, -0.02002190425992012, 0.15905538201332092, 0.39437171816825867, -0.017968596890568733, 0.3235152065753937, -0.11007965356111526, 0.1628728210926056, -0.033021487295627594, -0.23458994925022125, -0.006920733954757452, -0.2154102474451065, -0.2210509330034256, -0.11460788547992706, -0.12462786585092545, -0.11092760413885117, -0.16585935652256012, -0.0370592325925827, 0.1992388367652893, 0.16403163969516754, -0.12534189224243164, -0.02756575495004654, 0.03449605405330658, 0.06753487884998322, 0.18660761415958405, 0.23589572310447693, -0.34902819991111755, -0.37556755542755127, -0.15155521035194397, 0.2711334228515625, 0.018503252416849136, 0.09963932633399963, 0.14462555944919586, -0.2942313551902771, 0.4519430696964264, 0.019033290445804596, 0.029915787279605865, -0.028222786262631416, 0.0783035084605217, 0.0641511008143425, -0.051851727068424225, -0.03585727885365486, -0.020365703850984573, 0.21350018680095673, 0.051268551498651505, 0.10879075527191162, -0.49902889132499695, -0.07014761120080948, -0.08010417968034744, -0.16652412712574005, -0.06712903082370758, -0.10347054898738861, 0.04222629591822624, -0.00798244122415781, 0.14968466758728027, 0.13377845287322998, 0.057430606335401535, -0.11166349798440933, -0.32398557662963867, 0.07481948286294937, -0.01922597549855709, 0.03630194067955017, 0.08635911345481873, -0.00697480421513319, -0.009750272147357464, 0.14427213370800018, 0.05816591531038284, 0.08303429186344147, -0.1108480915427208, 0.02241385355591774, -0.06180895119905472, -0.016513841226696968, 0.16530287265777588, 0.14241710305213928, -0.12028323858976364, -0.03944526985287666, -0.19534049928188324, 0.10124490410089493, 0.22238905727863312, 0.12984639406204224, -0.04509366303682327, -0.15565082430839539, -0.089053675532341, 0.12859757244586945, -0.3237002193927765, -0.13721264898777008, -0.02394626848399639, 0.026802044361829758, 0.22274933755397797, 0.05424736067652702, 0.23411379754543304, -0.027953535318374634, 0.1519315540790558, 0.06438465416431427, -0.13233844935894012, 0.22088773548603058, -0.022093389183282852, -0.006461927201598883, 0.1408417969942093, -0.18036697804927826, -0.037285078316926956, -0.2650074064731598, -0.06452518701553345, 4.3787655158666894e-05, 0.16290581226348877, -0.28263673186302185, -0.19606158137321472, -0.38449135422706604, -0.16597320139408112, 0.2450394481420517, 0.27846822142601013, -0.009320043958723545, -0.35408177971839905, -0.07520055770874023, 0.39297884702682495, 0.0933186486363411, 0.16183999180793762, 0.06536968797445297, -0.36648035049438477, 0.04061514884233475, -0.27052903175354004, 0.0050196656957268715, -0.5021907091140747, 0.009914826601743698, -0.16788026690483093, 0.024218516424298286, 0.13519079983234406, 0.10758811980485916, -0.04934396967291832, -0.1780974566936493, 0.031716082245111465, -0.5075157284736633, 0.23531758785247803, 0.0017404892714694142, 0.2475580871105194, 0.07010528445243835, -0.09618466347455978, 0.2537195682525635, 0.07985464483499527, 0.10110506415367126, 0.009281167760491371, 0.03801703825592995, 0.050350211560726166, -0.0688934400677681, 0.05919744819402695, 0.04318432882428169, -0.060674089938402176, -0.09913808852434158, 0.057331617921590805, -0.08491883426904678, -0.19943395256996155, -0.2918337285518646, -0.24622054398059845, 0.0642542839050293, 0.2529732882976532, 0.13993923366069794, 0.06841681897640228, -0.10422156751155853, 0.20517794787883759, -0.11318209767341614, -0.13548754155635834, 0.08000081777572632, -0.014751036651432514, 0.053658079355955124, 0.04383579641580582, 0.09598072618246078, 0.05329442396759987, -0.07292532920837402, -0.01479185838252306, -0.34504273533821106, -0.13911397755146027, 0.2258240431547165, -0.48760077357292175, 0.16372571885585785, 0.03841514140367508, 0.010102719999849796, -0.18066129088401794, -0.04110695794224739, -0.03209683299064636, 0.032211076468229294, -0.09655143320560455, 0.03858445584774017, -0.14919552206993103, -0.027848338708281517, -0.0849209800362587, -0.06792774051427841, 0.180027574300766, -0.163904070854187, 0.23564928770065308, -0.2813684940338135, -0.18184876441955566, 0.1453324407339096, 0.2317313253879547, -0.13844574987888336, 0.12241341918706894, 0.2935276925563812, 0.38071805238723755, -0.2900586724281311, 0.37645262479782104, 0.03754812106490135, -0.2017652690410614, -0.06409074366092682, -0.16953957080841064, -0.41577017307281494, 0.12513786554336548, 0.13707371056079865, -0.10232897102832794, -0.06963419169187546, 0.19407378137111664, 0.10311027616262436, 0.05594504624605179, -0.17672885954380035, -0.11719407141208649, 0.21086421608924866, 0.13227543234825134, -0.12356756627559662, 0.07147250324487686, 0.10392894595861435, 0.024013422429561615, -0.020822176709771156, -0.054448459297418594, -0.17370736598968506, -0.23944060504436493, -0.038832880556583405, 0.13312634825706482, -0.18685534596443176, -0.25456348061561584, 0.10136596113443375, -0.0403844453394413, -0.2153693586587906, -0.15818047523498535, 0.14313602447509766, 0.5237040519714355, 0.20641063153743744, -0.13177907466888428, -0.03856583312153816, -0.23438753187656403, 0.3873158395290375, 0.0811733826994896, -0.16686943173408508, 0.013697665184736252, -0.15706691145896912, 0.11827944219112396, -0.043035510927438736, 0.23673611879348755, 0.04137110710144043, 0.033172961324453354, 0.04480142518877983, -0.042906660586595535, 0.08314977586269379, -0.2096344530582428, 0.03378908708691597, -0.05526519566774368, -0.08276005834341049, -0.24614973366260529, -0.20138727128505707, -0.08180010318756104, 0.06797333806753159, 0.1598440706729889, -0.1409396529197693, -0.1276366263628006, -0.21819353103637695, 0.024679645895957947, 0.08480068296194077, 0.22041435539722443, 0.055162686854600906, 0.23569366335868835, 0.25721630454063416, 0.3733733296394348, 0.021919896826148033, 0.08637676388025284, 0.08898776769638062, 0.12156548351049423, 0.062197208404541016, 0.3502785265445709, 0.19787952303886414, -0.10072699934244156, 0.1836152821779251, -0.001697812112979591, 0.06044544279575348, 0.03644668683409691, 0.1604851633310318, 0.08126845210790634, -0.18300458788871765, 0.2560758888721466, 0.13344117999076843, 0.03779680281877518, 0.25770291686058044, 0.08893849700689316, -0.053243305534124374, -0.43820470571517944, -0.03190821781754494, -0.10751400142908096, 0.08384719491004944, 0.24506942927837372, 0.05441150441765785, -0.1554148644208908, 0.159797802567482, 0.08841381967067719, 0.213641956448555, 0.25708407163619995, -0.0025510338600724936, 0.19101862609386444, -0.07363556325435638, 0.03406866639852524, -0.19431203603744507, -0.3490080237388611, 0.19251294434070587, 0.031099192798137665, 0.016239209100604057, 0.11080112308263779, 0.06556819379329681, 0.11079251021146774, -0.3352215588092804, -0.31599661707878113, 0.04588262736797333, 0.20480555295944214, -0.11574896425008774, 0.01493297703564167, -0.07347027212381363, -0.017267359420657158, 0.23030978441238403, -0.22348515689373016, -0.29065945744514465, 0.1700068712234497, -0.1509184092283249, -0.08483503013849258, 0.2894228994846344, 0.086259625852108, 0.05140857398509979, 0.13118071854114532, -0.2754954695701599, -0.07467525452375412, -0.10199213773012161, 0.12466385215520859, -0.08433675765991211, -0.0901593416929245, 0.08291710913181305, 0.12750369310379028, -0.10870194435119629, 0.03628874197602272, 0.055071573704481125, 0.13254909217357635, 0.0509641095995903, -0.08797837048768997, 0.17376576364040375, 0.018974028527736664, -0.006599983666092157, -0.22743429243564606, -0.04048934206366539, 0.17490410804748535, -0.19196252524852753, 0.07562024891376495, 0.134579598903656, -0.0626474916934967, -0.02366984635591507, -0.01370274554938078, 0.17796242237091064, -0.0823805183172226, -0.03242683783173561, 0.01375499740242958, 0.13059642910957336, -0.26666533946990967, 0.13470683991909027, 0.03899802267551422, -0.020278889685869217, -0.04209495708346367, -0.0495452918112278, 0.024121569469571114, 0.15360476076602936, 0.11792263388633728, -0.17463995516300201, -0.039987243711948395, -0.2863174080848694, 0.125832200050354, -0.37902382016181946, 0.11769968271255493, 0.10885734856128693, 0.08681096136569977, 0.009693965315818787, -0.20213493704795837, -0.21630464494228363, -0.12292493134737015, -0.1385718137025833, 0.2182965725660324, -0.07550840824842453, -0.11781802773475647, 0.026480630040168762, -0.2653271555900574, 0.015151433646678925, 0.049857813864946365, -0.14900735020637512, -0.46237537264823914, -0.018609439954161644, -0.1637485772371292, -0.08795633167028427, -0.16685126721858978, 0.18343599140644073, -0.08381158858537674, -0.05454341694712639, -0.14082637429237366, -0.08129967004060745, 0.08012998104095459, -0.023454874753952026, -0.0549946203827858, 0.06435538828372955, 0.007807655725628138, -0.008872788399457932, 0.14551104605197906, 0.35696732997894287, -0.10309761017560959, -0.0041096569038927555, 0.13987645506858826, 0.3283352255821228, 0.1749855875968933, -0.012668238021433353, 0.10311717540025711, 0.01722298189997673, -0.016554297879338264, -0.13815313577651978, -0.15797211229801178, -0.17716717720031738, -0.11825449764728546, 0.10485716909170151, 0.08453429490327835, -0.1517116129398346, -0.03749271109700203, 0.2457302361726761, 0.09028911590576172, 0.0025939112529158592, -0.19068683683872223, 0.01647379621863365, 0.23555497825145721, 0.07736776769161224, 0.2739044725894928, 0.16160807013511658, 0.20048855245113373, 0.014567515812814236, -0.009562281891703606, 0.14710378646850586, 0.1530396193265915, -0.13165058195590973, -0.3491579592227936, -0.028306666761636734, 0.44985491037368774, 0.09072130918502808, -0.14372707903385162, 0.0506344810128212, -0.24045050144195557, -0.012309287674725056, -0.1002226173877716, 0.0645759329199791, -0.049722883850336075, -0.1016027182340622, 0.15818017721176147, 0.025844665244221687, -0.1297890990972519, -0.012685169465839863, -0.007272855844348669, -0.08862301707267761, 0.04611431062221527, -0.027583733201026917, 0.04259663075208664, 0.04179520905017853, -0.032763347029685974, -0.011182598769664764, 0.37396782636642456, 0.09161793440580368, 0.21559061110019684, -0.011310340836644173, 0.20338870584964752, -0.07137297838926315, 0.14644910395145416, -0.04619722440838814, -0.1057623103260994, 0.07825063914060593, 0.2782180607318878, 0.014384791254997253, -0.12700030207633972, 0.2872438132762909, 0.06756386905908585, 0.06438726931810379, 0.1417015641927719, 0.1288577765226364, -0.14140160381793976, 0.1521470546722412, -0.023729030042886734, 0.2523702383041382, 0.06868984550237656, 0.04217483103275299, -0.07639353722333908, -0.1332094669342041, -0.009274138137698174, 0.4199393093585968, 0.035342294722795486, -0.09449326246976852, -0.11778242141008377, 0.304717481136322, -0.0026784127112478018, 0.18432094156742096, -0.0931868776679039, -0.018942251801490784, 0.2603392004966736, -0.014967214316129684, 0.05384373664855957, 0.14697787165641785, -0.09107144922018051, 0.0159433763474226, -0.11399824917316437, 0.3959963023662567, -0.14196231961250305, 0.13029073178768158, 0.21131707727909088, -0.2269316464662552, -0.1288318932056427, 0.43480533361434937, -0.007758463267236948, -0.07454368472099304, 0.14078180491924286, 0.00694871973246336, 0.011824524030089378, 0.0606878437101841, 0.1670578569173813, 0.05042655020952225, 0.04888835549354553, 0.4008450508117676, 0.03184697777032852, 0.3784440755844116, -0.00012461170263122767, -0.28004589676856995, -0.16493134200572968, 0.0564710758626461, 0.036509741097688675, -0.20356661081314087, -0.09837673604488373, 0.1923033446073532, 0.10432183742523193, -0.016793563961982727, 0.24056977033615112, -0.07314787805080414, -0.1764533966779709, 0.10009746253490448, 0.09603449702262878, -0.05138399451971054, 0.12228098511695862, 0.20438532531261444, 0.044931769371032715, 0.009284360334277153, 0.12301204353570938, 0.11478425562381744, 0.020611295476555824, -0.03077641874551773, -0.08316225558519363, 0.14916618168354034, -0.21112608909606934, -0.20216745138168335, -0.07582471519708633, 0.027761735022068024, 0.09971877187490463, -0.03164098411798477, -0.27174022793769836, 0.1096310019493103, -0.030014285817742348, 0.060255225747823715, 0.2582588195800781, -0.09189220517873764, -0.19226492941379547, 0.10487045347690582, 0.17918209731578827, 0.0327114537358284, 0.0006271352176554501, -0.053386375308036804, 0.04428717494010925, 0.3025529384613037, 0.05225367844104767, -0.21406912803649902, 0.2306712567806244, 0.17758715152740479, 0.23553170263767242, 0.12247981131076813, 0.04053039103746414, 0.2609231770038605, 0.018243717029690742, -0.2790079414844513, 0.2121763676404953, -0.2869512438774109, -0.31020715832710266, -0.12116077542304993, 0.1239025890827179, 0.29889920353889465, -0.1914391666650772, 0.06058682128787041, 0.23305456340312958, -0.019970368593931198, 0.04196610674262047, 0.3877474069595337, -0.2468230128288269, 0.004800759721547365, 0.05913648381829262, -0.2838332951068878, -0.35781586170196533, -0.42368370294570923, -0.32112395763397217, 0.21149857342243195, 0.051727812737226486, -0.14899490773677826, 0.0491471029818058, 0.18275120854377747, -0.042165204882621765, -0.040268268436193466, 0.013865138404071331, -0.03866567090153694, 0.06247484311461449, 0.020698806270956993, 0.13945190608501434, -0.06763146817684174, 0.004995765630155802, 0.04981406778097153, 0.15556301176548004, 0.015142795629799366, -0.08642428368330002, 0.13890711963176727, 0.0067467475309967995, 0.10111773759126663, 0.12147630751132965, -0.03516294062137604, -0.2150469422340393, -0.12059623003005981, 0.16952688992023468, 0.17911145091056824, -0.0021359524689614773, -0.005333205685019493, 0.12711983919143677, -0.015397423878312111, -0.034466180950403214, 0.09934834390878677, 0.05503018945455551, -0.2627710700035095, 0.21262072026729584, 0.17529018223285675, 0.08224114775657654, -0.10929185152053833, -0.054833825677633286, -0.10111960768699646, 0.10191071033477783, 0.236362487077713, -0.1384035050868988, -0.003934492357075214, 0.02711034007370472, 0.006048461887985468, -0.15967446565628052, 0.19357173144817352, -0.09119046479463577, -0.04573778435587883, -0.0750037282705307, 0.14479705691337585, -0.005854425020515919, 0.08363726735115051, -0.06485360860824585, -0.05472197011113167, -0.021791940554976463, -0.15715977549552917, 0.2169298529624939, 0.3904900848865509, 0.2141372561454773, 0.4646461606025696, 0.24981410801410675, -0.08770672976970673, -0.06377563625574112, -0.2153533399105072, 0.1940535008907318, 0.13615550100803375, -0.08865635842084885, -0.06275904923677444, -0.08190163224935532, 0.07308635115623474, -0.10459905862808228, -0.02303326316177845, 0.04691136255860329, 0.10356206446886063, -0.06538616120815277, 0.04438209533691406, -0.1511160433292389, 0.1372717022895813, 0.08260325342416763, 0.07227841764688492, 0.1354048103094101, -0.20891694724559784, 0.23069386184215546, -0.1842319369316101, -0.054150160402059555, 0.21749356389045715, 0.044975314289331436, 0.17595598101615906, -0.01789918541908264, 0.15131230652332306, -0.2417280077934265, -0.26130086183547974, 0.3456632196903229, 0.28628262877464294, 0.03295612707734108, -0.05225863307714462, -0.04551883414387703, -0.14912734925746918, -0.13589420914649963, -0.3448689877986908, 0.14203587174415588, -0.4393097460269928, 0.1448795050382614, 0.10530353337526321, 0.005874717142432928, 0.22166872024536133, -0.11627344787120819, -0.2960437536239624, 0.014895527623593807, 0.07254063338041306, 0.010390173643827438, -0.2513919770717621, -0.10196776688098907, 0.09067502617835999, 0.4119640290737152, -0.2982458472251892, -0.18319882452487946, -0.08665655553340912, -0.012943262234330177, -0.2870074212551117, 0.16202585399150848, 0.10091187059879303, -0.2839987576007843, 0.11302560567855835, -0.18791227042675018, 0.0839603915810585, -0.010684516280889511, 0.014153139665722847, -0.15175405144691467, -0.060346681624650955, -0.060491736978292465, -0.08695780485868454, -0.012328102253377438, -0.20752358436584473, -0.09209329634904861, 0.11086554825305939, -0.3156161606311798, -0.26503753662109375, 0.006535627879202366, -0.12278885394334793, 0.3321676254272461, -0.15491856634616852, -0.183253213763237, -0.021080058068037033, -0.1309838891029358, -0.05709977447986603, -0.034487880766391754, 0.06883180886507034, 0.015110211446881294, -0.022849205881357193, -0.02591267228126526, -0.026008348912000656, 0.2631464898586273, -0.1258201152086258, 0.03162098675966263, 0.11960045993328094, 0.12031619995832443, 0.14984533190727234, 0.016889289021492004, -0.1343933343887329, -0.01222181785851717, 0.1747453808784485, 0.3187916576862335, 0.026345835998654366, 0.3467942476272583, 0.19756291806697845, 0.3056367039680481, -0.3086453676223755, -0.17505086958408356, -0.04880049452185631, 0.23646612465381622, 0.00846708845347166, -0.04989484325051308, 0.13558736443519592, 0.30017101764678955, -0.041298117488622665, -0.19501717388629913, 0.03375553339719772, 0.012150672264397144, 0.32701510190963745, 0.17919303476810455, -0.01619589701294899, -0.2530248463153839, -0.2776329815387726, -0.06527235358953476, -0.023603530600667, 0.05464411526918411, -0.21489731967449188, 0.3708418905735016, -0.039100684225559235, -0.11879929900169373, 0.014019415713846684, 0.1356823742389679, -0.060845933854579926, 0.21367184817790985, 0.014274290762841702, 0.2837141752243042, -0.005966022610664368, -0.0664219930768013, 0.15729820728302002, 0.2377883344888687, 0.28342053294181824, 0.18974971771240234, -0.07823755592107773, -0.039831046015024185, 0.000693995098117739, -0.11970428377389908, 0.19886556267738342, -0.09761103242635727, -0.07776123285293579, 0.10088552534580231, -0.10631079971790314, -0.12042462825775146, -0.1252392828464508, -0.09445659071207047, -0.1872587949037552, -0.2553005814552307, 0.0038651793729513884, 0.06493072211742401, 0.13697336614131927, 0.074600450694561, -0.07193811982870102, 0.007567672058939934, 0.2842755913734436, -0.08667729794979095, 0.03479301929473877, -0.046365994960069656, 0.1758117526769638, 0.09135229140520096, 0.12559163570404053, 0.1145833432674408, 0.04956226423382759, -0.040417492389678955, -0.15663273632526398, 0.030667461454868317, 0.06876319646835327, 0.06633653491735458, 0.004098157864063978, -0.22933347523212433, 0.04650019109249115, 0.31960317492485046, -0.3873197138309479, 0.17290997505187988, -0.4059489667415619, -0.03747515380382538, 0.1141497865319252, 0.06360886245965958, 0.33278337121009827, -0.40365561842918396, -0.1939273178577423, -0.09879165142774582, 0.1186242550611496, -0.18708328902721405, 0.18134936690330505, 0.03208072856068611, 0.059321511536836624, -0.1201983392238617, -0.13305668532848358, 0.09612217545509338, -0.002800620160996914, -0.11248496174812317, -0.08358565717935562, 0.042157333344221115, -0.14079615473747253, -0.03546500578522682, 0.3865911364555359, -0.03062649816274643, -0.2260185182094574, -0.24314641952514648, 0.039557553827762604, -0.06497178971767426, -0.04369685798883438, -0.03544728830456734, -0.016267864033579826, 0.2198488861322403, -0.07022004574537277, -0.2712500989437103, -0.19551928341388702, 0.2699773609638214, -0.005392916966229677, -0.13433396816253662, 0.16338205337524414, -0.2396315634250641, -0.04691623896360397, -0.17819282412528992, 0.07589183002710342, -0.07914921641349792, -0.12150295823812485, 0.1808130443096161, 0.06877212226390839, -0.1398790329694748, -0.15525652468204498, -0.1079835444688797, 0.10820072889328003, 0.15803970396518707, -0.1057007759809494, -0.029231708496809006, -0.3138411045074463, -0.21537308394908905, 0.04775983840227127, -0.0435369610786438, -0.17477577924728394, 0.05924170836806297, 0.15190313756465912, -0.12867188453674316, -0.20952822268009186, -0.3702802360057831, 0.04522063955664635, 0.09329228103160858, -0.01590864360332489, 0.04119379445910454, -0.28818613290786743, -0.23719657957553864, -0.2012026160955429, 0.05615025386214256, 0.27759191393852234, -0.03527040034532547, -0.022000979632139206, 0.012378092855215073, 0.021912669762969017, 0.014838951639831066, 0.19464504718780518, 0.04073378071188927, 0.6123136281967163, 0.14333213865756989, -0.0686740130186081, 0.3282759487628937, -0.167038232088089, 0.14600075781345367, -0.18237467110157013, -0.06412222981452942, 0.04190775752067566, 0.13965727388858795, -0.1765257865190506, -0.1840008646249771, 0.023858649656176567, -0.0663684606552124, -0.04080627113580704, -0.24492420256137848, -0.05719328299164772, -0.010519865900278091, -0.022877447307109833, -0.051734600216150284, 0.12477904558181763, -0.04327506199479103, -0.06120351701974869, -0.07267556339502335, 0.22159968316555023, 0.07745932787656784, 0.11504679918289185, 0.040938716381788254, 0.2001798450946808, 0.11390403658151627, 0.14733056724071503, 0.07028982788324356, -0.35672470927238464, -0.30852505564689636, -0.17293289303779602, 0.21965175867080688, 0.308664470911026, 0.2642510235309601, 0.16702839732170105, 0.1933099627494812, -0.13774792850017548, -0.14698545634746552, -0.06275059282779694, -0.15653586387634277, -0.017843903973698616, 0.23220199346542358, -0.08430793881416321, 0.1311718076467514, -0.09561584144830704, -0.03406961262226105, 0.01611246168613434, 0.011800295673310757, 0.06720253080129623, -0.08464350551366806, 0.1495601236820221, 0.13082335889339447, 0.4089775085449219, -0.021085619926452637, 0.058584582060575485, 0.06835780292749405, 0.29440176486968994, 0.10698898136615753, 0.22840189933776855, -0.17718826234340668, -0.00403933459892869, 0.13343995809555054, -0.07471289485692978, 0.10906164348125458, -0.04259296506643295, -0.10208669304847717, -0.0019036093726754189, -0.08303481340408325, 0.12996788322925568, -0.05783417448401451, 0.22489961981773376, 0.05887966603040695, 0.060207996517419815, 0.04669151082634926, -0.1347140222787857, -0.4244244396686554, 0.08213404566049576, -0.029433269053697586, 0.2754252552986145, 0.0962081030011177, -0.07945391535758972, 0.011325281113386154, -0.08325700461864471, -0.12514083087444305, -0.08220434188842773, -0.1665104627609253, -0.09718753397464752, 0.054184768348932266, -0.11113805323839188, -0.1154240220785141, 0.0583091676235199, 0.2356211245059967, -0.13977737724781036, -0.22746413946151733, 0.02913670986890793, 0.06764379143714905, 0.153639554977417, 0.1422991156578064, -0.05469164624810219, -0.17285685241222382, 0.2954840660095215, 0.056447502225637436, 0.050833769142627716, 0.2219076305627823, 0.047710832208395004, -0.10500708222389221, 0.030771804973483086, -0.028670156374573708, -0.1518755704164505, -0.22118285298347473, 0.24147498607635498, 0.08104658126831055, -0.17796635627746582, 0.08537948131561279, 0.14724616706371307, 0.08585375547409058, -0.2568347454071045, 0.27007511258125305, -0.15159004926681519, -0.13777434825897217, 0.22795644402503967, -0.21284890174865723, 0.11017215251922607, -0.03325614333152771, 0.28586167097091675, -0.13442586362361908, 0.04395537078380585, 0.03649855777621269, -0.20023782551288605, -0.25875145196914673, -0.048963699489831924, -0.11548314988613129, 0.12327972054481506, -0.1063973680138588, -0.19305142760276794, -0.016075700521469116, 0.19979730248451233, 0.47201576828956604, 0.038144566118717194, 0.1871740221977234, 0.23838232457637787, 0.06323838979005814, 0.08445234596729279, 0.046834737062454224, 0.027107540518045425, -0.10279261320829391, -0.046081628650426865, 0.032513901591300964, 0.17201626300811768, -0.07464456558227539, 0.09832273423671722, -0.11366767436265945, 0.10672739893198013, -0.17263232171535492, 0.21911975741386414, 0.02833796851336956, -0.0589447021484375, -0.164259135723114, -0.23202326893806458, -0.06647273898124695, -0.14539797604084015, -0.05172834172844887, -0.09612862020730972, 0.11087784916162491, 0.5239627361297607, 0.08979081362485886, -0.22122572362422943, 0.2631777226924896, -0.12805013358592987, 0.20941723883152008, 0.3733024597167969, 0.1939457356929779, 0.034212589263916016, 0.09791620820760727, -0.03055766224861145, 0.17966848611831665, 0.30257904529571533, -0.023274999111890793, 0.03170076385140419, -0.043834928423166275, -0.034617748111486435, -0.21746444702148438, -0.01871732622385025, -0.0014551070053130388, -0.011354773305356503, -0.13331180810928345, 0.009644866921007633, -0.15599463880062103, 0.16394701600074768, 0.2678097188472748, 0.006056506186723709, -0.012119719758629799, 0.006579610984772444, -0.10182879865169525, 0.07469487190246582, 0.16533060371875763, -0.13561201095581055, -0.15210042893886566, 0.037173934280872345, 0.21520917117595673, -0.039156097918748856, 0.06163196265697479, 0.033969681710004807, -0.11253107339143753, 0.24278253316879272, 0.04601427540183067, 0.2027009129524231, 0.06956695020198822, -0.26985469460487366, 0.0942603275179863, -0.11989723145961761, -0.015458793379366398, 0.11395661532878876, -0.04651980102062225, -0.16846612095832825, -0.026934586465358734, -0.04082772880792618, 0.02105167880654335, 0.014996224083006382, -0.15411794185638428, -0.11965352296829224, 0.24793173372745514, 0.03919227048754692, 0.09229616075754166, 0.17629055678844452, -0.04074276611208916, 0.08621054142713547, 0.01631622575223446, 0.06665521115064621, -0.0006113547715358436, -0.1006985530257225, -0.005822882056236267, -0.023459071293473244, -0.22876442968845367, -0.21605080366134644, 0.08640667051076889, 0.19127266108989716, -0.15385295450687408, -0.25102025270462036, -0.3570092022418976, -0.006423114333301783, 0.09912183880805969, -0.0820525586605072, 0.022121774032711983, -0.2766117453575134, -0.24801571667194366, 0.029111064970493317, 0.28833019733428955, 0.2742762565612793, -0.11083441972732544, -0.22768081724643707, 0.38044121861457825, -0.1051332950592041, -0.1612628698348999, -0.0866866484284401, 0.21818946301937103, 0.3128889501094818, 0.016711656004190445, 0.07974250614643097, 0.16572128236293793, -0.15177986025810242, -0.10589278489351273, -0.22625215351581573, -0.43341246247291565, -0.09750748425722122, -0.2891816794872284, -0.055998336523771286, -0.053340766578912735, 0.08256179094314575, 0.365633100271225, 0.008370945230126381, -0.5336830615997314, 0.009543158113956451, 0.020017236471176147, -0.03625761717557907, -0.26475974917411804, -0.20082837343215942, 0.03886881470680237, -0.04505491629242897, 0.07450506091117859, -0.11797276139259338, -0.05789261311292648, -0.1450348198413849, -0.08197084069252014, 0.01448665838688612, 0.2720924913883209, 0.23671185970306396, 0.13699868321418762, 0.03434477001428604, 0.014064312912523746, 0.08090725541114807, 0.21832413971424103, 0.017685722559690475, 0.09809347242116928, -0.061472468078136444, 0.14923174679279327, 0.04775160551071167, 0.15980836749076843, 0.006145724095404148, -0.014603289775550365, 0.14403605461120605, -0.17755790054798126, -0.011895821429789066, -0.12540532648563385, -0.22558391094207764, -0.10431858897209167, -0.26240187883377075, 0.2333030253648758, 0.22586335241794586, 0.05113455653190613, 0.1059778705239296, -0.3459896147251129, -0.041051264852285385, -0.07607071101665497, -0.0007169073214754462, 0.14503757655620575, -0.11179527640342712, 0.22539454698562622, 0.008267084136605263, -0.1881975382566452, -0.05585945025086403, -0.12298241257667542, 0.25567907094955444, 0.28099194169044495, 0.18296171724796295, 0.15366217494010925, -0.24370542168617249, -0.309205561876297, 0.20225951075553894, 0.0613432340323925, 0.0618300698697567, -0.14437641203403473, -0.05116301402449608, -0.055246513336896896, -0.03782421723008156, -0.07789213210344315, 0.12289995700120926, -0.13706158101558685, -0.304505318403244, -0.023410988971590996, -0.14344874024391174, 0.14956718683242798, 0.15971337258815765, 0.17411722242832184, -0.03935597464442253, 0.03389529511332512, -0.06845200806856155, 0.14933457970619202, -0.006120564416050911, 0.15422379970550537, 0.27145105600357056, -0.15429039299488068, 0.08536233752965927, -0.008443601429462433, 0.19532033801078796, 0.3572801649570465, -0.2714283764362335, -0.050654664635658264, 0.4185647964477539, 0.030249303206801414, 0.10272447764873505, -0.06562988460063934, -0.09670475870370865, -0.09230934083461761, -0.4437313973903656, -0.11645890027284622, -0.024383362382650375, 0.1053326427936554, 0.017643805593252182, 0.21267865598201752, -0.3819539546966553, 0.09867960214614868, 0.21083058416843414, 0.15437866747379303, -0.23946323990821838, 0.16639924049377441, -0.20190854370594025, 0.4163641631603241, 0.1264985203742981, 0.10975900292396545, 0.08741944283246994, -0.24427931010723114, 0.16715627908706665, -0.030980153009295464, 0.05432127043604851, -0.0824037566781044, 0.06010161340236664, -0.3724279999732971, -0.07462447881698608, -0.014958455227315426, 0.07140228152275085, -0.19286814332008362, -0.0037855671253055334, 0.0998857170343399, -0.11511369049549103, -0.1029869094491005, 0.08095143735408783, 0.20809409022331238, 0.1006513312458992, 0.12331964820623398, 0.08091148734092712, 0.09854362905025482, 0.10204939544200897, 0.24551187455654144, 0.14064088463783264, -0.2481590062379837, -0.052312467247247696, 0.34279632568359375, 0.005239567253738642, -0.34816643595695496, 0.2545800507068634, 0.1742115169763565, -0.056891072541475296, 0.13308794796466827, -0.08134503662586212, -0.14691731333732605, 0.34068208932876587, -0.09328502416610718, -0.05933971330523491, 0.13821706175804138, -0.10744566470384598, -0.12416566163301468, -0.09624773263931274, -0.06763434410095215, -0.07111652195453644, 0.015925634652376175, -0.13430644571781158, -0.10732138156890869, 0.08709574490785599, -0.1497802883386612, 0.14866456389427185, -0.19121824204921722, 0.12427955120801926, 0.06650730967521667, 0.07925160974264145, 0.23672467470169067, -0.15936529636383057, 0.056229788810014725, 0.2581637501716614, 0.23121894896030426, -0.05590604990720749, 0.1595097929239273, 0.05931316688656807, -0.2009667009115219, -0.3639879524707794, -0.047392379492521286, 0.2858543395996094, -0.019331984221935272, 0.24942122399806976, -0.001238462165929377, -0.09668762236833572, -0.07789024710655212, -0.025881104171276093, -0.2724756598472595, -0.15299281477928162, 0.19205595552921295, -0.10525232553482056, 0.09180748462677002, -0.09927759319543839, 0.0155771654099226, 0.01952020451426506, -0.2545108497142792, -0.054768260568380356, -0.2572387754917145, 0.16154727339744568, 0.25453412532806396, 0.04806079715490341, 0.33134323358535767, -0.08788024634122849, -0.13683964312076569, -0.02844921499490738, 0.24618029594421387, -0.2708907425403595, 0.1264551728963852, 0.16572462022304535, 0.05521043390035629, -0.16485187411308289, -0.2765631079673767, 0.07825209200382233, 0.3073663115501404, -0.410017728805542, -0.399267315864563, -0.034194719046354294, 0.16397613286972046, 0.28639426827430725, 0.21044538915157318, 0.2401515543460846, 0.07184948027133942, 0.3060734272003174, -0.11004064232110977, 0.026170901954174042, 0.0838787853717804, 0.09145861119031906, 0.12727543711662292, -0.3076283633708954, -0.051104526966810226, -0.19710320234298706, 0.06724411249160767, -0.18439263105392456, 0.10753659904003143, 0.4671372175216675, -0.19475707411766052, 0.010870188474655151, 0.38337039947509766, 0.08107098937034607, -0.10460855066776276, -0.12324366718530655, -0.18542303144931793, 0.05703968554735184, -0.05126393958926201, -0.005398706067353487, -0.030948450788855553, -0.24206796288490295, -0.2783399820327759, 0.3485811650753021, 0.1431731879711151, -0.02537612058222294, 0.004517669789493084, 0.12517134845256805, -0.2561761140823364, -0.11820246279239655, 0.07205263525247574, -0.2121322602033615, 0.09708119928836823, -0.22410713136196136, -0.010747827589511871, 0.009288860484957695, -0.05467977747321129, 0.12884381413459778, -0.21183961629867554, 0.29713407158851624, 0.0026242658495903015, -0.19882935285568237, 0.02961617521941662, -0.018699485808610916, -0.04966551065444946, 0.06200142949819565, 0.066302590072155, -0.025448352098464966, -0.05699848383665085, 0.003844932885840535, -0.05468641594052315, -0.17190691828727722, 0.2434731423854828, -0.019053177908062935, 0.14530885219573975, 0.05599832907319069, 0.08857552707195282, -0.01726842299103737, 0.18488094210624695, -0.13180753588676453, 0.01333625614643097, 0.030250268056988716, -0.09795098751783371, 0.025045121088624, -0.042582836002111435, -0.06702101230621338, -0.05609765276312828, 0.0547645278275013, -0.12730413675308228, -0.23712241649627686, -0.21302005648612976, -0.06650345027446747, -0.12013506889343262, 0.04708670452237129, -0.15887899696826935, -0.007307873573154211, -0.003735444275662303, 0.029896939173340797, -0.13966967165470123, -0.09604929387569427, -0.04040461406111717, -0.28395360708236694, 0.09936895966529846, -0.04190324246883392, -0.09876992553472519, -0.11627797037363052, 0.15455323457717896, -0.029763123020529747, 0.2627144753932953, -0.05618254095315933, 0.4043322503566742, 0.15137457847595215, 0.14285780489444733, 0.06289373338222504, -0.2403298020362854, -0.38704293966293335, 0.3669407367706299, -0.139120414853096, -0.18533223867416382, 0.2615829408168793, 0.03998703137040138, -0.23980212211608887, -0.25569218397140503, 0.30839303135871887, 0.013807511888444424, -0.18452642858028412, -0.41593053936958313, -0.16654406487941742, 0.2371264398097992, -0.16099266707897186, 0.07621124386787415, -0.1044551357626915, 0.23753154277801514, 0.04320646822452545, 0.15660269558429718, -0.2807745635509491, 0.003213444957509637, 0.05388005077838898, -0.14218242466449738, 0.20057059824466705, 0.06410341709852219, -0.4066999852657318, 0.14232246577739716, 0.24733412265777588, -0.03629876673221588, 0.1537468135356903, 0.07928769290447235, 0.004009774886071682, 0.1767290234565735, 0.08700061589479446, 0.2781720459461212, 0.1825106292963028, -0.05984046310186386, -0.11201218515634537, 0.08125413209199905, 0.011445331387221813, -0.04938045144081116, 0.06632338464260101, 0.21098871529102325, 0.06740668416023254, 0.009136221371591091, -0.050513897091150284, 0.08908545225858688, 0.21890172362327576, -0.012804430909454823, 0.0329924002289772, 0.02364501729607582, 0.04541321098804474, 0.3041026294231415, 0.009498370811343193, -0.1865699589252472, 0.09758312255144119, -0.09786249697208405, 0.12422215938568115, 0.1349245011806488, 0.33679530024528503, 0.08668649941682816, -0.4027096927165985, -0.06430690735578537, -0.19157414138317108, 0.10857310891151428, -0.07214108854532242, 0.18838120996952057, -0.0626925528049469, -0.06320377439260483, 0.021565675735473633, -0.15643653273582458, -0.042822226881980896, -0.052663546055555344, -0.28804147243499756, -0.10013112425804138, -0.18251700699329376, -0.22845394909381866, -0.1652086228132248, 0.05519944801926613, -0.2659182846546173, -0.1876155138015747, 0.2743373215198517, 0.13782207667827606, -0.0155719555914402, 0.056559063494205475, -0.0476858951151371, -0.14469988644123077, 0.026787877082824707, -0.10094667226076126, 0.020830897614359856, -0.01896083913743496, -0.19136710464954376, -0.3562890291213989, 0.08832231909036636, -0.002654738025739789, -0.025907201692461967, 0.043569669127464294, 0.296820729970932, -0.2032320499420166, 0.027401121333241463, -0.0576457716524601, -0.30832037329673767, 0.18048308789730072, 0.02358679659664631, -0.03271668776869774, -0.150814488530159, -0.11063064634799957, -0.14140182733535767, 0.15214350819587708, -0.1905474215745926, 0.1892203688621521, 0.014940372668206692, -0.13688534498214722, -0.05056021735072136, 0.124086394906044, -0.016143959015607834, 0.043237194418907166, 0.16911587119102478, -0.10283102095127106, -0.10165021568536758, 0.13594871759414673, -0.10836409777402878, -0.23577822744846344, -0.19254571199417114, 0.2202608287334442, 0.04064986854791641, 0.08166442811489105, -0.13334941864013672, 0.22162190079689026, 0.014635753817856312, -0.1497046947479248, -0.3852841258049011, 0.11347832530736923, 0.20179738104343414, -0.14205563068389893, 0.04314607009291649, -0.19303584098815918, 0.3216365873813629, 0.22122114896774292, 0.2780693471431732, -0.08097855001688004, -0.12581206858158112, 0.17394237220287323, 0.26319047808647156, -0.07113123685121536, 0.15965430438518524, 0.1500696837902069, -0.11077065765857697, 0.20704063773155212, -0.10476770251989365, 0.06067942827939987, -0.0668552964925766, -0.07479868829250336, -0.02470371499657631, 0.25592270493507385, -0.005449449177831411, 0.05955725535750389, -0.24851298332214355, -0.1348625272512436, 0.11717868596315384, 0.25133296847343445, 0.07991300523281097, -0.2095729410648346, -0.021060999482870102, -0.18420520424842834, 0.006130840629339218, -0.2146817445755005, 0.04662732779979706, -0.02024778537452221, -0.0175639558583498, 0.10656912624835968, 0.28045299649238586, -0.44161513447761536, 0.3596448600292206, 0.06819622218608856, -0.018833454698324203, -0.33286798000335693, -0.2499292641878128, 0.2724848985671997, 0.138941690325737, 0.1635761857032776, 0.13908059895038605, 0.06291037052869797, 0.0405605286359787, -0.034523479640483856, 0.19538839161396027, -0.2868846654891968, -0.1109016165137291, 0.057099055498838425, -0.16873539984226227, 0.21618594229221344, -0.2263282686471939, -0.09328628331422806, 0.054893799126148224, -0.16058973968029022, -0.12966130673885345, 0.050183866173028946, -0.023094672709703445, 0.025867963209748268, -0.1319696456193924, 0.14147239923477173, -0.108402319252491, -0.048183735460042953, 0.21293185651302338, -0.013128711842000484, 0.061658501625061035, -0.30140185356140137, -0.33244284987449646, -0.10878122597932816, 0.006283924914896488, 0.09615623950958252, -0.13726162910461426, 0.1764092594385147, -0.07332907617092133, 0.035277415066957474, -0.5616397261619568, 0.27110302448272705, 0.19089779257774353, -0.060650479048490524, -0.19347834587097168, -0.018581580370664597, -0.2961881160736084, 0.028831874951720238, -0.31361496448516846, -0.08655152469873428, -0.23023201525211334, 0.11226321011781693, -0.12996144592761993, -0.371944397687912, -0.0082935756072402, 0.2507748007774353, 0.11627891659736633, 0.10114645212888718, 0.09542956948280334, -0.08073985576629639, -0.0584360770881176, -0.15886013209819794, 0.5741703510284424, -0.13072362542152405, 0.016749132424592972, -0.2986363172531128, -0.21952804923057556, 0.13514377176761627, 0.1193162128329277, 0.00472142593935132, -0.15307243168354034, 0.014281434006989002, -0.01638859696686268, 0.09503871202468872, -0.005499335937201977, -0.17869186401367188, -0.10767070949077606, -0.18820063769817352, -0.11271608620882034, -0.026115775108337402, -0.013519205152988434, -0.10050290822982788, 0.3943634629249573, 0.05114227905869484, -0.012585175223648548, 0.016068842262029648, 0.008248443715274334, -0.1640559285879135, 0.19643883407115936, 0.1599361002445221, -0.017480844631791115, -0.2594875991344452, -0.2367531806230545, -0.1683298498392105, -0.06448468565940857, 0.07730382680892944, -0.11487088352441788, -0.01207653246819973, -0.14930303394794464, 0.0831664651632309, 0.10764504224061966, 0.00041242255247198045, 0.0900808572769165, 0.08523663878440857, -0.12164843082427979, 0.10388460010290146, 0.11451559513807297, 0.18253940343856812, 0.2310522198677063, -0.15837939083576202, 0.03961626812815666, 0.22405342757701874, 0.12412500381469727, -0.3038177192211151, -0.13177073001861572, 0.19078783690929413, -0.12405699491500854, -0.06914053857326508, 0.07118275761604309, 0.062380727380514145, 0.35061392188072205, -0.34447482228279114, 0.266081303358078, 0.10718545317649841, -0.08093476295471191, -0.024846378713846207, -0.17608283460140228, -0.1204334944486618, -0.13738009333610535, 0.0964861661195755, 0.07130449265241623, -0.36772841215133667, 0.14227980375289917, -0.013659490272402763, 0.11184021085500717, -0.12894369661808014, 0.23912832140922546, -0.11957487463951111, -0.09688195586204529, -0.022563790902495384, -0.0012256365735083818, 0.022005226463079453, -0.018353233113884926, -0.008703621104359627, 0.04637531191110611, 0.0038802288472652435, -0.11825932562351227, -0.032537367194890976, -0.03573096543550491, 0.08848565816879272, 0.10909172147512436, 0.2949644923210144, -0.10855495184659958, -0.23803624510765076, -0.05661443993449211, -0.051808472722768784, -0.015360819175839424, -0.21209993958473206, -0.06885965913534164, -0.1964917927980423, 0.06070771440863609, -0.052184928208589554, 0.0009042713791131973, -0.28488215804100037, 0.11554677784442902, 0.2892001271247864, -0.042110566049814224, -0.0023694410920143127, 0.05324315279722214, 0.1508810818195343, -0.04608109965920448, -0.3791951835155487, -0.024200228974223137, -0.02291683480143547, -0.0041254060342907906, 0.03807104006409645, -0.37068048119544983, -0.23771996796131134, -0.13304755091667175, 0.037638481706380844, -0.07663485407829285, 0.030527010560035706, -0.06251846253871918, 0.05922956019639969, -0.018456101417541504, -0.13933239877223969, 0.03246495500206947, 0.26255860924720764, -0.03616257756948471, -0.0368037112057209, 0.036337174475193024, -0.19938312470912933, -0.1216331273317337, 0.02958124876022339, -0.1640302836894989, -0.10691893100738525, 0.053305286914110184, 0.09353383630514145, 0.004556202795356512, -0.08187468349933624, 0.07862305641174316, -2.6688776415539905e-05, -0.00454757222905755, 0.10799001157283783, -0.1879904568195343, -0.05418481305241585, 0.14073075354099274, 0.05558944121003151, -0.07103373110294342, -0.18225973844528198, 0.02654482237994671, 0.038155410438776016, -0.13804590702056885, 0.2915860414505005, -0.056243568658828735, 0.03836638107895851, -0.04681909829378128, 0.31088587641716003, 0.081013523042202, 0.17006362974643707, 0.11950807273387909, -0.18137088418006897, -0.19790175557136536, -0.18662822246551514, -0.21947872638702393, -0.11797642707824707, -0.031777750700712204, 0.2176591157913208, 0.20031128823757172, 0.042415738105773926, 0.3397943675518036, -0.030477819964289665, -0.06959140300750732, 0.14036554098129272, 0.11672648042440414, 0.15771903097629547, 0.4054265320301056, -0.036111634224653244, 0.041693031787872314, -0.08483190834522247, 0.09580667316913605, -0.27051082253456116, -0.004813988693058491, -0.043997034430503845, 0.17939040064811707, 0.11014378815889359, -0.05408526211977005, 0.0684223547577858, 0.02345278300344944, -0.0106471236795187, 0.06183268502354622, 0.10630927234888077, -0.26209160685539246, 0.1264728158712387, -0.42678648233413696, -0.023104701191186905, -0.16072562336921692, -0.05858657881617546, -0.06531674414873123, -0.09661094099283218, 0.02396286465227604, -0.5181898474693298, -0.4356224238872528, 0.0726594626903534, -0.09349167346954346, -0.024025414139032364, -0.20648933947086334, 0.3314892649650574, -0.06916648894548416, 0.11088596284389496, -0.13782300055027008, 0.21279869973659515, -0.11959290504455566, -0.18731141090393066, -0.012320687994360924, -0.048192691057920456, -0.2577087879180908, -0.07066863775253296, 0.004125378094613552, 0.17892320454120636, 0.03176293149590492, 0.17579208314418793, 0.05419160798192024, -0.014804924838244915, 0.005205382127314806, -0.29266706109046936, -0.07325927168130875, -0.0018793958006426692, -0.15233348309993744, -0.24778206646442413, -0.1247742548584938, 0.1963886022567749, 0.06019240617752075, -0.32305485010147095, -0.09314426779747009, -0.0037907271180301905, 0.07739126682281494, -0.04769395291805267, 0.052681826055049896, -0.14617714285850525, -7.499563071178272e-05, 0.07928112149238586, -0.03878198191523552, -0.33899012207984924, 0.20234641432762146, -0.1683005392551422, -0.1138693243265152, 0.2026427686214447, 0.051253970712423325, 0.13298974931240082, -0.06616781651973724, -0.07020310312509537, -0.031460151076316833, 0.16490326821804047, 0.05880066007375717, 0.09351024776697159, -0.013831558637320995, 0.08598905801773071, -0.1969771385192871, 0.09623697400093079, -0.13539980351924896, 0.20305688679218292, -0.08930293470621109, 0.07642285525798798, -0.09510388970375061, 0.24362844228744507, -0.09662608057260513, 0.018752407282590866, -0.29646119475364685, -0.21542125940322876, 0.42367425560951233, 0.2816563546657562, 0.379771888256073, 0.19433990120887756, 0.008523864671587944, -0.06610552221536636, -0.08069057762622833, -0.13555967807769775, -0.012212804518640041, 0.007549164816737175, 0.11577080190181732, 0.048527300357818604, 0.003474201774224639, -0.06547863781452179, 0.037508781999349594, 0.009641203097999096, 0.06919892132282257, 0.06478047370910645, -0.17400066554546356, -0.15041755139827728, 0.17689776420593262, -0.09198520332574844, 0.11184479296207428, 0.03911112621426582, -0.2997117340564728, -0.019417762756347656, -0.25601163506507874, 0.008746140636503696, -0.05849984660744667, -0.22636333107948303, -0.26857587695121765, -0.15612173080444336, -0.02893250435590744, -0.10971622169017792, -0.05546320602297783, -0.008608968928456306, 0.03771800175309181, -0.07648048549890518, 0.13476979732513428, -0.17409387230873108, -0.031337469816207886, -0.3169327676296234, -0.2722635567188263, 0.03819969296455383, -0.035833537578582764, -0.00553633039817214, 0.09435529261827469, 0.197286918759346, -0.21015118062496185, -0.231582373380661, -0.1422751396894455, -0.1612566113471985, -0.045837245881557465, -0.0389266237616539, 0.011402899399399757, -0.07337243854999542, -0.08009526133537292, 0.10532788187265396, -0.11762342602014542, -0.13360744714736938, -0.07204750180244446, -0.09257552027702332, -0.29953986406326294, -0.1468016654253006, 0.17388249933719635, -0.12934118509292603, 0.18100449442863464, -0.38403022289276123, -0.290377140045166, 0.09661190956830978, -0.30952513217926025, -0.11193579435348511, -0.11771822720766068, -0.3396929204463959, 0.2293022722005844, -0.23135916888713837, -0.09074903279542923, 0.2757194936275482, -0.0026613075751811266, 0.2892628610134125, 0.051982320845127106, 0.036030955612659454, 0.04334825277328491, -0.19853395223617554, 0.25373801589012146, -0.045569684356451035, 0.009493914432823658, -0.08450780063867569, 0.22453515231609344, -0.18756620585918427, 0.08632958680391312, 0.013409002684056759, 0.20614145696163177, 0.13503757119178772, 0.03159215673804283, 0.008696540258824825, -0.06966129690408707, -0.06583443284034729, -0.13334830105304718, 0.05747082456946373, 0.13551414012908936, 0.06265793740749359, -0.07148703932762146, -0.05325792729854584, -0.01761755906045437, -0.02961106039583683, 0.20854997634887695, 0.04238533601164818, 0.2889333963394165, -0.12286367267370224, -0.12525030970573425, -0.11598470062017441, -0.3231961131095886, -0.04612305387854576, -0.12613631784915924, 0.2548849284648895, -0.1160205528140068, 0.020352184772491455, -0.2667672634124756, -0.1653202623128891, 0.09597433358430862, -0.021764028817415237, 0.1840464174747467, 0.21773189306259155, 0.07751565426588058, 0.005548362620174885, 0.0038786332588642836, -0.0445416159927845, -0.046133916825056076, -0.040522728115320206, 0.06985185295343399, -0.18206258118152618, -0.06803776323795319, -0.1712479293346405, -0.09883680939674377, 0.1992458552122116, 0.07744675129652023, -0.0027496246621012688, -0.129572331905365, -0.017068732529878616, 0.16596665978431702, 0.09430654346942902, -0.24660636484622955, 0.08938496559858322, 0.3736455738544464, 0.008233574219048023, -0.2711084485054016, 0.20791740715503693, 0.007641969248652458, 0.017767131328582764, -0.2408001571893692, -0.05109657347202301, 0.16893629729747772, 0.18734318017959595, -0.18315133452415466, -0.11641701310873032, 0.13850978016853333, -0.24264387786388397, 0.07913142442703247, -0.33930906653404236, -0.3104461431503296, -0.39715102314949036, 0.44183436036109924, 0.05645384266972542, 0.1339101344347, -0.0912432000041008, -0.0806499794125557, 0.11541339010000229, 0.05411699786782265, -0.11064701527357101, -0.145741268992424, -0.09453817456960678, -0.2459406554698944, 0.0255717895925045, -0.013594768941402435, -0.13920509815216064, -0.12435083091259003, -0.13369394838809967, -0.1769414097070694, -0.2862391471862793, 0.03000105358660221, -0.02422969974577427, -0.013071044348180294, 0.08529417216777802, -0.297573059797287, 0.013689065352082253, -0.030875200405716896, -0.2535911202430725, -0.03354522958397865, 0.002954078372567892, 0.07773900777101517, 0.3377872109413147, -0.10363055020570755, 0.29023921489715576, 0.20574304461479187, 0.2755609452724457, -0.11764464527368546, 0.020182272419333458, -0.041017401963472366, 0.44875627756118774, -0.004802895709872246, -0.01895584538578987, 0.022918930277228355, 0.04787997156381607, -0.05110393837094307, 0.07141325622797012, -0.08131344616413116, -0.10555374622344971, 0.26209568977355957, -0.05026865750551224, -0.03449785336852074, -0.029822757467627525, -0.21574358642101288, 0.013173985294997692, 0.05698075890541077, -0.024781612679362297, -0.2292851060628891, -0.24465619027614594, -0.08961845189332962, -0.043178170919418335, 0.17814111709594727, -0.09227363020181656, 0.18380360305309296, -0.25149813294410706, 0.20223845541477203, 0.12245380133390427, 0.11632294952869415, 0.17186415195465088, -0.0893758088350296, 0.1907612830400467, -0.07105459272861481, 0.21468739211559296, 0.004359585233032703, 0.021249927580356598, -0.005738356150686741, 0.05422687157988548, 0.10014836490154266, 0.16779811680316925, -0.043015871196985245, 0.16088204085826874, 0.07141844928264618, 0.13460557162761688, 0.31599485874176025, 0.15737026929855347, -0.07770760357379913, 0.24241669476032257, -0.24522536993026733, -0.0005037658847868443, 0.060666609555482864, -0.27707982063293457, -0.04530838504433632, 0.2404164969921112, 0.22258442640304565, 0.3569397032260895, -0.07130326330661774, 0.031048065051436424, -0.32397904992103577, 0.09876491129398346, -0.15794715285301208, -0.14953066408634186, -0.06910818815231323, -0.19438716769218445, 0.11998020112514496, 0.16996683180332184, -0.5765525698661804, -0.08213798701763153, 0.13553985953330994, -0.08185315877199173, 0.01722441427409649, -0.3815077245235443, -0.1126011535525322, -0.11722948402166367, 0.1872328221797943, -0.3829899728298187, -0.015260094776749611, 0.24153636395931244, 0.22132179141044617, -0.005446221679449081, -0.07387349009513855, -0.10771685838699341, 0.07225669920444489, 0.05109640583395958, 0.10568761825561523, -0.0019754653330892324, 0.08466042578220367, 0.05328233912587166, -0.04793680086731911, 0.02971283718943596, 0.08370508253574371, -0.3107972741127014, -0.059255219995975494, 0.16721805930137634, -0.05969885364174843, -0.06590074300765991, -0.00014240409655030817, -0.1468706876039505, 0.018710559234023094, -0.065364770591259, -0.24606160819530487, -0.08694331347942352, -0.09274531900882721, 0.14968928694725037, 0.1638309508562088, -0.07702494412660599, 0.11660986393690109, 0.10417677462100983, 0.015889959409832954, -0.05451769381761551, 0.03933422267436981, -0.21111154556274414, -0.11273606866598129, -0.04013630375266075, 0.06859643012285233, -0.012718687765300274, -0.14788052439689636, -0.09370142221450806, -0.18863441050052643, 0.05394108220934868, -0.023304574191570282, 0.19689129292964935, -0.10754016041755676, -0.3253447711467743, 0.13824106752872467, -6.380459672072902e-05, 0.29339084029197693, -0.1864016354084015, 0.13163551688194275, 0.1051376610994339, 0.04360486567020416, -0.03219502046704292, 0.08138041198253632, -0.024729549884796143, 0.10084836184978485, -0.03762057423591614, 0.07021092623472214, 0.12574400007724762, 0.07030247896909714, -0.12911391258239746, -0.06864897161722183, 0.18231309950351715, 0.024449897930026054, 0.060932036489248276, 0.028153197839856148, -0.07642678171396255, 0.26422789692878723, -0.09286902099847794, -0.002858655294403434, -0.20545125007629395, -0.06124933809041977, -0.034361377358436584, -0.10001364350318909, 0.08086138218641281, -0.14648251235485077, -0.0358271449804306, -0.13175958395004272, 0.061444614082574844, -0.060842111706733704, -0.1814081221818924, 0.09327873587608337, 0.01971789076924324, 0.2989274263381958, 0.24632100760936737, 0.04488861933350563, -0.1737687736749649, 0.060625795274972916, -0.21375735104084015, 0.20516330003738403, -0.1279529184103012, 0.08341186493635178, -0.06414370238780975, 0.31804344058036804, -0.09179247915744781, 0.19142650067806244, -0.05771952122449875, 0.02868025191128254, -0.18234659731388092, 0.030759532004594803, -0.02114364691078663, -0.06494473665952682, 0.3511059582233429, 0.09436553716659546, 0.20589275658130646, 0.2093106210231781, -0.18708889186382294, -0.0390361025929451, -0.08589830249547958, -0.3408409357070923, 0.25696587562561035, -0.015992240980267525, -0.3405454754829407, 0.20723506808280945, 0.18574589490890503, 0.19846509397029877, -0.20430219173431396, -0.25570616126060486, 0.3617081046104431, -0.10085070133209229, 0.24536266922950745, 0.1009468138217926, -0.02128187194466591, -0.03979850932955742, -0.18455319106578827, -0.030432306230068207, -0.13423728942871094, -0.16172394156455994, -0.24457696080207825, 0.37740010023117065, -0.1960301250219345, -0.2774788737297058, 0.27692079544067383, 0.10261623561382294, -0.046977926045656204, 0.4897974729537964, 0.045643400400877, 0.1831437647342682, 0.08740198612213135, -0.13197746872901917, 0.16872182488441467, 0.03457392007112503, 0.1498546302318573, 0.1213173195719719, -0.23038646578788757, -0.021687541157007217, 0.35666948556900024, 0.023700926452875137, -0.2161071002483368, 0.04116007685661316, -0.08044397085905075, 0.05059102550148964, 0.009643332101404667, -0.07194474339485168, -0.3183852732181549, 0.13983602821826935, 0.31233012676239014, 0.2788536548614502, -0.1744425892829895, 0.47737300395965576, 0.11255323141813278, -0.09147471189498901, 0.02983548678457737, 0.1408720314502716, -0.07313279062509537, -0.1349102109670639, -0.13746576011180878, 0.10400299727916718, -0.3832165002822876, 0.14842739701271057, -0.10093072801828384, -0.3704069256782532, 0.03806300461292267, -0.36844685673713684, 0.014604685828089714, -0.03238125145435333, 0.06779254972934723, 0.06720133870840073, -0.16959352791309357, 0.29855310916900635, -0.10457202792167664, 0.005210911855101585, -0.019460245966911316, 0.05665897950530052, 0.008403555490076542, -0.30549752712249756, 0.028531529009342194, 0.03599472716450691, 0.04529103264212608, -0.2893701493740082, 0.1341361552476883, 0.3181114196777344, 0.03448548540472984, -0.07746528089046478, 0.26637759804725647, 0.030177781358361244, 0.0089722303673625, -0.23953129351139069, 0.2663944661617279, 0.02775626629590988, -0.030257143080234528, 0.08417659252882004, 0.06761141121387482, 0.11268990486860275, -0.15175919234752655, -0.007813859730958939, 0.058665405958890915, -0.02131650038063526, -0.1816587597131729, -0.21583645045757294, -0.06546706706285477, -0.09593053162097931, -0.02751867100596428, 0.08752743154764175, -0.1115555688738823, 0.001630457816645503, -0.01572859100997448, -0.0461919941008091, 0.024994228035211563, -0.1260015070438385, -0.17081217467784882, -0.022561050951480865, -0.05124833434820175, -0.18412670493125916, -0.10173642635345459, 0.15311060845851898, -0.08198083192110062, -0.1724032312631607, 0.26566457748413086, -0.14331305027008057, 0.007048170547932386, -0.21730585396289825, 0.02688121795654297, 0.27700138092041016, -0.13844303786754608, -0.11558172851800919, 0.16568490862846375, -0.022343890741467476, 0.06924599409103394, -0.0097932955250144, 0.07030875235795975, 0.07260748744010925, -0.13981200754642487, 0.03745248168706894, -0.09694820642471313, 0.04416060447692871, -0.030094530433416367, 0.045634109526872635, 0.1601383239030838, -0.08241964876651764, -0.2055976390838623, -0.424151211977005, -0.11361820250749588, 0.07184179872274399, -0.2690388858318329, 0.16710719466209412, -0.2840662896633148, -0.06962702423334122, -0.24407941102981567, -0.18407462537288666, -0.1460365206003189, -0.02536732889711857, -0.22870783507823944, 0.2988024055957794, 0.19269683957099915, 0.042181748896837234, -0.004646476823836565, -0.048004936426877975, 0.16548703610897064, -0.24531607329845428, 0.14691010117530823, 0.1703415960073471, -0.18467946350574493, -0.26462221145629883, -0.28101086616516113, 0.24172449111938477, 0.002794795436784625, -0.09478943049907684, 0.15643642842769623, 0.03280112147331238, 0.18003784120082855, 0.07460243999958038, 0.34342461824417114, 0.12345235794782639, 0.14871156215667725, -0.04822379723191261, 0.15388721227645874, -0.06326699256896973, -0.015661589801311493, -0.1223689466714859, -0.33148398995399475, 0.0920526385307312, -0.04608337581157684, 0.03135968744754791, -0.3624263107776642, -0.4033854603767395, 0.3243132531642914, 0.22210152447223663, -0.055262692272663116, 0.17482221126556396, 0.16863246262073517, 0.09084422886371613, 0.2196386158466339, 0.1686963140964508, -0.16249316930770874, -0.29502153396606445, -0.16852335631847382, -0.1352614462375641, -0.4698407053947449, -0.07815302163362503, 0.18729931116104126, -0.11004041135311127, 0.06599656492471695, -0.27347323298454285, -0.10975334048271179, -0.11819624155759811, -0.16881929337978363, 0.07749126106500626, -0.19041046500205994, 0.32448717951774597, -0.08370279520750046, -0.09176620841026306, -0.17665374279022217, 0.020982783287763596, 0.29833728075027466, -0.13676030933856964, 0.07679888606071472, 0.35020315647125244, 0.04454520344734192, -0.3190903663635254, 0.30837297439575195, -0.01534202415496111, 0.07917384803295135, 0.3037264347076416, 0.15365678071975708, 0.1564318686723709, -0.3580920994281769, -0.058911535888910294, -0.15655720233917236, 0.029140960425138474, -0.2201540172100067, -0.04114515334367752, 0.03713982179760933, 0.0031623828690499067, -0.13951022922992706, 0.0065497043542563915, 0.19651846587657928, 0.05219190940260887, 0.05048681050539017, -0.13773854076862335, -0.024162746965885162, 0.017905090004205704, -0.09551101922988892, 0.025214381515979767, -0.06129806488752365, 0.08639662712812424, 0.008747554384171963, 0.17310847342014313, 0.08960773795843124, 0.256777822971344, -0.40812137722969055, -0.01792839542031288, 0.2009136825799942, -0.020046597346663475, 0.009019875898957253, 0.20886513590812683, 0.1709061563014984, -0.027388760820031166, -0.13305328786373138, -0.38841143250465393, -0.533581554889679, 0.14785996079444885, 0.2708597779273987, 0.22410301864147186, -0.06820584088563919, 0.012666566297411919, -0.026990273967385292, 0.0982758179306984, 0.11744727194309235, 0.034823883324861526, 0.011550767347216606, 0.0865931585431099, 0.11016029864549637, -0.1732615977525711, 0.17547839879989624, 0.2135709673166275, -0.08096452057361603, 0.5213832259178162, -0.26030176877975464, 0.16289342939853668, 0.0942770391702652, 0.16021937131881714, 0.0897931456565857, 0.05955788120627403, 0.23372118175029755, -0.17196539044380188, -0.17557218670845032, 0.2260124236345291, 0.3385806083679199, -0.08752047270536423, 0.09960106760263443, -0.32004284858703613, -0.14068828523159027, 0.045218855142593384, -0.37896528840065, -0.18849875032901764, 0.13869750499725342, -0.05183815956115723, -0.2535386383533478, -0.22664082050323486, 0.06349736452102661, 0.040916118770837784, -0.06917291134595871, -0.02289329469203949, 0.017716972157359123, -0.01889718510210514, 0.010247880592942238, -0.05730462446808815, -0.056499943137168884, 0.27967455983161926, 0.22559981048107147, 0.10778741538524628, 0.22702670097351074, 0.07627646625041962, -0.03889508172869682, -0.05546720325946808, 0.15412747859954834, 0.06926766037940979, -0.23004750907421112, -0.27750808000564575, -0.07362794131040573, 0.18616898357868195, -0.1279798448085785, -0.25570839643478394, -0.13608574867248535, -0.05442695692181587, -0.10158926248550415, -0.09224704653024673, -0.1793818175792694, 0.13144245743751526, 0.16858400404453278, 0.09489304572343826, -0.26411572098731995, 0.12728899717330933, -0.011029759421944618, 0.08288341015577316, -0.27606138586997986, 0.06867731362581253, 0.10910508036613464, -0.061342284083366394, -0.054991867393255234, 0.09253622591495514, 0.1273854374885559, -0.07924913614988327, -0.1632692664861679, 0.05585528910160065, -0.040452633053064346, 0.09595602005720139, -0.052054569125175476, -0.0045068576000630856, -0.13194596767425537, -0.10667891055345535, -0.14297950267791748, 0.264935702085495, -0.003882280085235834, -0.02207094430923462, -0.2675507366657257, 0.3534097969532013, 0.17896290123462677, 0.3865267038345337, 0.12267901748418808, 0.339682012796402, 0.14198485016822815, 0.09328742325305939, 0.04786072298884392, 0.23962225019931793, -0.05089808627963066, 0.12072457373142242, -0.022927649319171906, 0.023186955600976944, 0.10129869729280472, 0.11592523753643036, 0.1498168557882309, 0.014110738411545753, 0.010500258766114712, 0.11786533147096634, 0.05847400426864624, -0.131232351064682, 0.23409686982631683, 0.02593902312219143, 0.09708469361066818, -0.27749866247177124, -0.1859375536441803, -0.03739965707063675, 0.042742565274238586, 0.0836615189909935, 0.10810744017362595, 0.03614457696676254, -0.2376139760017395, -0.20380739867687225, 0.2594759166240692, 0.19974881410598755, -0.07316666096448898, -0.21714237332344055, 0.09987656027078629, -0.07698211073875427, 0.008532052859663963, 0.056766360998153687, -0.030987532809376717, -0.05957874655723572, -0.17837950587272644, -0.0780089870095253, 0.22443455457687378, -0.33988040685653687, 0.2633703947067261, -0.20384345948696136, 0.13770420849323273, -0.00528161833062768, 0.14451991021633148, 0.04526478424668312, 0.06234438344836235, 0.138559952378273, -0.1783347725868225, 0.14098361134529114, 0.056688182055950165, 0.021750522777438164, 0.06862857192754745, -0.1801908016204834, 0.025682499632239342, -0.09396874159574509, -0.15704345703125, -0.31879907846450806, -0.026778487488627434, -0.17802618443965912, 0.2504558861255646, -0.3299088776111603, -0.19935745000839233, 0.2985520362854004, -0.08122584223747253, -0.2309129685163498, 0.11316575109958649, 0.20225459337234497, 0.064797542989254, -0.15954391658306122, -0.11094005405902863, -0.0073641701601445675, 0.2033955156803131, 0.11938570439815521, 0.04626532644033432, -0.044132642447948456, -0.1834615170955658, 0.034782279282808304, 0.1772073358297348, 0.13947443664073944, 0.17030425369739532, 0.35628727078437805, -0.2764514684677124, 0.112730972468853, 0.03245633468031883, -0.15500909090042114, 0.07059668749570847, -0.1412932127714157, -0.22135363519191742, -0.22818662226200104, 0.09685153514146805, -0.08159805089235306, 0.022927237674593925, 0.16680186986923218, 0.13451288640499115, -0.15903893113136292, 0.20953194797039032, -0.23738980293273926, 0.294284462928772, -0.17782378196716309, -0.028968429192900658, -0.238966703414917, 0.21272572875022888, -0.21662145853042603, 0.2817964255809784, -0.03805498406291008, -0.1697034388780594, -0.16839806735515594, 0.25303804874420166, 0.026465648785233498, -0.02031736820936203, -0.09413169324398041, -0.08443382382392883, 0.030923331156373024, 0.18137750029563904, -0.347786009311676, 0.4160289168357849, 0.0201516542583704, 0.16999931633472443, -0.3067173957824707, -0.014557089656591415, 0.03432340547442436, 0.04375982657074928, 0.18528257310390472, 0.25085511803627014, -0.023653583601117134, -0.041432224214076996, 0.08336114138364792, 0.033569980412721634, -0.41595911979675293, -0.01880006119608879, 0.05652983859181404, -0.4032389223575592, 0.09163466095924377, 0.098811574280262, 0.37068042159080505, 0.24195532500743866, 0.08733709156513214, 0.04424137622117996, 0.11054987460374832, 0.28777745366096497, -0.013483785092830658, 0.2581561505794525, 0.13443808257579803, -0.01738092117011547, 0.005809068214148283, 0.048486970365047455, 0.06315786391496658, 0.19592326879501343, -0.16347454488277435, 0.12592187523841858, 0.029843710362911224, 0.09401276707649231, 0.0291894543915987, -0.255691796541214, -0.18956194818019867, 0.2755693793296814, -0.010951005853712559, 0.28600040078163147, 0.004026948008686304, 0.10563262552022934, -0.05491141974925995, 0.03182448074221611, 0.068189837038517, -0.05800776556134224, -0.19412924349308014, 0.059854697436094284, 0.10885348916053772, -0.06719733029603958, -0.39863261580467224, 0.1741245687007904, 0.07358131557703018, -0.027827322483062744, 0.019471535459160805, 0.19873788952827454, 0.2727341949939728, -0.11007559299468994, 0.2576453387737274, 0.02533484622836113, -0.19288551807403564, 0.04382754862308502, 0.009344345889985561, -0.23042549192905426, -0.0521569699048996, 0.11707473546266556, -0.3871009051799774, 0.130900576710701, 0.11711784452199936, 0.0786939263343811, -0.24758058786392212, -0.055886588990688324, -0.16439972817897797, 0.0008096325327642262, -0.14397569000720978, 0.016356952488422394, -0.14711251854896545, 0.09507399797439575, 0.01841587945818901, 0.0649983137845993, -0.059948090463876724, -0.12551498413085938, 0.30832746624946594, 0.028294958174228668, 0.11512237787246704, 0.08240821212530136, 0.1428433358669281, 0.14451201260089874, -0.07357776165008545, 0.10042738914489746, 0.2520902156829834, 0.021311620250344276, -0.06155717372894287, 0.07117561995983124, 0.08370332419872284, 0.31398794054985046, -0.0024566790089011192, 0.11541822552680969, 0.021709956228733063, 0.2585184574127197, 0.014430335722863674, -0.026668328791856766, -0.054317545145750046, 0.018393827602267265, -0.020241500809788704, -0.2131262868642807, -0.29688021540641785, 0.10235832631587982, -0.17712529003620148, -0.07116454094648361, 0.15289746224880219, -0.22307293117046356, -0.01925300434231758, -0.28101852536201477, -0.061223313212394714, 0.07121281325817108, 0.15738488733768463, -0.18470171093940735, 0.029027247801423073, 0.21267981827259064, 0.08005786687135696, 0.00709099555388093, 0.15856486558914185, 0.09092099964618683, 0.23002204298973083, -0.031132802367210388, 0.1335401087999344, -0.12795864045619965, -0.07283618301153183, 0.055820927023887634, 0.12578125298023224, 0.26057296991348267, 0.20449282228946686, -0.034333426505327225, 0.2775445580482483, 0.11500721424818039, -0.1426086574792862, 0.20318450033664703, -0.05635429546236992, 0.14336706697940826, -0.2920343279838562, 0.007093329448252916, -0.04543597996234894, 0.3224685490131378, 0.009578346274793148, 0.05438051372766495, -0.11862002313137054, 0.16443413496017456, -0.1433870792388916, -0.1811862289905548, -0.22681479156017303, 0.19584384560585022, -0.042009178549051285, 0.03977057337760925, -0.1921566277742386, -0.0826946422457695, -0.02601703442633152, -0.12301387637853622, 0.027563324198126793, 0.2940616309642792, 0.09337139874696732, -0.12474977970123291, -0.22582067549228668, -0.015213080681860447, -0.05137568339705467, 0.12238523364067078, -0.10889896750450134, 0.10265076905488968, 0.2054240107536316, 0.05737556517124176, -0.09015180915594101, -0.0848766416311264, 0.10538636893033981, 0.03544912114739418, -0.005746685434132814, 0.28434592485427856, 0.05595327913761139, -0.008241960778832436, 0.01202832255512476, -0.06861040741205215, 0.08266974240541458, 0.0033098082058131695, -0.01779203861951828, -0.13953183591365814, 0.17916706204414368, -0.06510140746831894, 0.13145811855793, -0.21170803904533386, -0.12364190816879272, 0.37866321206092834, -0.13380493223667145, -0.13994988799095154, 0.04386173561215401, 0.1282336413860321, 0.17792552709579468, 0.28310132026672363, -0.10566388815641403, 0.08378159999847412, -0.044846322387456894, 0.07917900383472443, -0.5029146075248718, -0.11785659193992615, 0.39781653881073, -0.1010352373123169, -0.35064756870269775, -0.17201198637485504, 0.22404368221759796, 0.06830719858407974, -0.13081416487693787, -0.08296772092580795, 0.08730164915323257, 0.1822318732738495, -0.013851777650415897, 0.2585000991821289, -0.08943794667720795, 0.16657637059688568, 0.21240541338920593, 0.14361710846424103, -0.006615447346121073, 0.007883661426603794, -0.056546010076999664, -0.0585525780916214, -0.022807694971561432, -0.17112544178962708, -0.1313907504081726, -0.06303318589925766, 0.03638977184891701, 0.00952216237783432, 0.05679221823811531, 0.27792972326278687, -0.08026664704084396, 0.05882992222905159, 0.07063731551170349, -0.06843050569295883, 0.13057072460651398, -0.06306234747171402, -0.09898485988378525, 0.09339258074760437, -0.046326108276844025, 0.1594691276550293, 0.04258925840258598, 0.27345675230026245, -0.20370066165924072, 0.10391786694526672, -0.23158791661262512, 0.2934470772743225, -0.11298639327287674, -0.2736627161502838, 0.23332014679908752, 0.21351277828216553, -0.15422233939170837, 0.002719354582950473, -0.012793089263141155, 0.21440976858139038, 0.08003788441419601, -0.11322895437479019, -0.3422759473323822, -0.23837025463581085, -0.043412018567323685, 0.2454911172389984, 0.16089420020580292, -0.1730736494064331, 0.17939910292625427, 0.17001713812351227, 0.06424686312675476, -0.058969005942344666, -0.08241316676139832, 0.31682389974594116, 0.20951363444328308, 0.04357078671455383, -0.06544551253318787, -0.0575353167951107, -0.12720152735710144, -0.13331331312656403, -0.13205543160438538, 0.006433852948248386, -0.01193306501954794, -0.012683580629527569, 0.0161720160394907, 0.3578803837299347, 0.508738100528717, 0.006377031560987234, 0.31548985838890076, -0.1637844443321228, -0.17743822932243347, -0.15543022751808167, 0.34985777735710144, -0.28330108523368835, -0.11070519685745239, 0.3453854024410248, -0.31561654806137085, -0.2205624282360077, -0.08593502640724182, -0.06292694807052612, 0.1032429188489914, -0.1196119412779808, -0.06907999515533447, 0.16282372176647186, 0.041650108993053436, 0.10400000959634781, 0.03480074927210808, 0.0628882497549057, 0.04640968516469002, 0.054037999361753464, -0.04709213972091675, 0.06912776827812195, -0.05070476606488228, -0.006352049298584461, 0.05805570259690285, 0.02629494108259678, -0.06306996196508408, 0.015890173614025116, -0.08201085776090622, 0.05942457169294357, -0.11092153936624527, -0.02008669637143612, -0.11808997392654419, 0.042941316962242126, -0.27773985266685486, -0.2772587537765503, 0.08733124285936356, 0.13549409806728363, -0.11882143467664719, 0.23899775743484497, -0.11225617676973343, 0.2554652690887451, -0.2779216468334198, -0.041849568486213684, 0.031244702637195587, -0.06092449650168419, 0.3315558433532715, 0.03096803091466427, -0.16119618713855743, -0.08498861640691757, -0.1139708012342453, -0.3411423861980438, 0.06272369623184204, 0.04342227056622505, -0.4850570559501648, -0.19097068905830383, 0.3247222304344177, 0.28537634015083313, 0.04360375925898552, -0.19230394065380096, 0.29702088236808777, -0.11881796270608902, -0.0691520944237709, 0.20262499153614044, 0.0977214127779007, 0.0438108891248703, -0.18654754757881165, -0.2628704607486725, -0.0430268719792366, -0.014677676372230053, -0.09259385615587234, 0.1106710433959961, 0.00950776319950819, -0.12896332144737244, 0.29628896713256836, 0.16021862626075745, -0.054959770292043686, -0.22116558253765106, -0.01800980232656002, -0.15690739452838898, -0.24302631616592407, -0.1489308476448059, -0.08386369049549103, -0.02941828966140747, 0.29219868779182434, 0.3162402808666229, 0.19712741672992706, 0.1481943428516388, 0.06323231011629105, -0.1715969443321228, 0.2740404009819031, -0.17897258698940277, 0.04206632077693939, 0.235704705119133, -0.03746771812438965, 0.14508859813213348, 0.12856894731521606, -0.12358589470386505, -0.10674283653497696, -0.033306270837783813, 0.05331289395689964, 0.45708855986595154, -0.3396274149417877, 0.04696854203939438, -0.14731673896312714, 0.07720977067947388, -0.1487809419631958, -0.26265645027160645, -0.1042972281575203, 0.024715131148695946, 0.0039034169167280197, -0.11142360419034958, 0.14244559407234192, 0.06218578293919563, 0.1391986608505249, -0.24883699417114258, 0.16028118133544922, 0.008883294649422169, 0.04325380176305771, -0.06836223602294922, 0.0448283851146698, 0.0550430491566658, 0.12025360018014908, 0.141415074467659, -0.032211750745773315, 0.06690943241119385, -0.10208811610937119, -0.1627652943134308, -0.025782685726881027, -0.07982419431209564, -0.174844428896904, -0.19128082692623138, -0.036343224346637726, 0.2955697476863861, 0.09397071599960327, 0.053065117448568344, 0.018551064655184746, 0.008865885436534882, 0.09410851448774338, -0.17203767597675323, 0.22506201267242432, -0.10815783590078354, -0.169944629073143, 0.30368706583976746, -0.10908281058073044, 0.19938237965106964, 0.3342202603816986, -0.0933874249458313, 0.22621284425258636, -0.12341930717229843, 0.27444005012512207, -0.16622264683246613, -0.1296394020318985, -0.15954792499542236, -0.11452267318964005, 0.033150531351566315, -0.05319512262940407, -0.06671657413244247, -0.04350933060050011, 0.18804658949375153, 0.08283265680074692, 0.08881120383739471, -0.37184959650039673, -0.047503869980573654, -0.14755725860595703, 0.004392913542687893, 0.16067081689834595, 0.03163794055581093, -0.101362444460392, 0.18600080907344818, -0.4025425910949707, 0.0128091499209404, 0.1002061739563942, -0.3155566155910492, 0.009769827127456665, 0.13599495589733124, -0.008496131747961044, 0.1366967260837555, 0.029625969007611275, 0.17544682323932648, -0.0522911436855793, -0.09658873081207275, 0.34262868762016296, -0.1793273389339447, -0.27780595421791077, -0.13475365936756134, -0.06702958047389984, -0.025972919538617134, 0.35773032903671265, -0.12993179261684418, 0.13974426686763763, -0.1414513736963272, -0.5434122085571289, -0.27351316809654236, -0.11066585779190063, 0.1376592218875885, -0.3252381980419159, -0.12332281470298767, -0.09924323111772537, 0.15402759611606598, -0.12856201827526093, -0.02300446480512619, -0.1548401266336441, -0.2847749888896942, 0.14019852876663208, 0.03118482232093811, -0.16635455191135406, 0.007138961460441351, 0.07388041168451309, 0.00622180663049221, -0.2251216173171997, 0.053577762097120285, -0.07141214609146118, 0.2196519523859024, 0.036362651735544205, 0.052899014204740524, 0.16268642246723175, -0.45573851466178894, 0.02751293033361435, 0.18379858136177063, 0.19281186163425446, 0.17766501009464264, 0.2450668215751648, 0.08117996901273727, 0.324867844581604, 0.3335542678833008, -0.24751316010951996, 0.302134245634079, 0.15608207881450653, 0.19618047773838043, -0.07285986095666885, -0.10918885469436646, -0.05069804564118385, -0.021778177469968796, -0.07956650853157043, -0.29651883244514465, 0.0040689194574952126, -0.09288225322961807, 0.08935309946537018, -0.025999827310442924, -0.10358056426048279, 0.008475003764033318, 0.27537181973457336, -0.14158931374549866, -0.23564767837524414, 0.09256666153669357, 0.060928888618946075, -0.09026581048965454, 0.2169870287179947, 0.19098074734210968, -0.1398310512304306, 0.3361000716686249, 0.1770717054605484, -0.15783894062042236, -0.20891080796718597, 0.02995709702372551, 0.20586663484573364, -0.3780846893787384, 0.026563258841633797, 0.07304514199495316, -0.25314128398895264, -0.07497534155845642, 0.04001666232943535, 0.21827520430088043, -0.04705742374062538, -0.10955414175987244, -0.08318133652210236, 0.2629164457321167, 0.02378767542541027, -0.13307403028011322, -0.09144292026758194, -0.05514577031135559, 0.0213068388402462, -0.07616127282381058, -0.17424547672271729, -0.25939980149269104, -0.16463665664196014, -0.04254557564854622, 0.19278539717197418, -0.20954550802707672, -0.3195575177669525, -0.1580738127231598, 0.26250264048576355, 0.19041529297828674, 0.18893086910247803, -0.04325202479958534, -0.0604487881064415, -0.043517373502254486, -0.15184849500656128, -0.05142143741250038, -0.253744900226593, 0.027731744572520256, -0.12616753578186035, -0.12046599388122559, 0.23496870696544647, 0.1546739786863327, 0.11173395067453384, 0.07535874098539352, -0.250842809677124, -0.06321138888597488, -0.22071197628974915, -0.025509772822260857, -0.05442811921238899, -0.412015825510025, -0.13853485882282257, 0.30519899725914, -0.2017047107219696, 0.0458378791809082, -0.16917948424816132, 0.056234441697597504, -0.46743977069854736, -0.12488273531198502, 0.08967485278844833, -0.3097122013568878, 0.3183284401893616, 0.04457402601838112, -0.07845883816480637, 0.07183673977851868, 0.23514272272586823, 0.034199487417936325, 0.15349428355693817, -0.3429405987262726, 0.11037372797727585, -0.05280780419707298, -0.18370205163955688, -0.09809936583042145, -0.36158034205436707, 0.17894597351551056, -0.06454532593488693, -0.1484231799840927, 0.34387901425361633, 0.22401607036590576, 0.22171162068843842, 0.07325384020805359, -0.16291789710521698, -0.19165827333927155, 0.4354304373264313, 0.1562856137752533, -0.1420305371284485, 0.20872862637043, 0.5183565616607666, -0.060474276542663574, 0.16366459429264069, 0.3728483319282532, -0.25540733337402344, -0.17042650282382965, -0.25209367275238037, -0.23124338686466217, -0.10566729307174683, 0.34756749868392944, -0.0919368639588356, 0.3253138065338135, 0.15943238139152527, -0.19729016721248627, -0.08884142339229584, 0.344340980052948, 0.3574077785015106, 0.10617100447416306, 0.0676364153623581, -0.110141322016716, -0.14209020137786865, -0.0003768187598325312, 0.1191113293170929, 0.13774286210536957, -0.05616907402873039, -0.3470354974269867, -0.14932678639888763, 0.02639862895011902, 0.06526006013154984, -0.0445420928299427, 0.3234389126300812, 0.012772061862051487, 0.41278132796287537, 0.1476232260465622, -0.11830488592386246, -0.04660101607441902, 0.03581373766064644, -0.052533529698848724, -0.13763901591300964, -0.28124356269836426, -0.11837746948003769, 0.11511603742837906, 0.053649526089429855, -0.11349424719810486, 0.07234540581703186, -0.3279275894165039, 0.4247256815433502, 0.1106015220284462, -0.12973260879516602, 0.11923540383577347, 0.06752719730138779, 0.21264007687568665, 0.08954209834337234, -0.003661617636680603, 0.40067970752716064, -0.046874742954969406, -0.11432445049285889, 0.0499471016228199, -0.04545547068119049, 0.0024917020928114653, -0.0005192462122067809, -0.005008639767765999, 0.031146813184022903, 0.36046165227890015, 0.17019571363925934, 0.1551695615053177, 0.373610258102417, -0.03461446240544319, -0.19916631281375885, -0.2054341733455658, 0.20966841280460358, -0.1934412270784378, -0.27939143776893616, -0.22805732488632202, -0.12964943051338196, 0.08403485268354416, -0.04755224660038948, -0.23369431495666504, -0.15680617094039917, -0.20129385590553284, -0.2881097197532654, 0.09540294855833054, -0.01531684398651123, -0.03425963222980499, -0.056169889867305756, -0.2181318700313568, 0.02551974356174469, -0.09438163787126541, -0.3710325360298157, 0.21803605556488037, 0.031068310141563416, 0.17672553658485413, -0.16345885396003723, -0.044477976858615875, -0.31586840748786926, -0.20573101937770844, -0.13957199454307556, -0.1358499825000763, 0.19035755097866058, 0.0936545804142952, -0.27272215485572815, 0.21137654781341553, -0.19175726175308228, -0.19643661379814148, -0.00518398080021143, 0.43594980239868164, -0.03306829556822777, -0.13962054252624512, -0.08849520981311798, 0.22087274491786957, -0.12036500871181488, 0.05353756248950958, 0.15214771032333374, 0.015081329271197319, 0.1925797313451767, 0.34607285261154175, -0.31245946884155273, -0.02090460993349552, 0.10113929212093353, -0.15029965341091156, -0.08353716880083084, -0.19270442426204681, 0.08736773580312729, -0.005500274244695902, 0.17593781650066376, 0.21799486875534058, 0.01864725351333618, 0.07437781244516373, -0.18900009989738464, 0.035487402230501175, -0.3489534556865692, 0.2689506411552429, 0.1970169097185135, 0.21128042042255402, 0.04466606304049492, 0.016903754323720932, 0.020317520946264267, -0.1251782774925232, -0.05588136240839958, -0.05028575658798218, 0.02494927868247032, -0.008577335625886917, 0.23971743881702423, 0.14801491796970367, 0.30128660798072815, 0.042274076491594315, -0.201239213347435, -0.1853700429201126, -0.1896340250968933, -0.02223457582294941, 0.08912625163793564, -0.1657090038061142, -0.2993122339248657, -0.08717288821935654, -0.19323401153087616, 0.058569688349962234, -0.022715136408805847, 0.009429290890693665, 0.0016377000138163567, -0.10807003825902939, -0.1918545663356781, 0.09603404253721237, -0.25057247281074524, -0.09148881584405899, -0.007919620722532272, -0.050638627260923386, -0.20812202990055084, -0.19614650309085846, -0.3420684039592743, 0.3330637812614441, -0.017634522169828415, -0.19397370517253876, -0.10765670984983444, -0.053931403905153275, 0.17946061491966248, -0.16464091837406158, -0.02428799867630005, -0.2676272392272949, 0.04807097837328911, -0.13952183723449707, -0.3147296607494354, -0.1410277634859085, 0.3837827742099762, -0.22632914781570435, -0.05342477560043335, -0.2587725520133972, -0.1491444706916809, -0.17169009149074554, 0.4345055818557739, -0.0646805688738823, 0.055255383253097534, 0.06269818544387817, -0.19284585118293762, 0.08706764131784439, -0.1029888391494751, 0.039431579411029816, 0.134019136428833, 0.08466922491788864, 0.23833349347114563, 0.10802550613880157, -0.08711189031600952, 0.29761630296707153, 0.2490549087524414, 0.1801607459783554, 0.16199462115764618, 0.15719042718410492, 0.2624211013317108, -0.04504263401031494, 0.1864926517009735, -0.020184600725769997, -0.07025835663080215, 0.16017603874206543, 0.22676663100719452, -0.03762955218553543, 0.0567154698073864, 0.12272672355175018, -0.030216185376048088, 0.02141326293349266, -0.10185827314853668, 0.01608891785144806, -0.05843399837613106, 0.060202356427907944, 0.054977159947156906, 0.20087040960788727, -0.06987128406763077, -0.20507781207561493, -0.030692340806126595, -0.13702373206615448, -0.046675946563482285, -0.09550707787275314, 0.1025867685675621, -0.04727736487984657, -0.3411358594894409, 0.09329770505428314, 0.19013750553131104, 0.10104548931121826, 0.2232397049665451, 0.12157410383224487, -0.12807324528694153, -0.011011382564902306, 0.008488909341394901, 0.10042304545640945, 0.13573279976844788, 0.11248257756233215, 0.07738982886075974, -0.04506662115454674, -0.08215396106243134, 0.08853989094495773, 0.430156409740448, 0.022421078756451607, 0.09631109237670898, -0.07785683125257492, -0.03133704513311386, 0.15108846127986908, -0.17019914090633392, -0.47773462533950806, -0.011336972005665302, 0.1822713017463684, 0.0506649911403656, 0.04612679034471512, -0.14330287277698517, 0.02913779765367508, -0.371931254863739, -0.20697003602981567, 0.03630615770816803, 0.05137500539422035, -0.07628767192363739, -0.05102306231856346, -0.22564440965652466, 0.1621484011411667, 0.05589199811220169, -0.13469381630420685, -0.13373441994190216, -0.3565816879272461, 0.2196318358182907, 0.3420059382915497, 0.09243044257164001, -0.25689294934272766, 0.05129380151629448, 0.016080766916275024, 0.30573874711990356, -0.07000887393951416, 0.099676713347435, 0.1589503437280655, -0.1981493979692459, 0.18045149743556976, -0.27613019943237305, 0.14356233179569244, 0.12514017522335052, 0.07620621472597122, 0.14783920347690582, -0.11306063085794449, 0.06640832126140594, -0.23903179168701172, -0.2725040018558502, 0.05973493680357933, 0.05812724679708481, 0.23730631172657013, 0.3296528458595276, -0.2788362503051758, -0.30554768443107605, 0.16367162764072418, -0.14358419179916382, 0.1010337695479393, 0.17751193046569824, 0.13565859198570251, -0.028694748878479004, -0.10335665196180344, -0.008291585370898247, -0.15287946164608002, 0.05515080317854881, 0.007147437427192926, -0.17602752149105072, 0.05311465263366699, -0.09544637054204941, 0.08833014219999313, 0.10763484239578247, -0.09524807333946228, 0.1119571179151535, -0.1314280927181244, -0.0682818666100502, 0.2358943670988083, -0.21279695630073547, -0.09962155669927597, -0.0688159316778183, -0.030379172414541245, 0.05467864125967026, -0.01871507056057453, -0.18562164902687073, -0.07107892632484436, 0.007951546460390091, 0.47626855969429016, 0.26269790530204773, 0.10511753708124161, 0.13892003893852234, -0.0015316240023821592, -0.12547460198402405, 0.19605571031570435, 0.018919533118605614, -0.05456388369202614, -0.10985944420099258, 0.2445581704378128, -0.11749215424060822, -0.3465220332145691, -0.0460994578897953, 0.0645541325211525, -0.2775542736053467, -0.25395214557647705, 0.04533504694700241, 0.09887350350618362, 0.10495162755250931, 0.24471457302570343, 0.010551545768976212, 0.05555738881230354, 0.09641223400831223, 0.13118292391300201, 0.3696821630001068, 0.012593303807079792, -0.09734609723091125, -0.11154399067163467, -0.04171181470155716, 0.015513594262301922, -0.10108877718448639, -0.02772117592394352, 0.06607943773269653, 0.017810218036174774, -0.02478046528995037, 0.11523379385471344, -0.33539333939552307, 0.29308149218559265, -0.09068261086940765, -0.24648913741111755, -0.06307493150234222, 0.08915367722511292, -0.30371108651161194, -0.23291370272636414, 0.21966767311096191, 0.1236829087138176, 0.18523700535297394, 0.12299886345863342, -0.04276984557509422, -0.10266593098640442, -0.2184911072254181, 0.05837344750761986, -0.051564063876867294, -0.05760299786925316, -0.1630471795797348, 0.06611098349094391, 0.11608496308326721, -0.03079812601208687, -0.22851034998893738, 0.15241189301013947, -0.05488435924053192, 0.05814795941114426, 0.10104844719171524, 0.1869105100631714, -0.29921281337738037, 0.14340654015541077, 0.05406776815652847, -0.08036907762289047, 0.01036218460649252, 0.23671655356884003, -0.05047423392534256, -0.06322910636663437, 0.14766044914722443, 0.0559382364153862, 0.18694821000099182, -0.13916805386543274, 0.1580452173948288, 0.23188820481300354, 0.09962442517280579, 0.0006147440290078521, 0.1427120417356491, 0.2764640748500824, -0.33765047788619995, 0.0337088517844677, 0.07887282967567444, 0.035072434693574905, -0.16508841514587402, 0.17704890668392181, 0.05582185462117195, 0.04905452951788902, 0.056535884737968445, -0.17796005308628082, 0.06867287307977676, -0.18231521546840668, 0.22619767487049103, 0.18617768585681915, 0.25757676362991333, -0.027111580595374107, 0.248256653547287, 0.30897852778434753, 0.06685972958803177, 0.1292206048965454, 0.12792058289051056, 0.15284784138202667, -0.10919862985610962, 0.24020572006702423, 0.2285119742155075, 0.05319914594292641, 0.11936309933662415, 0.004176745656877756, -0.10388267040252686, 0.21652990579605103, -0.47152474522590637, 0.029460813850164413, -0.3000699281692505, -0.08904740959405899, 0.2750200629234314, -0.2667115032672882, -0.14398765563964844, 0.2839273512363434, -0.045708585530519485, -0.032440826296806335, -0.23018388450145721, 0.1927971988916397, 0.10031397640705109, 0.12468818575143814, -0.27568918466567993, 0.08974392712116241, 0.04746514931321144, -0.20309141278266907, 0.03392166644334793, 0.031511131674051285, 0.3207724392414093, 0.06851742416620255, -0.20651865005493164, -0.11258246004581451, 0.03884313628077507, -0.1395900994539261, 0.00913968775421381, 0.04700394719839096, -0.20061159133911133, 0.11854121834039688, -0.16958561539649963, 0.06392473727464676, -0.38682425022125244, 0.0908963605761528, -0.25767868757247925, -0.05051475763320923, 0.21768997609615326, 0.022466734051704407, 0.006018201354891062, -0.053020164370536804, -0.004444224294275045, 0.1665107160806656, 0.048646967858076096, -0.1173432245850563, -0.07871720939874649, -0.15125590562820435, 0.24356074631214142, 0.04982893913984299, -0.09941857308149338, 0.15350684523582458, -0.13754937052726746, 0.24928438663482666, 0.2066681981086731, -0.23171228170394897, 0.019961507990956306, -0.16703663766384125, 0.09102008491754532, -0.07008574157953262, -0.057098351418972015, -0.0730082169175148, 0.08497422188520432, -0.0018468607449904084, 0.2817753553390503, 0.08448214083909988, -0.18600879609584808, -0.003755684709176421, -0.24823781847953796, 0.1909482181072235, -0.0720067024230957, 0.016079436987638474, -0.2636088728904724, -0.037306759506464005, -0.2522878646850586, -0.014482014812529087, 0.10847236216068268, 0.45582902431488037, -0.21426376700401306, 0.006841504480689764, -0.23385228216648102, 0.04152771830558777, -0.23552249372005463, -0.10350659489631653, -0.04340474680066109, -0.17916882038116455, 0.2417476773262024, 0.1281757801771164, 0.061443086713552475, 0.05339112877845764, -0.07866702228784561, 0.09283050149679184, -0.0024943940807133913, 0.0017077670199796557, -0.09310181438922882, 0.15948133170604706, 0.17178399860858917, 0.307768851518631, 0.2625788450241089, 0.040565088391304016, 0.2367112636566162, 0.059691283851861954, 0.025346968322992325, -0.031149135902523994, -0.15211039781570435, 0.06046496704220772, -0.06537860631942749, -0.15301194787025452, 0.22799551486968994, 0.0640416294336319, -0.1003507450222969, 0.03925616294145584, 0.07520781457424164, 0.06464261561632156, 0.08188821375370026, -0.05318555608391762, -0.12014590203762054, 0.034196097403764725, 0.009383239783346653, 0.30138954520225525, 0.12844370305538177, -0.12243563681840897, 0.015261184424161911, -0.0999634712934494, 0.05188510939478874, 0.2776980400085449, 0.26561182737350464, -0.11559668928384781, 0.08139193803071976, 0.19086499512195587, -0.329463392496109, 0.2209842950105667, -0.18810328841209412, 0.10712508112192154, -0.18077830970287323, -0.04718061164021492, -0.20359563827514648, -0.05119412764906883, 0.23337146639823914, 0.13188593089580536, 0.03804849833250046, -0.24697130918502808, 0.2716921865940094, 0.024575015529990196, 0.052017223089933395, 0.14075924456119537, -0.04669811576604843, 0.2412397414445877, -0.004444432444870472, 0.1284201592206955, 0.05211232230067253, 0.15372851490974426, 0.16924960911273956, 0.06956654042005539, 0.029502132907509804, -0.13982972502708435, -0.030224893242120743, 0.20760056376457214, -0.038192298263311386, -0.1422308087348938, 0.008099921979010105, -0.1662391722202301, -0.04856041073799133, -0.07977006584405899, -0.05090562254190445, 0.1272628754377365, 0.07996215671300888, 0.1215585395693779, -0.3067147135734558, -0.17572376132011414, -0.060221243649721146, -0.21236465871334076, 0.03469422459602356, -0.33073690533638, -0.08291074633598328, 0.25312259793281555, -0.11030521988868713, 0.14386191964149475, 0.02792864851653576, -0.12290143966674805, 0.03249671682715416, 0.04225965961813927, -0.12710626423358917, -0.05426155775785446, -0.027619965374469757, -0.1775226593017578, -0.14652228355407715, 0.17458699643611908, 0.28535211086273193, -0.06288708001375198, -0.0666123777627945, -0.11125808209180832, -0.154517263174057, -0.1398230493068695, 0.128095343708992, 0.12345986813306808, -0.04507996141910553, -0.03824183717370033, -0.1771732121706009, 0.190652996301651, 0.08387088775634766, 0.027455639094114304, -0.23537524044513702, -0.08652378618717194, -0.389334112405777, -0.34221845865249634, 0.05774081125855446, 0.20521582663059235, 0.30099374055862427, 0.08302516490221024, 0.01176801510155201, -0.22543580830097198, 0.19440960884094238, 0.2522829473018646, 0.07122340053319931, 0.21066808700561523, -0.10270902514457703, 0.029055267572402954, -0.29652953147888184, 0.03822707757353783, 0.08515693247318268, 0.01701805368065834, -0.07513263076543808, 0.11051062494516373, 0.1737833470106125, 0.0050375391729176044, -0.04625682905316353, -0.1410011649131775, 0.09374106675386429, 0.13318492472171783, 0.08218090981245041, 0.4214574992656708, -0.2658880650997162, 0.19580338895320892, 0.05086576193571091, -0.11428157985210419, 0.30974119901657104, 0.07249438762664795, 0.0373932309448719, 0.21822333335876465, 0.007062592078000307, 0.19478388130664825, 0.1401253640651703, -0.12246626615524292, 0.28928545117378235, 0.025447716936469078, 0.27693307399749756, -0.007002521306276321, 0.02763858065009117, 0.013379305601119995, -0.1728322058916092, -0.0238320492208004, 0.016672924160957336, 0.0975557267665863, 0.07657922059297562, 0.06653059273958206, 0.041606370359659195, 0.007730412762612104, -0.029877789318561554, -0.05595904961228371, 0.03770570456981659, -0.11016567796468735, 0.06360919028520584, -0.12589769065380096, 0.057037752121686935, -0.20503270626068115, 0.008562114089727402, 0.03411829099059105, 0.11271729320287704, 0.09495074301958084, 0.13750696182250977, 0.08242743462324142, 0.051107440143823624, -0.02135261334478855, 0.017868289723992348, 0.2339857816696167, -0.12737281620502472, 0.010012330487370491, -0.35131174325942993, 0.09120357036590576, -0.024715086445212364, -0.1380259394645691, 0.032716069370508194, -0.08927073329687119, 0.06594058126211166, 0.29445141553878784, -0.09040656685829163, -0.04210103675723076, 0.006453851703554392, -0.5337777733802795, -0.022461827844381332, -0.2539381682872772, -0.026356002315878868, 0.013589337468147278, 0.22459012269973755, 0.3222993016242981, 0.5173822641372681, 0.08997011184692383, 0.1407231092453003, -0.24040007591247559, -0.0026197838596999645, -0.11982207000255585, -0.08968543261289597, -0.03625304624438286, 0.14437872171401978, -0.25974252820014954, 0.14906877279281616, 0.392122358083725, 0.09105519205331802, 0.10509876906871796, -0.03553386777639389, 0.3487236201763153, 0.14025545120239258, 0.2711220979690552, 0.2061130553483963, 0.1647515743970871, 0.2962918281555176, 0.17160840332508087, 0.17719726264476776, 0.21006110310554504, 0.12951047718524933, 0.28434211015701294, 0.28137341141700745, 0.0713573545217514, 0.05408203601837158, 0.2884545624256134, -0.19240674376487732, 0.1725013703107834, 0.1665666103363037, -0.11592834442853928, 0.15041618049144745, 0.06177297607064247, 0.08948211371898651, 0.0969896912574768, -0.34608590602874756, -0.05240427702665329, -0.08968161791563034, -0.020830824971199036, 0.04997673258185387, 0.07224686443805695, -0.34809190034866333, 0.05103275552392006, 0.16143037378787994, -0.13149631023406982, -0.06897192448377609, 0.16162389516830444, 0.05467306450009346, -0.06317216157913208, 0.07638965547084808, -0.23201443254947662, -0.19898894429206848, 0.06877710670232773, 0.34296974539756775, -0.15440724790096283, 0.4667208194732666, 0.04133450239896774, -0.08804056793451309, -0.025365719571709633, 0.05451849102973938, -0.20019268989562988, -0.12140002101659775, -0.15424226224422455, 0.25840866565704346, -0.2004430592060089, 0.16595235466957092, 0.10478975623846054, 0.08520180732011795, -0.05740286782383919, -0.34175506234169006, 0.028354065492749214, -0.09642191231250763, 0.36482149362564087, 0.13741834461688995, -0.10907089710235596, 0.037270814180374146, -0.009581616148352623, 0.47867944836616516, 0.15747372806072235, 0.18549396097660065, 0.2397284209728241, -0.17089073359966278, 0.015354163013398647, -0.06577441096305847, 0.05451267585158348, 0.1810823678970337, 0.30537375807762146, -0.05488748103380203, -0.024671051651239395, 0.2259107530117035, 0.08915182948112488, 0.09129488468170166, -0.08426284790039062, 0.20791734755039215, -0.32555854320526123, 0.02910585142672062, -0.1922374814748764, -0.12165619432926178, 0.14939601719379425, -0.20605361461639404, -0.3096199631690979, 0.15406328439712524, -0.02833099663257599, -0.14969994127750397, 0.42312610149383545, -0.018529200926423073, -0.03785116598010063, 0.0030188646633177996, -0.060392361134290695, -0.06627585738897324, -0.17919404804706573, -0.12746581435203552, 0.1885901242494583, 0.1241493970155716, 0.12233614176511765, -0.1680147498846054, -0.029780296608805656, 0.241303488612175, -0.2792704105377197, -0.044638741761446, -0.11206156015396118, 0.17831049859523773, 0.006530498620122671, -0.11731301993131638, 0.2668493390083313, -0.15902747213840485, -0.20704302191734314, 0.23840045928955078, 0.08340439945459366, 0.013831360265612602, -0.0050013200379908085, -0.37477150559425354, 0.088533915579319, 0.0129251005128026, -0.23613287508487701, 0.012922585010528564, 0.1114349290728569, 0.053503863513469696, -0.16084955632686615, 0.43809595704078674, -0.25475013256073, -0.15565133094787598, -0.2752279043197632, 0.1286706179380417, -0.0014992599608376622, -0.1939571648836136, -0.4892529845237732, 0.14511822164058685, -0.41317877173423767, 0.3370365798473358, -0.005322362761944532, -0.2906512916088104, 0.07435549795627594, 0.3306817412376404, 0.28828051686286926, 0.04486823081970215, 0.031476136296987534, 0.2713087499141693, 0.21710145473480225, 0.3488994240760803, 0.139680415391922, 0.25710660219192505, 0.4217053949832916, 0.2796230912208557, 0.3414313793182373, -0.20099212229251862, 0.06546823680400848, 0.26022008061408997, 0.004904146306216717, 0.15130852162837982, 0.049893636256456375, 0.15035466849803925, -0.2729870676994324, 0.16349805891513824, 0.20630469918251038, 0.09142731875181198, 0.2377782166004181, 0.04774084314703941, -0.24254995584487915, 0.33912330865859985, -0.050858963280916214, -0.0871562734246254, 0.052560362964868546, -0.14596466720104218, 0.06409183889627457, 0.18500056862831116, -0.00252665881998837, -0.13759420812129974, -0.008465321734547615, 0.09704215079545975, 0.028184127062559128, 0.0814206451177597, -0.038323089480400085, -0.0763411894440651, -0.04932555928826332, 0.1210983470082283, -0.11571924388408661, 0.07610775530338287, 0.021165210753679276, -0.005188861861824989, 0.2483699470758438, -0.1463264524936676, 0.05562226474285126, -0.01617812179028988, -0.07448600232601166, 0.15780994296073914, 0.028940390795469284, -0.17336106300354004, 0.2332117110490799, -0.15831901133060455, -0.02068287692964077, -0.3215113878250122, -0.09166853874921799, -0.09847493469715118, -0.17685943841934204, -0.051555830985307693, -0.23891694843769073, 0.1843276470899582, -0.4796048402786255, 0.11749076098203659, -0.1526612937450409, -0.29865017533302307, -0.02684861607849598, -0.09673886746168137, 0.05033421888947487, -0.29953140020370483, -0.1858997792005539, 