{"weights": {"layers": [{"weights": [-0.23158198595046997, 0.1622723489999771, 0.1565466970205307, 0.08502282947301865, 0.2809047996997833, -0.21645109355449677, 0.18119880557060242, 0.18841509521007538, -0.11120091378688812, 0.058783210813999176, 0.22121049463748932, 0.1711541712284088, -0.23790468275547028, -0.3594711124897003, -0.20557698607444763, 0.04496055096387863, -0.09812773764133453, -0.024921253323554993, -0.3462783992290497, -0.07934565842151642, -0.04508166387677193, -0.5523194074630737, 0.024594398215413094, 0.10042133182287216, 0.2916461229324341, 0.044158026576042175, -0.09469389915466309, -0.6327259540557861, 0.011868726462125778, 0.022165322676301003, 0.14480140805244446, -0.06881498545408249, -0.12608227133750916, 0.12404894083738327, -0.46746668219566345, -0.00362626975402236, 0.064893439412117, -0.2702934741973877, -0.24589607119560242, 0.08614087104797363, 0.11701345443725586, -0.11834171414375305, -0.4891898036003113, 0.15897247195243835, 0.11928284913301468, 0.16516543924808502, 0.1940314769744873, 0.12392029166221619, -0.08159176260232925, -0.06946739554405212, 0.01647101156413555, 0.07798044383525848, 0.08883427083492279, 0.06519242376089096, -0.08607397228479385, -0.2162235677242279, -0.10390254110097885, -0.016654010862112045, -0.03915530815720558, -0.24406547844409943, 0.1265316754579544, -0.13085484504699707, -0.1436610221862793, 0.06071675196290016, -0.17975513637065887, 0.06563155353069305, 0.18530283868312836, 0.2311001867055893, -0.27345430850982666, 0.023440103977918625, -0.09683399647474289, 0.10104501992464066, -0.6357200145721436, 0.07890477776527405, 0.040006618946790695, -0.12342829257249832, 0.011298291385173798, -0.05697647109627724, 0.1326875537633896, -0.16653096675872803, -0.21303772926330566, 0.03347058594226837, 0.06803034991025925, -0.20351740717887878, 0.13707534968852997, 0.22622570395469666, 0.21243968605995178, -0.08356492966413498, 0.2158515304327011, -0.14283959567546844, 0.2588961124420166, -0.15961167216300964, 0.3371399939060211, -0.020220519974827766, 0.15543007850646973, 0.18105889856815338, -0.09464703500270844, -0.16762834787368774, 0.005572688765823841, 0.24628545343875885, 0.11419733613729477, 0.06500860303640366, 0.07456657290458679, 0.0966930016875267, -0.2989005744457245, 0.17015019059181213, 0.09051230549812317, 0.03523159399628639, 0.0003296122595202178, -0.10537797212600708, 0.016721775755286217, 0.032566606998443604, -0.13007737696170807, 0.11153905838727951, -0.019818933680653572, 0.03895259648561478, 0.2979097068309784, 0.09069928526878357, -0.04680228978395462, -0.15867318212985992, -0.2048061192035675, -0.002753996290266514, 0.07018778473138809, -0.13896000385284424, 0.013755305670201778, 0.24801772832870483, -0.13772988319396973, -0.15981723368167877, -0.016310805454850197, 0.07097134739160538, 0.034743037074804306, -0.053763069212436676, 0.08912403136491776, -0.06866905093193054, 0.09480758011341095, -0.08879253268241882, 0.19032259285449982, 0.06791399419307709, -0.016401417553424835, 0.17264586687088013, -0.07571832090616226, -0.06361141800880432, 0.21088287234306335, 0.059299394488334656, 0.10893993079662323, -0.03097309172153473, 0.14442676305770874, 0.13880404829978943, -0.1635490506887436, -0.022249653935432434, 0.046804942190647125, -0.08531705290079117, 0.14481662213802338, -0.1875094324350357, 0.239082470536232, 0.3544592261314392, -0.1864732801914215, -0.10118197649717331, -0.32214275002479553, -0.08547504991292953, 0.17456601560115814, -0.1721382439136505, -0.2012845277786255, -0.1885005533695221, -0.11903446167707443, -0.36804431676864624, -0.09949277341365814, -0.07729701697826385, -0.08269097656011581, -0.03554831072688103, -0.022163573652505875, 0.30314570665359497, -0.07829233258962631, 0.18541647493839264, 0.176280215382576, -0.01822209544479847, -0.006998979486525059, 0.07195872068405151, 0.1703772097826004, 0.12895236909389496, 0.12164196372032166, 0.00017847328854259104, 0.1759646087884903, 0.17554588615894318, 0.009913094341754913, -0.1297333985567093, 0.0812738686800003, -0.018780337646603584, -0.2639593482017517, -0.011690796352922916, 0.15651102364063263, 0.07860949635505676, 0.022577380761504173, 0.21865878999233246, -0.0735890120267868, -0.04633895680308342, 0.1453172117471695, -0.057240571826696396, 0.06879091262817383, -0.15311592817306519, -0.02694746106863022, 0.18326149880886078, 0.008353959769010544, 0.10691097378730774, 0.6082761883735657, -0.10931342095136642, -0.24017931520938873, 0.14082245528697968, -0.3582679331302643, -0.4041215777397156, -0.33757293224334717, -0.08627153933048248, -0.26746854186058044, 0.16209618747234344, 0.48246198892593384, 0.12792733311653137, -0.07537797838449478, -0.13913366198539734, 0.3694327771663666, 0.1533200442790985, 0.02609652280807495, 0.45148757100105286, -0.07019048184156418, -0.10628417879343033, 0.09609560668468475, -0.3922364115715027, 0.2942022383213043, -0.16622447967529297, 0.5089454054832458, -0.11465860903263092, 0.08323856443166733, -0.2122049331665039, 0.38929471373558044, -0.14940282702445984, 0.199890598654747, 0.12237972766160965, 0.13332824409008026, 0.26777172088623047, 0.14396296441555023, -0.04186476394534111, 0.18997664749622345, -0.22551119327545166, 0.10898574441671371, -0.1341499388217926, 0.033394474536180496, 0.3303283452987671, 0.14371947944164276, 0.12550893425941467, -0.008378507569432259, 0.01876496709883213, -0.09746082872152328, 0.03302910923957825, 0.0055967592634260654, 0.23773638904094696, 0.057061851024627686, -1.756205347192008e-05, -0.19592899084091187, 0.14184348285198212, 0.10348164290189743, -0.269432932138443, 0.18071335554122925, -0.0018115261336788535, -0.2419324666261673, -0.30757683515548706, -0.10948649048805237, -0.11640195548534393, -0.04575265198945999, 0.03473420441150665, 0.0012625576928257942, -0.09108620136976242, 0.3156695067882538, 0.3324972689151764, -0.027938250452280045, -0.10867632180452347, -0.06886660307645798, 0.10577336698770523, 0.04693962633609772, 0.4723741114139557, -0.23392726480960846, 0.16843879222869873, 0.15849651396274567, -0.18272444605827332, -0.2538040280342102, -0.08575759083032608, 0.09846536070108414, 0.20760253071784973, -0.051891569048166275, -0.051731597632169724, 0.023684866726398468, -0.12836405634880066, -0.03340553864836693, -0.012842116877436638, 0.05710931494832039, 0.01085725612938404, -0.1358371078968048, -0.06914257258176804, 0.2935411036014557, 0.012403312139213085, 0.08182571828365326, 0.022972069680690765, 0.3460780382156372, 0.2595531642436981, 0.24832578003406525, 0.1199684664607048, 0.03452186658978462, 0.3119894564151764, 0.13482721149921417, 0.015499931760132313, 0.2392245978116989, 0.011175394058227539, -0.03811275586485863, -0.12485198676586151, -0.14214302599430084, -0.1184229776263237, -0.01882343739271164, -0.07913366705179214, -0.09332245588302612, -0.14579972624778748, -0.0028753047809004784, 0.302714079618454, -0.007207071874290705, -0.1316591054201126, -0.18897108733654022, -0.03438488394021988, 0.10117650032043457, -0.08899497240781784, -0.008246292360126972, -0.1278606653213501, 0.139124795794487, 0.24333888292312622, -0.02777661383152008, -0.09548383206129074, -0.012858005240559578, 0.08250823616981506, 0.1251879334449768, 0.2090948224067688, -0.11812196671962738, 0.05235014483332634, -0.31994134187698364, -0.30163297057151794, 0.0463717095553875, -0.14374493062496185, -0.003127333475276828, 0.013341203331947327, -0.30407005548477173, 0.007262838073074818, 0.260625422000885, -0.033638712018728256, -1.0789552927017212, 0.004924422595649958, -0.17685946822166443, 0.07432004064321518, -0.08794719725847244, 0.017201360315084457, 0.026221774518489838, -0.16905024647712708, 0.2123665064573288, -0.2845322787761688, 0.23683592677116394, -0.19483183324337006, 0.11824414879083633, 0.00841586198657751, -0.11496580392122269, -0.0341191291809082, -0.24121735990047455, -0.08372735232114792, 0.25692665576934814, 0.22192372381687164, -0.527685821056366, 0.2402675896883011, 0.28676638007164, 0.2890085279941559, 0.09992294758558273, 0.017504049465060234, 0.048059359192848206, 0.05352897197008133, 0.08338701725006104, 0.1511296182870865, 0.03966366872191429, -0.01580311544239521, -0.06711900234222412, 0.06560605764389038, 0.0011295218719169497, 0.054696910083293915, 0.010150503367185593, 0.11676806211471558, 0.051702097058296204, -0.03332670405507088, -0.15521737933158875, 0.012862319126725197, 0.14691027998924255, -0.08579184114933014, 0.07107999175786972, -0.28094154596328735, -0.07134628295898438, 0.1273096650838852, 0.3120880424976349, 0.19641444087028503, -0.041683439165353775, -0.057719845324754715, 0.0014606965705752373, -0.07120215892791748, 0.04711711406707764, 0.003523785388097167, 0.0006470091175287962, -0.016857361420989037, -0.05684594810009003, -0.05639193207025528, -0.06495875120162964, 0.029953457415103912, -0.25671932101249695, 0.03994346037507057, -0.08226089179515839, 0.022174237295985222, -0.014353234320878983, -0.40134596824645996, 0.28217625617980957, -0.1880313754081726, -0.2844144105911255, -0.33483561873435974, 0.5785488486289978, 0.41570067405700684, -0.04278374835848808, -0.05113855376839638, -0.3919437527656555, -0.2170867770910263, -0.21786080300807953, 0.17056214809417725, -0.570081353187561, -7.11808170308359e-05, 0.5670507550239563, -0.37669795751571655, -0.2801065444946289, 0.05453936383128166, -0.3327098786830902, -0.25388142466545105, 0.36214205622673035, -0.182770237326622, 0.07269472628831863, -0.7817633748054504, -0.01202534232288599, -0.1612173318862915, -0.22190280258655548, 0.2792026102542877, -0.06976012140512466, 0.049184639006853104, -0.2524203956127167, -0.13955804705619812, 0.31100592017173767, 0.02583783119916916, 0.008564312011003494, -0.03627827391028404, 0.09860300272703171, 0.015780534595251083, -0.14918817579746246, 0.1364554911851883, -0.24938949942588806, -0.1605081856250763, 0.2799769639968872, 0.07109595090150833, 0.2950103282928467, -0.03701571002602577, -0.10859067738056183, 0.10010962933301926, -0.16591697931289673, 0.1602458655834198, 0.054163575172424316, 0.07566847652196884, -0.07048539072275162, -0.43409574031829834, -0.2742510437965393, -0.3053531050682068, -0.020050710067152977, -0.17560866475105286, 0.08833610266447067, -0.008290189318358898, -0.24537645280361176, 0.09682969748973846, -0.02336813323199749, 0.1768932342529297, -0.16237449645996094, 0.38761311769485474, 0.2592546045780182, 0.37136152386665344, 0.3059612810611725, -0.02819226123392582, 0.13290268182754517, -0.08300364017486572, -0.15052589774131775, -0.024453774094581604, 0.005310100968927145, -0.14880727231502533, 0.23360325396060944, -0.10389500856399536, 0.053510215133428574, 0.2376307249069214, -0.110140860080719, -0.16062529385089874, 0.3276674151420593, -0.008277329616248608, -0.3400263786315918, -0.07159551978111267, 0.08986862003803253, 0.17181840538978577, -0.04057814180850983, 0.10051149129867554, 0.23830687999725342, 0.36751994490623474, -0.11860790103673935, -0.11194773763418198, 0.006502505857497454, 0.04773582145571709, -0.054873786866664886, -0.05164218321442604, 0.036103297024965286, -0.18759918212890625, -0.24065354466438293, -0.19465738534927368, -0.0895974189043045, -0.12297019362449646, -0.25416019558906555, 0.02912607230246067, 0.024775845929980278, -0.12364854663610458, -0.0036643657367676497, -0.16193628311157227, 0.2015337198972702, 0.05574244260787964, -0.0218510664999485, 0.13585011661052704, -0.30065104365348816, -0.10086097568273544, -0.39163199067115784, 0.04425158351659775, 0.2717147171497345, -0.045555468648672104, 0.03509983792901039, -0.14271731674671173, -0.10675705224275589, 0.1641339212656021, 0.13276085257530212, -0.23982347548007965, 0.20980499684810638, -0.04082677513360977, -0.14904721081256866, -0.08819986134767532, 0.014816930517554283, -0.06159995496273041, 0.35504385828971863, 0.25480860471725464, 0.09492882341146469, 0.01492173783481121, -0.16384270787239075, -0.07333815842866898, -0.09298364818096161, 0.2545889616012573, 0.06559973955154419, 0.0723346620798111, -0.09755806624889374, 0.030704472213983536, 0.2930624485015869, -0.010530833154916763, 0.47833451628685, 0.07734169065952301, 0.2743789553642273, -0.14946703612804413, 0.36236029863357544, 0.3262670040130615, -0.11287777870893478, 0.30553948879241943, -0.0032362090423703194, -0.1854434609413147, -0.27279871702194214, -0.16057996451854706, -0.10343587398529053, -0.05405326560139656, -0.2615854740142822, -0.035079360008239746, 0.13368065655231476, -0.09305382519960403, -0.13509690761566162, 0.14426232874393463, -0.16941483318805695, -0.017801443114876747, 0.0012302809627726674, -0.228851318359375, -0.409454882144928, -0.046461764723062515, -0.29004302620887756, -0.02586778998374939, 0.10549111664295197, -0.22059540450572968, 0.265997052192688, 0.10066736489534378, 0.2771338224411011, -0.09056846052408218, -0.0937577411532402, -0.028301825746893883, 0.08420964330434799, -0.0038392278365790844, 0.05223724618554115, -0.03293055295944214, -0.04025387763977051, -0.06522168964147568, -0.06708607822656631, -0.022851083427667618, 0.15345503389835358, -0.19297830760478973, 0.0027490800712257624, 0.2680063247680664, -0.03292940557003021, 0.04261084273457527, -0.08849987387657166, 0.16110403835773468, 0.012887335382401943, 0.11605329811573029, 0.40543362498283386, -0.18574261665344238, -0.04898439347743988, -0.32927727699279785, -0.09929999709129333, -0.1323051005601883, 0.2714129388332367, -0.008378809317946434, -0.2005823701620102, 0.2337302714586258, 0.11639045923948288, -0.0018023395678028464, -0.1622801572084427, -0.16035018861293793, 0.3761093020439148, 0.19673365354537964, -0.15796376764774323, 0.008399019949138165, 0.274952232837677, 0.20169185101985931, -0.30887797474861145, 0.11939465254545212, 0.07920796424150467, 0.20914719998836517, 0.44647419452667236, -0.4274795353412628, -0.3203672766685486, 0.08815489709377289, 0.1836329698562622, 0.11477569490671158, 0.007613030727952719, 0.27723127603530884, -0.06059374660253525, -0.010057885199785233, -0.008584088645875454, 0.2707074284553528, -0.2179340422153473, 0.07442961633205414, 0.02920292690396309, -0.1656586080789566, 0.371317058801651, 0.06745897978544235, -0.11982524394989014, 0.07643862068653107, -0.04589856043457985, 0.14878740906715393, 0.01953650452196598, -0.12009619921445847, 0.06582397222518921, 0.0019785077311098576, -0.1157243475317955, -0.2237202674150467, 0.13219788670539856, -0.48928603529930115, 0.2669222950935364, 0.02700613997876644, -0.14352482557296753, -0.430987685918808, 0.11195814609527588, 0.06927349418401718, -0.022706082090735435, 0.03535141795873642, -0.03497523441910744, 0.07621511071920395, -0.27879786491394043, -0.09329963475465775, -0.02097756788134575, -0.17469345033168793, -0.20819808542728424, -0.1640084683895111, 0.27558633685112, 0.10533500462770462, -0.023393768817186356, -0.12006167322397232, -0.042820461094379425, 0.051248591393232346, -0.015103796496987343, -0.18314489722251892, -0.02570357732474804, -0.006592864170670509, -0.016447657719254494, 0.03592207282781601, -0.23269179463386536, -0.12002621591091156, -0.29747048020362854, 0.05345138907432556, 0.035682711750268936, 0.1682114154100418, -0.05564555898308754, 0.05912012606859207, 0.2361879050731659, 0.03232864290475845, -0.1816645860671997, -0.025636497884988785, -0.1599138379096985, 0.09571803361177444, -0.22146274149417877, -0.19414138793945312, -0.01491620298475027, -0.10349790006875992, 0.2579432427883148, -0.05425141006708145, 0.0824565663933754, -0.16816075146198273, -0.23446880280971527, -0.06639281660318375, 0.18971265852451324, -0.09326630085706711, -0.10024772584438324, 0.11806995421648026, -0.18813280761241913, -0.03414880111813545, 0.11583691835403442, 0.33544108271598816, -0.23361966013908386, 0.006409661844372749, 0.17076891660690308, -0.019703498110175133, -0.022703254595398903, 0.006961038336157799, 0.12277407199144363, -0.09165497124195099, -0.02125563845038414, 0.1905691772699356, 0.10724867135286331, 0.13146233558654785, 0.12706688046455383, 0.08707883954048157, -0.04248575493693352, -0.1573450118303299, 0.11726358532905579, 0.0728181004524231, -0.142693892121315, 0.1440054029226303, 0.2713254392147064, -0.004969526547938585, 0.04123145714402199, 0.018062377348542213, 0.30020979046821594, -0.13546893000602722, 1.0829761028289795, 0.015245603397488594, 0.047302767634391785, -0.020702611654996872, -0.04782164841890335, -0.024412209168076515, 0.41437774896621704, -0.025725077837705612, -0.12692023813724518, -0.252625435590744, -0.07851343601942062, -0.5071398019790649, 0.27917373180389404, 0.10463326424360275, 0.36945632100105286, 0.38126853108406067, 0.11096277087926865, -0.13970303535461426, 0.0721360594034195, 0.4260203242301941, -0.15900959074497223, -0.03500194847583771, 0.20985627174377441, 0.19221742451190948, 0.013693277724087238, -0.018234141170978546, -0.11310596019029617, -0.013872561976313591, 0.01975175365805626, -0.072318896651268, -0.016336897388100624, 0.07569043338298798, 0.005503373686224222, -0.08892037719488144, -0.008256562985479832, -0.04455423355102539, 0.014687281101942062, -0.06634528934955597, 0.03696456924080849, -0.03543949872255325, -0.17867456376552582, 0.02025269903242588, -0.19939905405044556, -0.17050473392009735, -0.06429135799407959, -0.12221436202526093, 0.12083005160093307, 0.016168247908353806, 0.05572870373725891, -0.24860002100467682, -0.3662914037704468, -0.01780719682574272, 0.15714547038078308, -0.14071494340896606, -0.1027202159166336, 0.09831643104553223, -0.0009093781118281186, 0.03078477270901203, 0.06882531940937042, 0.025627881288528442, 0.5071300864219666, 0.1624985933303833, -0.4725014567375183, -0.26477450132369995, 0.1179695799946785, 0.27430370450019836, 0.09076915681362152, 0.013298586010932922, -0.4935845136642456, 0.2652522325515747, 0.30232271552085876, 0.14081324636936188, -0.0621587373316288, 0.08287761360406876, -0.18023554980754852, 0.07276909798383713, 0.19121746718883514, 0.0631706714630127, 0.01515460480004549, -0.4508908987045288, 0.30024027824401855, -0.16093260049819946, 0.15847785770893097, -0.7261399030685425, 0.14638222754001617, 0.28558656573295593, -0.1427222043275833, 0.40110111236572266, -0.1210629940032959, -0.5347992181777954, -0.2390385866165161, -0.09038788825273514, 0.027608288452029228, -0.18344247341156006, 0.07042905688285828, -0.10200396925210953, 0.231532484292984, 0.2197379320859909, 0.29896798729896545, -0.2749778628349304, -0.002922521438449621, -0.0896158516407013, 0.25720271468162537, -0.335548460483551, -0.12298320233821869, 0.1913490742444992, -0.14518828690052032, 0.13823217153549194, -0.33751410245895386, 0.1091412901878357, -0.39821937680244446, 0.33406537771224976, 0.06582801789045334, -0.07826907932758331, -0.200727641582489, -0.06473814696073532, 0.16378962993621826, -0.05391295626759529, 0.12274939566850662, -0.14371070265769958, -0.06419913470745087, 0.29478350281715393, -0.2730388641357422, -0.24129784107208252, -0.4241325259208679, -0.0004985831910744309, 0.07535737007856369, -0.08070603758096695, 0.3685213327407837, 0.5884235501289368, -0.3242798149585724, -0.34095534682273865, -0.4748925268650055, -0.3629343509674072, -0.18253837525844574, 0.18470971286296844, -0.15728701651096344, -0.010666151531040668, -0.05713694542646408, 0.20740430057048798, -0.18292997777462006, 0.10409703850746155, -0.14325538277626038, -0.18934032320976257, -0.05529559776186943, 0.2792879045009613, -0.12319616973400116, 0.019559869542717934, 0.20082508027553558, -0.20938539505004883, -0.18640190362930298, -0.7840373516082764, -0.0214117132127285, -0.15816889703273773, -0.17529752850532532, 0.04692668840289116, 0.045268990099430084, 0.06218753382563591, -0.07584166526794434, 0.06844629347324371, -0.3623998761177063, -0.01697808876633644, 0.03327957168221474, 0.26658713817596436, -0.030351756140589714, -0.024189993739128113, 0.02076469175517559, 0.15741242468357086, 0.41908547282218933, 0.00267650349996984, -0.00764766288921237, 0.15011242032051086, -0.04608476534485817, -0.0005258452147245407, 0.183585062623024, 0.2319907248020172, 0.19421105086803436, 0.21292616426944733, 0.12487953901290894, -0.1665511578321457, 0.10885929316282272, -0.1681797206401825, 0.18335700035095215, -0.1889256238937378, -0.20533141493797302, 0.22841466963291168, 0.07157312333583832, -0.14018546044826508, 0.11956443637609482, -0.1403147280216217, -0.14201034605503082, 0.1546698659658432, -0.05880679190158844, -0.11454737186431885, 0.17101460695266724, 0.07855534553527832, 0.15635278820991516, 0.3419187366962433, -0.15170635282993317, -0.07254424691200256, -0.9967643618583679, 0.09543156623840332, 0.4997250735759735, -0.006521714851260185, 0.12373737245798111, 0.0937323123216629, -0.24704335629940033, -0.1327611804008484, 0.03051578998565674, -0.2426006942987442, -0.05306920036673546, 0.0008813192835077643, -0.2015199512243271, -0.18913821876049042, -0.13330985605716705, 0.20202380418777466, 0.1631995588541031, -0.6111786961555481, 0.22972038388252258, -0.3532243072986603, 0.1933736354112625, -0.24414803087711334, 0.031158199533820152, 0.12906841933727264, 0.10588716715574265, 0.01294070202857256, -0.22329823672771454, -0.24016104638576508, -0.41049835085868835, 0.10200075060129166, 0.31650543212890625, 0.1706821322441101, 0.07088598608970642, 0.15527614951133728, 0.13662298023700714, 0.30192306637763977, -0.5145209431648254, -0.39981508255004883, 0.10053747892379761, 0.011372187174856663, -0.0679847002029419, 0.20016489923000336, 0.20504866540431976, -0.2810053825378418, 0.07296229153871536, -0.15898890793323517, 0.23405854403972626, 0.01084962673485279, 0.005531984381377697, 0.06651906669139862, -0.051102787256240845, 0.10455958545207977, 0.17029261589050293, 0.04653915390372276, -0.09582678973674774, 0.14828725159168243, 0.04235169664025307, 0.0955035537481308, -0.07647755742073059, 0.18909862637519836, -0.05291767045855522, 0.17643673717975616, 0.21664303541183472, 0.012614364735782146, 0.737339973449707, 0.21568050980567932, -0.6700802445411682, -0.8648974299430847, 0.07109390944242477, -0.27812641859054565, 0.6616285443305969, 0.03862970694899559, -0.10038191825151443, 0.3081296980381012, -0.17284618318080902, -0.2352917343378067, -0.02224450185894966, 0.06590582430362701, 0.32567477226257324, 0.05722791701555252, -0.014505584724247456, -0.06443796306848526, -0.21774154901504517, 0.040286608040332794, -0.11225922405719757, -0.10686840116977692, 0.01723622716963291, -0.21996164321899414, 0.6153492331504822, -0.178706094622612, 0.11126959323883057, -0.28795766830444336, 0.010889279656112194, -0.5165611505508423, 0.029335245490074158, -0.0844448134303093, -0.02014334313571453, 0.045437041670084, 0.1086193397641182, -0.11626280844211578, -0.03695954009890556, -0.001272275927476585, -0.1768340915441513, 0.025511818006634712, 0.20025451481342316, 0.32207897305488586, -0.053499285131692886, 0.1094726026058197, 0.18222090601921082, 0.25373998284339905, -0.13609884679317474, 0.19709114730358124, 0.07014299184083939, -0.09375486522912979, -0.06287910044193268, -0.12333939969539642, 0.07993915677070618, -0.10581063479185104, -0.019631298258900642, -0.14190445840358734, 0.1435464471578598, 0.39449092745780945, 0.043997593224048615, -0.20284254848957062, -0.2675056755542755, -0.2829609513282776, -0.011030377820134163, -0.11167268455028534, -0.10824412107467651, 0.12413516640663147, 0.1123962551355362, 0.1222793236374855, 0.02389109507203102, -0.26180604100227356, 0.22838793694972992, 0.16654889285564423, 0.27938348054885864, 0.2940064072608948, 0.05927139148116112, 0.09264958649873734, -0.46590951085090637, -0.058087147772312164, 0.12274686247110367, -0.19183239340782166, 0.11981645226478577, 0.1342727392911911, 0.2576726973056793, -0.13457415997982025, -0.14068745076656342, 0.09955061972141266, 0.09447937458753586, 0.05860450863838196, -0.4037743806838989, 0.320479154586792, 0.1901291012763977, 0.12667155265808105, 0.00808063242584467, -0.03870474919676781, -0.30073392391204834, -0.30437275767326355, -0.17975905537605286, -0.1417631357908249, 0.1533311903476715, -0.035328060388565063, 0.028539268299937248, -0.11790008842945099, -0.03374338522553444, 0.0441691018640995, 0.16041819751262665, -0.0944300964474678, -0.056064508855342865, -0.1250263750553131, 0.09097236394882202, 0.025754109025001526, 0.0758158266544342, 0.2674987018108368, 0.1622103601694107, 0.2341933697462082, 0.33068549633026123, 0.1678316444158554, 0.00292653008364141, -0.15796145796775818, 0.21406657993793488, -0.27449288964271545, -0.14748366177082062, 0.005057089496403933, -0.2457321286201477, 0.18853411078453064, -0.2920076251029968, 0.09296170622110367, -0.02030891180038452, 0.14953811466693878, -0.07553859055042267, 0.1711270660161972, 0.007576911710202694, -0.08824194222688675, 0.011646482162177563, 0.07072388380765915, -0.08429130911827087, 0.12975642085075378, -0.23695722222328186, 0.06178821250796318, 0.26920774579048157, 0.049190498888492584, 0.23015139997005463, -0.10190756618976593, -0.14528603851795197, 0.1221267357468605, -0.17617109417915344, -0.04265586659312248, 0.01670883223414421, 0.12595677375793457, -0.13128983974456787, -0.19849644601345062, 0.028819333761930466, 0.019807223230600357, 0.0535857230424881, -0.024669848382472992, 0.16196689009666443, 0.23747827112674713, -0.4715060293674469, 0.12441147863864899, -0.12417274713516235, 0.15322032570838928, -0.08062861859798431, -0.2060016244649887, 0.04648768529295921, -0.5118804574012756, 0.11628323048353195, 0.3495030403137207, -0.024117806926369667, 0.08718211203813553, -0.005449161399155855, 0.14214374125003815, -5.371277438825928e-05, 0.23389090597629547, 0.20489990711212158, -0.005411667749285698, 0.06418284773826599, 0.0956953912973404, -0.09025375545024872, -0.08148015290498734, -0.12026529759168625, -0.10725056380033493, 0.2144983559846878, -0.14649765193462372, -0.06519867479801178, -0.1423283815383911, -0.09471365064382553, -0.25883758068084717, 0.03680408000946045, 0.09736760705709457, -0.2065550982952118, -0.009218188934028149, -0.0018047792837023735, 0.1001678928732872, 0.05707177147269249, -0.3033003509044647, 0.00221866718493402, -0.054911058396101, -0.0014661522582173347, 0.34949991106987, -0.19835035502910614, -0.05729781836271286, 0.16363425552845, -0.13487273454666138, 0.06357843428850174, -0.0932491347193718, 0.08428064733743668, -0.0685267299413681, 0.032469019293785095, 0.45732149481773376, 0.2850956916809082, 0.15008920431137085, 0.05057363957166672, 0.11770440638065338, 0.10399788618087769, 0.10347093641757965, -0.031304650008678436, 0.16855965554714203, 0.019906720146536827, 0.2057872712612152, 0.23438754677772522, 0.029872849583625793, -0.22203288972377777, 0.1374548077583313, 0.12053990364074707, 0.029603563249111176, 0.42984041571617126, 0.08391468226909637, 0.2794833779335022, 0.32035553455352783, -0.057418663054704666, 0.4180213510990143, 0.0761423408985138, 0.05250680819153786, 0.3641880452632904, 0.006445865612477064, 0.04296845197677612, 0.0433005765080452, -0.09239724278450012, -0.07923530787229538, -0.0667223185300827, 0.1654108315706253, -0.22306238114833832, -0.033727843314409256, -0.010635348036885262, -0.16901220381259918, 0.09668341279029846, -0.07585977762937546, 0.1972038596868515, -0.1226796954870224, -0.11301007121801376, -0.051080089062452316, -0.3295738995075226, -0.11206226795911789, -0.10356903821229935, -0.010238069109618664, -0.18574360013008118, 0.23356859385967255, -0.267390638589859, -0.22924944758415222, 0.12673638761043549, 0.029750490561127663, -0.48639798164367676, 0.2925598919391632, -0.07680662721395493, 0.003631236730143428, 0.09933670610189438, -0.10711454600095749, -0.05763215199112892, -0.2762717306613922, -0.038283951580524445, -0.08928213268518448, 0.1690775752067566, 0.18351811170578003, -0.037299130111932755, -0.06596937030553818, -0.1420222520828247, 0.16123007237911224, 0.1752604842185974, -0.42389264702796936, 0.2828240692615509, 0.1045357808470726, -0.5752246975898743, -0.06592971831560135, -0.15103304386138916, -0.09646055102348328, -0.007799480576068163, 0.20175322890281677, -0.271816223859787, -0.12249070405960083, -0.08248770982027054, 0.1889655441045761, -0.31834739446640015, -0.17979811131954193, 0.34812262654304504, -0.14084656536579132, 0.22413773834705353, -0.14851973950862885, 0.21952980756759644, 0.13626807928085327, 0.22906506061553955, 0.14271830022335052, -0.023991968482732773, -0.24764384329319, 0.12109826505184174, -0.10007106512784958, 0.1291242241859436, 0.12514333426952362, 0.1422288715839386, 0.14047978818416595, -0.04741073399782181, 0.006625039502978325, -0.23367607593536377, 0.07475212961435318, -0.15080884099006653, 0.03593635931611061, -0.04840110242366791, 0.052395422011613846, -0.004007901530712843, 0.08292537927627563, -0.10942839831113815, 0.1186499297618866, 0.17176538705825806, -0.028382280841469765, 0.04476456344127655, -0.28914278745651245, -0.020916825160384178, 0.16911481320858002, 0.3844955563545227, 0.23213791847229004, 0.08053459227085114, -0.14529862999916077, -0.0691041424870491, -0.0749262347817421, -0.17738579213619232, 0.060770291835069656, 0.29828527569770813, -0.036701641976833344, -0.07405545562505722, -0.00630378071218729, 0.013651032000780106, -0.10861450433731079, 0.15874487161636353, -0.022323044016957283, -0.2204112559556961, -0.39624032378196716, -0.20223866403102875, -0.9233325719833374, -0.3359374701976776, 0.02714793011546135, 0.10157007724046707, -0.07527488470077515, 0.21260617673397064, 0.24885471165180206, -0.17982885241508484, 0.07559198141098022, -0.1612967997789383, 0.17363005876541138, 0.22041131556034088, 0.13095176219940186, -0.3554378151893616, -0.047790005803108215, -0.14696243405342102, -0.011255208402872086, -0.1057845875620842, -0.04858364909887314, -0.5879966616630554, -0.11082703620195389, -0.6269632577896118, 0.02589191123843193, -0.10575232654809952, 0.22736185789108276, -0.2646665573120117, -0.14304181933403015, -0.716909646987915, 0.40552666783332825, -0.3209405839443207, -0.2941094934940338, 0.21336908638477325, -0.1463983952999115, 0.1567532867193222, -0.384176105260849, -0.3755834400653839, -0.5840011239051819, 0.23652677237987518, 0.2569134533405304, 0.27937954664230347, 0.2685432732105255, -0.3085043728351593, 0.14884774386882782, -0.06179158762097359, 0.17253245413303375, -0.2676103413105011, -0.21536237001419067, 0.002721261465921998, 0.07738113403320312, 0.21728628873825073, 0.06256922334432602, -0.1509343832731247, 0.05418175086379051, 0.20744338631629944, 0.1248394101858139, -0.11147505044937134, -0.24942946434020996, 0.05414780229330063, -0.3055110573768616, 0.01871320977807045, 0.30224090814590454, -0.09276769310235977, -0.06307575851678848, -0.24913035333156586, 0.12819834053516388, -0.10875120759010315, 0.057183802127838135, 0.19142934679985046, -0.28240588307380676, -0.11689262092113495, 0.04194843769073486, 0.026036106050014496, -0.012064426206052303, -0.06057770922780037, 0.13522610068321228, -0.004373601637780666, 0.06190779060125351, 0.021700439974665642, -0.20747797191143036, -0.03585062548518181, -0.07655316591262817, -0.16731496155261993, -0.05824407562613487, -0.022179322317242622, 0.02341783232986927, -0.1813371181488037, 0.1644085943698883, 0.0717461034655571, -0.007838108576834202, -0.16113172471523285, 0.1473119556903839, -0.11091180145740509, 0.004458848387002945, -0.11220622062683105, -0.09095148742198944, 0.25222063064575195, -0.03583741560578346, 0.04686679691076279, 0.09829273074865341, -0.058370862156152725, -0.0662623792886734, -0.07689057290554047, 0.1091579720377922, -0.13945680856704712, -0.08961856365203857, 0.061864059418439865, -0.09622658789157867, -0.04390020668506622, 0.01142493262887001, -0.1950940638780594, -0.16754283010959625, -0.05403218790888786, -0.1825132668018341, -0.11259505152702332, 0.016736198216676712, 0.1024254560470581, 0.13051103055477142, -0.10729444772005081, 0.2191435545682907, 0.047817278653383255, 0.14545884728431702, 0.05372461676597595, 0.1731952726840973, 0.15640249848365784, -0.027634022757411003, 0.07527455687522888, 0.19984479248523712, 0.04605046659708023, -0.0882599800825119, 0.30051368474960327, -0.0879659652709961, -0.06730882078409195, 0.006079673767089844, 0.08151005208492279, 0.027843864634633064, -0.30687767267227173, 0.13300517201423645, 0.38739338517189026, 0.13015857338905334, 0.08911314606666565, 0.26563888788223267, -0.2550920248031616, 0.33965152502059937, 0.09980868548154831, -0.12349305301904678, 0.10702639073133469, -0.10164730250835419, 0.19833295047283173, 0.011833669617772102, 0.04464232549071312, -0.27673375606536865, -0.09420195966959, 0.243961364030838, 0.07779435813426971, 0.09669313579797745, -0.13104559481143951, 0.1214149072766304, 0.23459088802337646, -0.3136475086212158, -0.12308657914400101, 0.2491912692785263, -0.03188054636120796, -0.06377056241035461, 0.056901201605796814, -0.022273452952504158, -0.21970926225185394, 0.09704688936471939, -0.052884772419929504, 0.07130322605371475, 0.02227402664721012, -0.3761841058731079, -0.030227936804294586, -0.029616625979542732, -0.005319624673575163, -0.264834463596344, 0.09296714514493942, -0.06849481910467148, -0.3805420696735382, -0.12012766301631927, 0.28370431065559387, 0.002544132759794593, 0.1040298342704773, -0.22825418412685394, 0.014641755260527134, 0.21651414036750793, 0.07015810161828995, -0.21752266585826874, -0.1532313972711563, -0.1716020405292511, 0.1142251193523407, -0.13040971755981445, 0.1252116709947586, -0.1318623423576355, -0.07090314477682114, -0.014177178032696247, 0.14193513989448547, -0.11690311878919601, 0.04468586668372154, 0.16058604419231415, -0.26098281145095825, 0.19628408551216125, 0.01673472858965397, 0.09675485640764236, -0.2381688952445984, 0.268700510263443, 0.09618434309959412, 0.1402563601732254, 0.42967984080314636, 0.15602797269821167, 0.14726522564888, 0.22220352292060852, -0.07736746221780777, -0.11225947737693787, 7.214091601781547e-05, -0.05343453213572502, 0.006015295162796974, 0.2637690305709839, 0.15543729066848755, 0.127728670835495, 0.03736499324440956, 0.07068026065826416, 0.1343616396188736, 0.28058427572250366, -0.0022522478830069304, 0.025121111422777176, -0.13825467228889465, -0.1461969017982483, 0.09529875963926315, -0.11398869007825851, -0.17089495062828064, -0.05183413252234459, 0.15251511335372925, -0.02732502855360508, 0.051737818866968155, -0.08020275086164474, -0.001338080852292478, -0.11754868924617767, -0.003112369915470481, -0.17887552082538605, 0.08925744146108627, 0.1646440327167511, -0.22697362303733826, 0.08840575814247131, 0.058515764772892, 0.08597303181886673, -0.02853558585047722, -0.2066125124692917, 0.3436506688594818, -0.08042135089635849, 0.08641291409730911, -0.3241104185581207, -0.0335843451321125, -0.07134842872619629, 0.01415911316871643, 0.05992603674530983, 0.23074708878993988, -0.3268154263496399, 0.1155974417924881, 0.03812122717499733, -0.14577984809875488, 0.2312394082546234, -0.18038316071033478, 0.22089283168315887, 0.16235511004924774, 0.25246331095695496, -0.09591063112020493, 0.03735192492604256, -0.07259587943553925, 0.1256927251815796, 0.15621881186962128, -0.17327886819839478, 0.37379956245422363, -0.3186015784740448, 0.2171197384595871, -0.05552245303988457, -0.039359644055366516, -0.005234230309724808, -0.1570761501789093, 0.2732299864292145, -0.025399954989552498, -0.08609020709991455, -0.22390525043010712, 0.01876063458621502, 0.06696967780590057, 0.08589425683021545, 0.1497013419866562, -0.2855837941169739, 0.2390577793121338, 0.04306533932685852, -0.09504728764295578, -0.1284131407737732, -0.2086162269115448, -0.2302725464105606, 0.08388230204582214, 0.2870505154132843, -0.029918894171714783, 0.2632520794868469, -0.24944031238555908, 0.004568011499941349, -0.23552046716213226, 0.058068349957466125, -0.029839377850294113, -0.11534836143255234, 0.0670936182141304, 0.11734794080257416, 0.1543835997581482, -0.010903788730502129, -0.048904046416282654, 0.09925796836614609, 0.17738480865955353, 0.19060204923152924, 0.26518216729164124, 0.03262297064065933, 0.007549223955720663, 0.07496784627437592, 0.13058221340179443, 0.25169292092323303, -0.316643089056015, 0.06525187194347382, 0.16342522203922272, 0.293233186006546, -0.14206363260746002, 0.2753179371356964, 0.0377420112490654, 0.024734938517212868, 0.12659499049186707, -0.03620209917426109, -0.19733569025993347, 0.09938836842775345, -0.011691533960402012, 0.08409802615642548, -0.009306289255619049, 0.17682033777236938, 0.11243878304958344, -0.18006449937820435, 0.1586487889289856, -0.14460410177707672, 0.09513311088085175, -0.18708407878875732, -0.1164412796497345, -0.4464266300201416, -0.10814448446035385, 0.2895718812942505, -0.7074766159057617, 0.15617182850837708, -0.03908080980181694, 0.2009882628917694, 0.06338952481746674, 0.03548791632056236, -0.11355038732290268, 0.17512628436088562, -0.08569290488958359, -0.007575402036309242, -0.1404268890619278, -0.44135230779647827, 0.30519968271255493, -0.012175125069916248, -0.5566261410713196, -0.3860968351364136, -0.22401832044124603, 0.0808635801076889, -0.001194471144117415, 0.3536349833011627, 0.3340004086494446, -0.1025112122297287, 0.0168931744992733, -0.08146879822015762, 0.29157647490501404, 0.06391967833042145, -0.11443860828876495, -0.1278790533542633, 0.1221805065870285, 0.08394401520490646, 0.05761393904685974, 0.31432169675827026, 0.17395995557308197, 0.022413447499275208, 0.3806784152984619, -0.3236082196235657, 0.1007155179977417, -0.1927388459444046, -0.00814057793468237, 0.058003172278404236, -0.023305851966142654, 0.06331740319728851, 0.17020457983016968, -0.10659363865852356, 0.11720047891139984, -0.1970115751028061, -0.010365914553403854, 0.016613133251667023, -0.26986756920814514, 0.12401293963193893, -0.22931745648384094, -0.12504614889621735, -0.027692681178450584, 0.13349920511245728, -0.1041983887553215, 0.0562426783144474, -0.20712986588478088, 0.2072899341583252, 0.13029776513576508, -0.09334760904312134, -0.15945100784301758, -0.0146851921454072, 0.22278310358524323, -0.04170100390911102, -0.07018408179283142, 0.07892630994319916, -0.2290220856666565, -0.10882104188203812, 0.13379183411598206, -0.12906834483146667, 0.20075875520706177, -0.01666107401251793, 0.23873981833457947, 0.046457238495349884, 0.05020441114902496, -0.2557988464832306, 0.17358025908470154, 0.14876487851142883, 0.19096627831459045, -0.2712119221687317, 0.19062328338623047, 0.22189490497112274, -0.038059160113334656, 0.296817421913147, -0.18350793421268463, 0.1132001131772995, -0.22391213476657867, 0.3108921945095062, -0.11688736081123352, -0.2552774250507355, 0.01235654391348362, -0.10415205359458923, 0.0030609210953116417, 0.22474117577075958, 0.15823078155517578, 0.04147449508309364, 0.48559248447418213, -0.030349193140864372, -0.18580397963523865, 0.09898470342159271, -0.0415162667632103, 0.12816515564918518, 0.06331326067447662, 0.32680878043174744, -0.02545543760061264, 0.08827696740627289, -0.08820852637290955, -0.15820834040641785, 0.379906564950943, -0.10161232203245163, -0.042290497571229935, 0.1376960426568985, 0.021532610058784485, -0.24282287061214447, -0.09464767575263977, -0.10459523648023605, -0.18063531816005707, -0.3384624123573303, 0.1402401477098465, -0.11891626566648483, 0.06548632681369781, 0.14859052002429962, -0.2004094123840332, 0.22586451470851898, -0.20957136154174805, 0.018827790394425392, 0.1672581285238266, -0.04398597776889801, -0.18724846839904785, 0.20076438784599304, 0.06642639636993408, 0.08116479963064194, -0.07245878130197525, -0.2960142493247986, -0.16906419396400452, -0.09681612998247147, 0.4186038672924042, 0.17908038198947906, -0.3179170787334442, -0.0805836021900177, -0.05508130416274071, -0.027681324630975723, 0.023687312379479408, 0.23570393025875092, 0.2603411376476288, -0.14404718577861786, 0.1885978728532791, 0.4427940547466278, 0.3378298580646515, 0.3472094237804413, -0.15220139920711517, 0.30208706855773926, 0.23018072545528412, 0.3242998421192169, -0.09815109521150589, -0.12992560863494873, -0.049586426466703415, -0.13806729018688202, 0.0729537382721901, 0.08650247752666473, -0.05857823044061661, -0.106809601187706, -0.03762289509177208, 0.04138888791203499, 0.0389346219599247, -0.10868396610021591, 0.06947743147611618, 0.09408790618181229, 0.12489526718854904, 0.061308830976486206, 0.1186651960015297, 0.04710288718342781, -0.00881041307002306, 0.21875274181365967, 0.05972675606608391, 0.024439172819256783, 0.0028423278126865625, -0.06333354860544205, 0.2418966144323349, 0.12599536776542664, -0.2178945094347, 0.24009373784065247, -0.30999642610549927, 0.04283631965517998, 0.09037698805332184, 0.08169515430927277, -0.20371651649475098, 0.09034707397222519, -0.17260953783988953, 0.14673657715320587, -0.10618989169597626, 0.047614507377147675, -0.03294439613819122, -0.01925325207412243, 0.1573517918586731, -0.09238630533218384, -0.165129154920578, 0.02476111240684986, 0.004449028987437487, 0.2672877013683319, -0.1032722070813179, 0.12109844386577606, -0.17058654129505157, -0.16114868223667145, -0.19927841424942017, -0.1908039152622223, -0.2975946068763733, 0.1253822296857834, -0.046761587262153625, 0.025273678824305534, -0.05976341292262077, -0.033296845853328705, -0.045682866126298904, 0.16395601630210876, -0.20973223447799683, 0.02963852696120739, 0.276186466217041, -0.23402836918830872, -0.0008327591349370778, -0.12879033386707306, 0.10640959441661835, 0.11182255297899246, -0.04180697724223137, 0.1412392556667328, -0.4394185245037079, -0.2882915139198303, 0.13835422694683075, 0.10945362597703934, 0.39076662063598633, -0.15163391828536987, 0.05773625150322914, 0.005062560550868511, -0.03353315591812134, 0.015271163545548916, -0.1205344870686531, -0.05286996066570282, -0.04407006502151489, -0.06618736684322357, -0.2095327526330948, -0.2555781304836273, 0.2604251801967621, -0.029934467747807503, 0.04004911333322525, 0.06568589806556702, -0.11526071280241013, -0.4349718689918518, -0.10978881269693375, 0.002511795610189438, -0.2862131595611572, -0.20306946337223053, 0.0794023722410202, -0.13651245832443237, -0.05533570051193237, 0.15249887108802795, 0.06910204887390137, 0.05451130494475365, 0.07135620713233948, -0.0819225087761879, 0.07041172683238983, -0.11654514819383621, 0.38738834857940674, 0.24842235445976257, 0.18734128773212433, -0.04465949162840843, 0.729362964630127, 0.07940053939819336, -0.3811575770378113, -0.5115131139755249, -0.03503277897834778, 0.30283403396606445, -0.12725017964839935, -0.042782507836818695, -0.12244735658168793, -0.011868122033774853, 0.0688055083155632, -0.15129511058330536, 0.13537278771400452, -0.20964042842388153, -0.06233099475502968, 0.30623555183410645, 0.11612142622470856, 0.10990019142627716, -0.8867812752723694, -0.012267116457223892, -0.04834236577153206, -0.43611323833465576, -0.8585076928138733, -0.12210351228713989, 0.11747926473617554, -0.12837980687618256, -0.4325173795223236, 0.03266435116529465, -0.4140411913394928, 0.21921205520629883, -0.23288753628730774, -0.5421355962753296, 0.023195894435048103, -0.3056837320327759, -0.6257719397544861, -0.1898183971643448, 0.22343005239963531, -0.19726288318634033, 0.04592796415090561, -0.16472481191158295, -0.12052151560783386, 0.37387949228286743, -0.6838051676750183, 0.31023159623146057, 0.025601379573345184, -0.1389259546995163, -0.3198310136795044, -0.012205955572426319, -0.046584416180849075, -0.1182565987110138, -0.08892713487148285, -0.28016698360443115, 0.005579548422247171, -0.4420188367366791, 0.3200613856315613, 0.17106513679027557, 0.12956124544143677, 0.009792598895728588, -0.232380211353302, 0.2649562656879425, -0.08412870019674301, -0.05472610145807266, -0.09866461157798767, 0.1944413036108017, 0.07046601921319962, -0.3625985085964203, 0.1428288221359253, -0.10586767643690109, -0.08293012529611588, 0.08195620775222778, 0.002873764606192708, 0.10049522668123245, -0.36496618390083313, 0.07737458497285843, 0.01394131500273943, 0.30203279852867126, -0.36755168437957764, -0.034568239003419876, 0.39735472202301025, 0.09437373280525208, 0.015455025248229504, -0.0026822262443602085, -0.07219751179218292, 0.13864989578723907, 0.15561337769031525, -0.25334522128105164, 0.509303867816925, -0.4088323712348938, -0.10482564568519592, -0.016058677807450294, -0.17861928045749664, 0.15457823872566223, -0.11771894246339798, -0.13244110345840454, -0.10219395160675049, 0.019379278644919395, -0.27675896883010864, -0.3040165901184082, -0.005824628286063671, -0.11415314674377441, -0.033417221158742905, 0.08491753041744232, 0.07743337005376816, 0.27548491954803467, -0.1814221292734146, 0.14178486168384552, 0.2214452177286148, -0.14351359009742737, -0.16913774609565735, -0.049268126487731934, 0.1732577681541443, 0.07947243005037308, -0.19619746506214142, 0.24972450733184814, 0.16897933185100555, -0.09901133179664612, -0.13447459042072296, 0.01774035207927227, -0.6492928266525269, 0.3029630482196808, -0.06962016969919205, -0.058315176516771317, 0.24070000648498535, 0.17725718021392822, -0.033215925097465515, -0.034066393971443176, -0.09552574902772903, 0.19226482510566711, 0.11506134271621704, 0.060905683785676956, 0.11035388708114624, 0.08590804785490036, 0.1657576858997345, 0.1463722288608551, 0.15359391272068024, -0.41851675510406494, -0.042319606989622116, 0.32352903485298157, 0.04499245807528496, -0.16844388842582703, -0.16204026341438293, -0.18702857196331024, -0.04118078574538231, -0.07530225068330765, -0.23304150998592377, -0.16464315354824066, 0.1652527004480362, -0.07969284057617188, -0.057280756533145905, 0.4633046090602875, 0.06228838115930557, 0.2964501976966858, -0.02384803257882595, -0.1279722899198532, -0.28117087483406067, 0.3309236764907837, -0.06461942940950394, -0.0010780482552945614, -0.15177634358406067, -0.19603487849235535, 0.34083762764930725, -0.17388027906417847, 0.02283334545791149, -0.29046061635017395, 0.38186919689178467, -0.5358949899673462, 0.3469991683959961, -0.1200006827712059, 0.20466384291648865, -0.09262813627719879, 0.012845976278185844, 0.1239878386259079, 0.1712893694639206, -0.15680761635303497, -0.24784885346889496, -0.02590080536901951, -0.09453874826431274, -0.05233946070075035, 0.037870872765779495, -0.1987946480512619, -0.049410633742809296, -0.26619547605514526, -0.007316004950553179, -0.2870368957519531, -0.031720299273729324, 0.05028152093291283, -0.28023460507392883, 0.08437830954790115, -0.01911023072898388, -0.10894672572612762, -0.0696473941206932, -0.23484013974666595, 0.07530153542757034, 0.08197515457868576, 0.15270313620567322, 0.0789368748664856, 0.32577329874038696, -0.12956205010414124, 0.06634649634361267, -0.15338684618473053, -0.037952687591314316, -0.2835731506347656, 0.09085297584533691, -0.525285005569458, -0.6945787668228149, 0.26509782671928406, -0.2624955475330353, 0.09529633820056915, -0.15680211782455444, 0.3629665970802307, -0.3381254971027374, -0.11413358896970749, -0.1262502521276474, 0.1285165250301361, -0.7519010305404663, -0.1861339956521988, -0.19819895923137665, 0.025781629607081413, -0.31112250685691833, 0.2017756849527359, 0.0651932954788208, 0.08400026708841324, -0.30210617184638977, 0.0013797152787446976, -0.08640177547931671, 0.046116821467876434, 0.04135594144463539, -0.225168377161026, -0.20740115642547607, 0.3006933927536011, 0.06163571774959564, 0.5511801838874817, 0.05348080024123192, 0.3326568305492401, -0.29285645484924316, -0.08263777196407318, 0.07811892777681351, 0.19304054975509644, 0.05651651322841644, 0.2849828004837036, -0.04797395318746567, 0.005967326462268829, 0.12006799131631851, 0.0030403262935578823, -0.004524053540080786, 0.03263799473643303, -0.10880087316036224, 0.026079293340444565, 0.16006140410900116, -0.06935238093137741, 0.18161042034626007, -0.19770382344722748, -0.026250645518302917, -0.05863980948925018, 0.06769170612096786, -0.025413352996110916, 0.11861145496368408, -0.019938727840781212, -0.4115120768547058, -0.2812081575393677, -0.10423793643712997, -0.09055674076080322, 0.2830945551395416, 0.12049941718578339, -0.36710143089294434, -0.12520115077495575, 0.1565372496843338, 0.34569501876831055, -0.08296684175729752, -0.10001637786626816, 0.03881378099322319, -0.12250301241874695, -0.056385837495326996, -0.06788604706525803, 0.05515889823436737, -0.3704674541950226, 0.19663429260253906, -0.1297774463891983, -0.45372727513313293, -0.19873479008674622, -0.3175406754016876, 0.05471080169081688, 0.24150152504444122, -0.20359353721141815, -0.23824313282966614, 0.14354638755321503, -0.0778084471821785, 0.023245543241500854, 0.2948015332221985, 0.23317427933216095, 0.18078546226024628, 0.04238720238208771, -0.14469611644744873, 0.019677378237247467, -0.1658821702003479, 0.36175277829170227, -0.23406049609184265, -0.011110982857644558, 0.10525758564472198, 0.009499853476881981, -0.3375580310821533, 0.16524088382720947, 0.012593586929142475, -0.09856600314378738, -0.03518645092844963, -0.03189605474472046, -0.1602846086025238, 0.0500214509665966, -0.18048402667045593, -0.02803168073296547, 0.3296988904476166, 0.014092686586081982, 0.08427201956510544, -0.08906406909227371, 0.3394213914871216, -0.055374741554260254, -0.01480109989643097, -0.11066539585590363, 0.015307724475860596, -0.26345300674438477, 0.1300181746482849, -0.16787053644657135, -0.01525923516601324, -0.01841064915060997, 0.15656431019306183, 0.0950392484664917, 0.10907656699419022, 0.019775671884417534, 0.06675449758768082, 0.07783276587724686, -0.1203828975558281, 0.09868922084569931, 0.07806627452373505, 0.01258850283920765, -0.24303823709487915, 0.13791963458061218, -0.005304061807692051, 0.024763595312833786, 0.06227540597319603, -0.09244084358215332, 0.11985575407743454, 0.19366346299648285, -0.04809555783867836, -0.24039417505264282, 0.13996818661689758, -0.19206172227859497, 0.2905888557434082, -0.36856159567832947, -0.14571885764598846, 0.04284125566482544, -0.35217639803886414, 0.10142841190099716, 0.07718726992607117, -0.12312401086091995, 0.05061914399266243, -0.45627403259277344, 0.2861776053905487, -0.08404950052499771, -0.0262285228818655, -0.056445300579071045, -0.5241473913192749, 0.15302293002605438, 0.10748914629220963, 0.13514263927936554, 0.02656148001551628, 0.012409995310008526, -0.05006719380617142, 0.3465909957885742, -0.10993790626525879, 0.37162014842033386, -0.03629091754555702, -0.2785516083240509, 0.1721312403678894, 0.032860103994607925, 0.14862579107284546, 0.04118802025914192, 0.09521166235208511, 0.11583565175533295, 0.2409265637397766, 0.14812014997005463, -0.10291691869497299, -0.13125140964984894, 0.036033596843481064, -0.19778788089752197, -0.017648721113801003, -0.17164048552513123, -0.10614365339279175, 0.09882865846157074, -0.041985172778367996, -0.10884367674589157, -0.09904016554355621, -0.0549800731241703, -0.2157624512910843, -0.25850987434387207, -0.09547994285821915, 0.21786406636238098, 0.09769544750452042, 0.0539926253259182, 0.1249142736196518, -0.016503719612956047, 0.269641250371933, 0.044012926518917084, -0.021013930439949036, -0.08828213810920715, -0.02245401032269001, -0.24470306932926178, -0.13459084928035736, 0.08738288283348083, 0.12133762985467911, -0.20390629768371582, 0.19181251525878906, 0.27848660945892334, 0.26057788729667664, -0.2478269785642624, 0.0952034443616867, -0.31946253776550293, 0.26973757147789, -0.001271059038117528, 0.28763794898986816, 0.13520874083042145, -0.19988706707954407, 0.05172116681933403, 0.040351420640945435, -0.10039030015468597, -0.09878106415271759, 0.1427377313375473, -0.16391149163246155, -0.3334062993526459, -0.3335021436214447, -0.12403396517038345, -0.2075066864490509, -0.09936690330505371, -0.12459319084882736, -0.16327156126499176, 0.05810992419719696, 0.13277719914913177, 0.09868177026510239, -0.11631594598293304, -0.1482449471950531, -0.09582599252462387, 0.08068906515836716, 0.007126780226826668, 0.037387553602457047, -0.05384918674826622, -0.015685658901929855, -0.09107399731874466, -0.09494653344154358, -0.10323324054479599, 0.23807202279567719, -0.06645429879426956, -0.09392152726650238, 0.17790980637073517, 0.2141900658607483, 0.027645332738757133, -0.14991094172000885, -0.059211988002061844, -0.13024836778640747, -0.14567992091178894, -0.2861330807209015, 0.023069217801094055, 0.3342195153236389, -0.3119596242904663, 0.14320920407772064, -0.04855235666036606, -0.223039448261261, -0.05614347383379936, 0.08203330636024475, 0.0960070937871933, -0.08572746813297272, 0.06029399856925011, 0.03344819322228432, 0.13515016436576843, 0.13232262432575226, -0.14039179682731628, 0.023644372820854187, 0.01764363795518875, -0.11074921488761902, -0.0557747557759285, 0.13688825070858002, -0.041800763458013535, 0.4023634195327759, 0.039770059287548065, 0.3514246940612793, -0.14527775347232819, -0.4290265142917633, -0.057014741003513336, 0.3940657377243042, -0.036627765744924545, -0.18842366337776184, 0.05384838208556175, 0.00047889837878756225, 0.029802922159433365, -0.08006595075130463, -0.057826291769742966, -0.01575961895287037, -0.44714340567588806, 0.15697091817855835, 0.22467006742954254, 0.27451828122138977, 0.14248153567314148, 0.08532651513814926, 0.12890183925628662, -0.020817458629608154, 0.12820139527320862, -0.005148864816874266, 0.01678338460624218, 0.01735932193696499, 0.27545878291130066, -0.19196227192878723, -0.1396721601486206, 0.18714572489261627, -0.07373039424419403, -0.1929282546043396, 0.03681698814034462, 0.16396024823188782, 0.0002834423503372818, 0.15612342953681946, -0.001149623072706163, 0.027467137202620506, 0.14179208874702454, 0.12817077338695526, -0.051212504506111145, 0.03797576203942299, 0.1992928683757782, -0.11785278469324112, 0.03133252635598183, 0.07158047705888748, -0.18649473786354065, 0.024810465052723885, 0.17874260246753693, -0.10119542479515076, -0.12994414567947388, 0.18183568120002747, -0.057028915733098984, 0.03236815705895424, 0.011215216480195522, 0.03796586021780968, -0.40710732340812683, 0.21195410192012787, -0.28159502148628235, -0.0656224712729454, 0.11036236584186554, 0.1269265115261078, -0.05930232256650925, -0.057114943861961365, -0.039541617035865784, -0.0258948914706707, 0.14946793019771576, -0.10270314663648605, -0.1490546315908432, 0.08591390401124954, 0.004748290404677391, -0.084427610039711, 0.04071642830967903, 0.1715649962425232, -0.03176424652338028, 0.01265088189393282, 0.15203607082366943, -0.08477018028497696, -0.11644355207681656, -0.06961198896169662, 0.11735816299915314, 0.08782057464122772, -0.12465722113847733, 0.19604071974754333, -0.07134730368852615, 0.03943745791912079, 0.017467010766267776, 0.1953064650297165, -0.09737920016050339, 0.032947298139333725, 0.036449119448661804, 0.028327416628599167, -0.13661514222621918, -0.009678693488240242, -0.1372084766626358, -0.2655055820941925, 0.14367598295211792, 0.13273738324642181, 0.28718477487564087, -0.09380240738391876, -0.11519365757703781, 0.2548788785934448, 0.07142511010169983, 0.11489660292863846, -0.15498176217079163, 0.246323823928833, 0.07952699810266495, -0.2903057336807251, 0.13119220733642578, 0.16689330339431763, 0.16532857716083527, 0.26254019141197205, 0.24656516313552856, 0.12577569484710693, 0.01154850609600544, -0.13313768804073334, -0.3061879575252533, 0.3283765912055969, 0.20819951593875885, 0.13554732501506805, 0.060749154537916183, 0.036291178315877914, 0.15494725108146667, -0.12816718220710754, -0.027833929285407066, 0.2706744968891144, 0.2633135914802551, 0.05552676320075989, -0.18520155549049377, -0.06693695485591888, 0.02345128357410431, 0.20281648635864258, 0.014734684489667416, -0.4585857093334198, -0.2089177370071411, 0.1367078721523285, -0.05143754184246063, -0.5673965215682983, -0.0009107626392506063, 0.029103342443704605, -0.018484458327293396, -0.061001114547252655, 0.1629142016172409, -0.26452741026878357, -0.17519374191761017, 0.06252939254045486, -0.04576636105775833, -0.3796795904636383, 0.019956201314926147, -0.25581035017967224, 0.531589925289154, -0.08657348901033401, 0.2343948781490326, 0.00025044914218597114, -0.10763692110776901, 0.014559062197804451, -0.21386241912841797, -0.3431738615036011, -0.26728734374046326, 0.2667379379272461, -0.2244410514831543, 0.07293574512004852, 0.1400727480649948, 0.4868997633457184, -0.09237755835056305, -0.12131848186254501, 0.005440693348646164, 0.10871915519237518, -0.021751388907432556, 0.24809642136096954, -0.13790558278560638, -0.09146112203598022, -0.19580639898777008, 0.4008762538433075, -0.46483084559440613, -0.4973829686641693, -0.48973703384399414, -0.06417216360569, 0.09355229884386063, -0.4667777717113495, 0.055432144552469254, 0.09171547740697861, -0.06485623121261597, 0.1570506989955902, 0.22615788877010345, 0.011337189003825188, 0.1346290409564972, 0.17095603048801422, -0.08547210693359375, -0.05553371459245682, 0.03237415850162506, -0.4760253131389618, 0.02804969809949398, -0.07172569632530212, 0.01586662419140339, -0.3275716304779053, -0.16727110743522644, -0.38729265332221985, -0.05186597630381584, 0.18903076648712158, -0.054217997938394547, 0.24559269845485687, 0.0202700886875391, 0.35434219241142273, -0.21915817260742188, -0.0544738844037056, -0.06421758234500885, -0.11374668031930923, -0.10841253399848938, -0.7856946587562561, -0.38993018865585327, 0.021100303158164024, -0.2827571928501129, -0.04851565137505531, 0.12940211594104767, 0.1933937519788742, 0.030963432043790817, 0.1018238365650177, -0.10292147099971771, 0.24678975343704224, -0.16211596131324768, 0.40368813276290894, -0.16210387647151947, 0.48033830523490906, 0.28220972418785095, 0.006693924777209759, -0.32128965854644775, -0.18964548408985138, -0.03246314823627472, 0.0021215626038610935, 0.24641935527324677, -0.08909925818443298, -0.17106042802333832, -0.05496176704764366, 0.01384063996374607, -0.1147352010011673, -0.13494354486465454, -0.1681479513645172, 0.14267700910568237, 0.04301687330007553, -0.05907395854592323, -0.16657988727092743, 0.014545702375471592, 0.09861312061548233, -0.3156060576438904, -0.013771618716418743, -0.03090866282582283, 0.03839811310172081, -0.25870540738105774, -0.05972245708107948, -0.09734868258237839, 0.03746480867266655, 0.13815687596797943, 0.09266896545886993, 0.03209536522626877, 0.005487878806889057, -0.1805000603199005, 0.0662185326218605, 0.38496842980384827, -0.020832592621445656, -0.20572759211063385, 0.23250526189804077, -0.045685939490795135, 0.05358799174427986, 0.21420074999332428, -0.15558812022209167, 0.13127148151397705, 0.20209243893623352, -0.1643141210079193, 0.05144134536385536, -0.29300400614738464, -0.3869898319244385, -0.026664936915040016, -0.3813576102256775, 0.26956096291542053, -0.22695018351078033, -0.06422417610883713, -0.14285512268543243, -0.1983163058757782, -0.3046221435070038, 0.18392851948738098, -0.17092235386371613, 0.09444864094257355, 0.2558780908584595, 0.2934182286262512, 0.3023264706134796, 0.14776410162448883, 0.5542639493942261, -0.033381856977939606, -0.3462583124637604, 0.0152831319719553, 0.2976713180541992, -0.013862314634025097, -0.19158042967319489, -0.15334537625312805, 0.18380866944789886, -0.004575914703309536, -0.11694171279668808, 0.046796511858701706, 0.012759877368807793, 0.01658850535750389, -0.014398300088942051, -0.11328861862421036, -0.1071702167391777, 0.06764723360538483, 0.2711305320262909, -0.3244686424732208, 0.15368372201919556, -0.019312987104058266, 0.09977737814188004, 0.13728272914886475, 0.17431508004665375, -0.10409798473119736, 0.3109971284866333, -0.13402901589870453, -0.3705787658691406, -0.0920732244849205, -0.1324286311864853, 0.0535392239689827, 0.2586325705051422, 0.015214758925139904, 0.037477876991033554, -0.0528019443154335, 0.187798410654068, -0.20323435962200165, 0.30140477418899536, -0.6321617364883423, 0.19040963053703308, -0.033678099513053894, -0.20903334021568298, 0.04608481749892235, -0.33016571402549744, 0.09351292252540588, 0.20535001158714294, -0.17213094234466553, 0.22876134514808655, -0.05399516597390175, 0.10655484348535538, -0.004644985776394606, -0.3240073621273041, -0.1625763177871704, -0.1345054805278778, -0.22860164940357208, -0.14903567731380463, 0.024898333474993706, -0.08603637665510178, -0.3100716769695282, 0.16979320347309113, 0.12737220525741577, 0.11685778945684433, 0.11330832540988922, 0.0327138751745224, 0.1271807849407196, -0.16393059492111206, 0.1514735221862793, -0.3040458559989929, -0.10925840586423874, -0.0779813826084137, -0.026086216792464256, 0.11124211549758911, -0.026699598878622055, -0.11417708545923233, 0.1932234764099121, 0.27268341183662415, -0.24019452929496765, 0.17494751513004303, -0.3899088203907013, -0.3574829399585724, 0.07117728143930435, -0.1605823040008545, 0.23198504745960236, -0.026965457946062088, 0.12747246026992798, 0.03625057265162468, 0.027673518285155296, -0.029687684029340744, 0.05345258116722107, 0.0928502008318901, 0.21334432065486908, -0.20213377475738525, -0.14463338255882263, -0.03239596635103226, 0.012302533723413944, 0.14812788367271423, -0.014806006103754044, 0.036452509462833405, -0.007538210600614548, 0.21098613739013672, 0.055648867040872574, 0.03931634873151779, -0.10579688102006912, 0.019977319985628128, -0.25137409567832947, -0.037925317883491516, 0.08774707466363907, -0.23802708089351654, 0.18057091534137726, -0.04901139810681343, -0.17110104858875275, -0.1946442425251007, -0.31691500544548035, -0.13816602528095245, -0.03951583430171013, 0.18321458995342255, -0.06779112666845322, 0.33616897463798523, 0.22412912547588348, 0.2636551856994629, 0.08190744370222092, -0.18456725776195526, -0.15660977363586426, 0.370699405670166, 0.03322821110486984, -0.24366456270217896, -0.21931126713752747, -0.14210180938243866, 0.0574946254491806, 0.1648668348789215, 0.17870107293128967, -0.21635130047798157, -0.009135239757597446, -0.19684378802776337, -0.05969104915857315, 0.03712942451238632, 0.23380789160728455, -0.0855567529797554, 0.10196783393621445, 0.24514985084533691, 0.4729565978050232, -0.17803966999053955, -0.3767269253730774, -0.09720213711261749, -0.03716827556490898, -0.19843176007270813, 0.01853894628584385, -0.043926674872636795, 0.2189808338880539, 0.2045888453722, 0.03515351936221123, -0.16738532483577728, 0.06762319058179855, -0.08863817155361176, -0.11989642679691315, 0.2205541729927063, -0.09823564440011978, -0.030856922268867493, -0.011686866171658039, 0.0657116174697876, -0.10535465180873871, 0.2182912975549698, -0.03489871695637703, 0.27608853578567505, 0.16599543392658234, 0.2829190790653229, -0.08340749144554138, 0.19101551175117493, -0.016000201925635338, -0.12212007492780685, 0.10171063244342804, -0.11140123009681702, 0.004999874159693718, 0.305258184671402, 0.06216385215520859, -0.02253470942378044, -0.023396097123622894, -0.2628883421421051, 0.1368793398141861, -0.07074592262506485, 0.33155152201652527, -0.061021823436021805, 0.15832598507404327, -0.056402429938316345, 0.18939007818698883, 0.303559809923172, 0.19922533631324768, -0.0020654676482081413, -1.037563681602478, 0.09162447601556778, -0.02024732530117035, 0.09876738488674164, 0.004259089939296246, 0.10306812822818756, 0.06481198966503143, 0.15049412846565247, -0.1062435656785965, -0.010964784771203995, 0.060763243585824966, -0.09825648367404938, -0.20514000952243805, -0.0626130923628807, -0.3830907642841339, 0.21623936295509338, 0.046483468264341354, 0.1326834261417389, 0.534820020198822, -0.0249702800065279, -0.11415544897317886, -0.07763315737247467, -0.2916582226753235, 0.015062286518514156, 0.1282411515712738, 0.2735920548439026, -0.0026146811433136463, -0.05294571444392204, -0.30288487672805786, 0.07415954023599625, 0.199069082736969, 0.2594408392906189, -0.16626428067684174, 0.2396732121706009, 0.3730798363685608, -0.35051199793815613, -0.11099705100059509, 0.021672429516911507, 0.04365163296461105, 0.35918310284614563, 0.20200181007385254, 0.3317406475543976, -0.001491756527684629, -0.3364900052547455, 0.1554734855890274, 0.1154140755534172, -0.07316132634878159, 0.28020617365837097, 0.01486649364233017, -0.16762880980968475, 0.04706113040447235, 0.13185842335224152, -0.18266016244888306, 0.13014498353004456, -0.1596773862838745, -0.1021658182144165, -0.05743973329663277, 0.1463359296321869, -0.15693731606006622, 0.17168864607810974, 0.024533703923225403, -0.050802361220121384, -0.2599634528160095, 0.14600713551044464, 0.1514005810022354, -0.2793038785457611, 0.19538486003875732, -0.031296610832214355, -0.08169525116682053, -0.059520214796066284, 0.1597089022397995, -1.6564263205509633e-05, 0.02220732532441616, -0.5198497772216797, -0.12264923006296158, -0.032550740987062454, -0.02524709701538086, -0.1681656688451767, -0.0021480403374880552, -0.012704779393970966, -0.04784736409783363, 0.07811381667852402, 0.07392650097608566, -0.2096603363752365, 0.017615236341953278, -0.0012774926144629717, 0.08217954635620117, -0.05497375503182411, -0.16456174850463867, 0.11590380221605301, 0.302065908908844, -0.027582211419939995, 0.2251949906349182, 0.14917321503162384, 0.020782042294740677, 0.1181536614894867, 0.08876632899045944, 0.406561940908432, -0.08155211061239243, 0.15281322598457336, 0.0766344889998436, -0.05741625279188156, 0.1309952735900879, -0.0810210108757019, 0.12596701085567474, 0.080843485891819, -0.045112717896699905, -0.011814012192189693, 0.23244592547416687, -0.1752714216709137, 0.4449795186519623, -0.05932169035077095, 0.06924885511398315, 0.19279055297374725, 0.010424393229186535, -0.39559391140937805, -0.16667187213897705, 0.41796451807022095, -0.05804683640599251, -0.041923269629478455, 0.1900496780872345, -0.08427867293357849, 0.20624348521232605, -0.1756821721792221, -0.10577213019132614, 0.10225838422775269, 0.03043987974524498, 0.08169987052679062, 0.27886542677879333, -0.1058078482747078, -0.0283819530159235, 0.15497726202011108, 0.20777447521686554, -0.1187143474817276, -0.08681551367044449, -0.18870243430137634, 0.36568382382392883, 0.31278669834136963, -0.07201313972473145, 0.030105503275990486, -0.03753769397735596, -0.2699994146823883, 0.08079919964075089, -0.12486233562231064, -0.2502509653568268, -0.05375466123223305, 0.24350608885288239, 0.105575330555439, -0.04464123398065567, -0.02865356206893921, 0.015641124919056892, 0.3118945062160492, -0.5306400060653687, -0.830592930316925, -0.06469427794218063, -0.02766917087137699, -0.13232192397117615, 0.15279120206832886, 0.05753251910209656, -0.056189894676208496, -0.4045696556568146, 0.02191734127700329, -0.11112893372774124, 0.019860247150063515, -0.2789977490901947, -0.16627374291419983, 0.07501561939716339, 0.06691829115152359, 0.0849992111325264, 0.04215386509895325, 0.2833029329776764, -0.07206159085035324, -0.005222467705607414, 0.17365452647209167, -0.0077111730352044106, 0.05006318539381027, -0.08989139646291733, -0.1642495095729828, 0.0837990939617157, 0.09003142267465591, 0.09234003722667694, -0.03285413980484009, -0.14817489683628082, -0.14895546436309814, 0.0050007738173007965, -0.028194857761263847, -0.15578246116638184, -0.005868422798812389, 0.026675796136260033, 0.15018226206302643, -0.3857118785381317, -0.020371636375784874, 0.01946662738919258, -0.10247194021940231, 0.12337984144687653, 0.19955138862133026, -0.06930990517139435, -0.13250206410884857, -0.0760064646601677, -0.0811275914311409, -0.058495305478572845, -0.07043778896331787, -0.10090423375368118, 0.3769491910934448, -2.3522403240203857, -0.22513394057750702, 0.2577439546585083, 0.28953850269317627, 0.019740546122193336, 0.25311028957366943, 0.06774404644966125, -0.027894118800759315, 0.07224882394075394, -0.012796435505151749, 0.030603328719735146, -0.08880981057882309, 0.2684759795665741, 0.00018724167603068054, -0.24238237738609314, -0.4402766823768616, 0.027351869270205498, -0.23498208820819855, -0.1905566304922104, 0.017943410202860832, 0.23238343000411987, 0.012560460716485977, -0.08069027215242386, 0.014777901582419872, -0.41834741830825806, 0.28219059109687805, 0.07123014330863953, 0.08663350343704224, 0.0607326477766037, 0.15687106549739838, 0.07986476272344589, 0.033849094063043594, 0.1936059445142746, 0.03301351144909859, -0.044952601194381714, 0.11839087307453156, 0.12404478341341019, 0.13358348608016968, -0.01242184080183506, -0.1514744609594345, 0.08828496187925339, 0.2705759108066559, 0.14975154399871826, 0.08647122234106064, -0.08686782419681549, 0.08334216475486755, 0.18938080966472626, -0.3053533136844635, -0.011129135265946388, -0.07532012462615967, 0.20139093697071075, 0.006796569097787142, 0.04966716468334198, -0.06727816164493561, 0.028942884877324104, 0.1606103926897049, 0.10338057577610016, 0.018912330269813538, 0.029783159494400024, -0.2121811807155609, -0.18395620584487915, -0.10068284720182419, -0.2348390370607376, -0.4465492367744446, 0.12044624984264374, 0.34458979964256287, 0.06265924870967865, 0.16097629070281982, 0.07012426108121872, -0.13614407181739807, -0.2503725290298462, -0.5970731973648071, 0.1139611080288887, -0.16372095048427582, -0.07807258516550064, -0.4273833632469177, -0.018725892528891563, -0.22238865494728088, 0.336415559053421, -0.009661827236413956, -0.22828619182109833, 0.04331718012690544, -0.026557520031929016, -0.00382365845143795, -0.20014716684818268, 0.22118130326271057, -0.054842013865709305, -0.1375761777162552, 0.07400384545326233, -0.13271962106227875, 0.09548257291316986, -0.006685221567749977, -0.25347810983657837, 0.1900174766778946, 0.08565815538167953, 0.17658980190753937, -0.07246245443820953, -0.2139243185520172, 0.2370937615633011, -0.19649232923984528, 0.18223696947097778, 0.18844349682331085, 0.20514464378356934, -0.14950045943260193, -0.14370709657669067, 0.12350711226463318, 0.17567823827266693, -0.13712410628795624, -0.34968167543411255, 0.015540746971964836, -0.08710179477930069, -0.10521642118692398, -0.023498551920056343, 0.02934356965124607, 0.0346866175532341, 0.05141656845808029, 0.19539323449134827, 0.0588727667927742, 0.06718070060014725, -0.1452149748802185, 0.18009677529335022, -0.28294888138771057, 0.12273275852203369, 0.055008381605148315, -0.005836754105985165, 0.1777714490890503, 0.06069575250148773, 0.07031608372926712, 0.13922621309757233, -0.12343015521764755, -0.048195887356996536, 0.14204108715057373, 0.3300723135471344, 0.028577229008078575, -0.09613481163978577, -0.16170048713684082, -0.2690183222293854, 0.22461172938346863, 0.013295968994498253, -0.02524813823401928, -0.12076515704393387, 0.18701332807540894, 0.042566072195768356, -0.06905124336481094, -0.0033983986359089613, 0.09093619883060455, 0.05192073434591293, -0.20861883461475372, -0.03270663693547249, -0.11179620772600174, -0.15795376896858215, -0.28926315903663635, 0.4390936493873596, 0.48292022943496704, 0.4381135404109955, 0.0913219004869461, 0.19093243777751923, -0.2284148931503296, -0.09199432283639908, 0.12582121789455414, 0.030714087188243866, 0.12745778262615204, -0.13941690325737, 0.1598168909549713, 0.05531398579478264, 0.06129441037774086, 0.09578879177570343, 0.24358227849006653, -0.01429425086826086, 0.22444455325603485, 0.279562771320343, -0.13243809342384338, 0.2982277274131775, -0.030446283519268036, 0.1385044902563095, -0.11068173497915268, 0.1840701401233673, -0.03898889943957329, 0.06416023522615433, 0.2416556179523468, 0.20785103738307953, 0.14466996490955353, -0.12374524772167206, 0.13508827984333038, 0.2592778205871582, 0.1338532269001007, 0.1983059197664261, -0.24026207625865936, 0.10517992824316025, 0.004781143739819527, -0.06092291697859764, 0.3656849265098572, 0.13992203772068024, -0.14468839764595032, -0.14859060943126678, 0.014029239304363728, -0.061739757657051086, 0.20072363317012787, 0.06913896650075912, 0.44163957238197327, 0.21598805487155914, -0.07227326184511185, 0.16926629841327667, 0.1413048952817917, -0.02692701667547226, -0.37084320187568665, 0.2851709723472595, -0.4273916482925415, -0.03477645665407181, -0.06508224457502365, 0.07571401447057724, 0.1170693188905716, -0.01749546080827713, -0.21426339447498322, 0.10271928459405899, -0.34307411313056946, 0.2569026052951813, -0.14142298698425293, 0.04918365925550461, 0.29478585720062256, -0.10872580856084824, -0.260626882314682, -0.38327082991600037, 0.19642479717731476, -0.2128370851278305, -0.2295324057340622, 0.39033493399620056, -0.15270110964775085, 0.3422159254550934, -0.1576860100030899, -0.05516296625137329, -0.08139248937368393, -0.3310885727405548, 0.1144518256187439, -0.23296551406383514, 0.1982431709766388, 0.08047984540462494, -0.23224318027496338, -0.264029860496521, 0.11753212660551071, 0.35553914308547974, -0.3001902401447296, 0.236866295337677, -0.15557706356048584, 0.167575404047966, 0.41815289855003357, 0.1820981353521347, 0.08417430520057678, -0.04703931510448456, -0.19045163691043854, -0.3622932732105255, 0.12868764996528625, 0.2789746820926666, -0.07339365035295486, -0.002462196396663785, -0.06568170338869095, 0.05999204143881798, -0.32335731387138367, -0.05035669356584549, 0.27164971828460693, -0.5508120656013489, 0.11677560955286026, -0.18893980979919434, 0.14668336510658264, -0.28435805439949036, 0.13667947053909302, -0.01951778680086136, -0.19883008301258087, -0.1712753027677536, 0.41618579626083374, -0.2072126716375351, -0.23256537318229675, -0.17597348988056183, -0.1741369515657425, 0.06805787980556488, 0.4292012155056, 0.13131368160247803, -0.4840892255306244, -0.1922275871038437, -0.034043047577142715, -0.07467173039913177, -0.2562125325202942, -0.15807446837425232, 0.007945893332362175, 0.1547614336013794, -0.17391341924667358, 0.24437779188156128, 0.5454212427139282, -0.10185424238443375, 0.0025704989675432444, 0.09237655252218246, 0.4667230248451233, -0.10264471173286438, -0.08792473375797272, 0.23853576183319092, -0.19555170834064484, 0.3708859384059906, 0.3063400089740753, 0.04541512206196785, -0.019372977316379547, -0.23662061989307404, -0.10717561095952988, -0.1425609290599823, 0.07465320080518723, 0.1623435765504837, 0.0005529847694560885, 0.1490934193134308, 0.03513239324092865, -0.024853641167283058, -0.1901623159646988, -0.18546101450920105, -0.023676907643675804, 0.3151308298110962, 0.003222946310415864, -0.010141881182789803, -0.03898324817419052, -0.12696057558059692, -0.1861335039138794, -0.049862056970596313, 0.13090454041957855, -0.10399112850427628, -0.05319880321621895, 0.2949603497982025, 0.17577993869781494, -0.2515775263309479, -0.18475043773651123, 0.12554799020290375, 0.07023750990629196, -0.22705602645874023, -0.3470315933227539, 0.12904466688632965, -0.05412505567073822, 0.169453427195549, -0.12558455765247345, 0.27061814069747925, -0.18286201357841492, -0.016543110832571983, 0.09597935527563095, 0.16386227309703827, 0.07375247031450272, -0.42314958572387695, 0.06947500258684158, -0.0420265831053257, 1.0130765438079834, -0.09409185498952866, -0.3939911723136902, 0.032255902886390686, -0.049025602638721466, -0.04150433838367462, -0.04924916848540306, -0.2134091705083847, -0.21721838414669037, -0.39999058842658997, -0.05440192297101021, -0.07633688300848007, -0.4466521143913269, -0.2530811131000519, 0.1082792729139328, -0.07026775181293488, 0.21577869355678558, -0.13467839360237122, -0.006553100887686014, 0.022664207965135574, 0.21645240485668182, -0.2083900272846222, -0.0515691377222538, 0.1022651344537735, 0.0286746583878994, 0.02521432191133499, -0.02774592861533165, 0.07091830670833588, -0.09772457182407379, 0.03840615972876549, 0.028835516422986984, -0.003742016851902008, 0.14994098246097565, 0.11366664618253708, 0.1422637403011322, 0.19703541696071625, 0.15470238029956818, 0.09362953156232834, 0.12045737355947495, 0.17569999396800995, -0.35988879203796387, 0.19043834507465363, 0.08242945373058319, 0.1374518871307373, 0.3110525608062744, -0.13319240510463715, 0.036271169781684875, 0.27106544375419617, -0.18446557223796844, 0.3878873586654663, -0.060046643018722534, -0.05846512317657471, -0.1985829919576645, 0.06380555033683777, -0.16588415205478668, -0.1420254409313202, 0.1578572541475296, 0.04440291225910187, -0.0770709291100502, 0.08509521186351776, -0.2144130915403366, 0.12881991267204285, -0.0009159262990579009, 0.033950719982385635, 0.5958796143531799, 0.03729952126741409, 0.32686859369277954, -0.03355050086975098, -0.14762218296527863, 0.03604133799672127, 0.1252780705690384, -0.27733471989631653, -0.014259394258260727, -0.13624587655067444, -0.2015155553817749, 0.3165627717971802, 0.020111536607146263, 0.14757280051708221, -0.08864853531122208, 0.13293850421905518, -0.1451818346977234, -0.2313835620880127, 0.19768035411834717, 0.2738351821899414, 0.02098611369729042, -0.14729751646518707, 0.04425168037414551, -0.19726698100566864, -0.17345499992370605, -0.04860306158661842, 0.17182503640651703, 0.14107300341129303, -0.13837972283363342, 0.03320993483066559, -0.11954869329929352, -0.02588728629052639, 0.062275536358356476, -0.09623932093381882, 0.07231025397777557, -0.16698536276817322, 0.0556352436542511, 0.11051253229379654, 0.19362547993659973, 0.010289208963513374, 0.20503798127174377, 0.04549509286880493, -0.063386470079422, 0.04933328554034233, -0.00827458780258894, 0.2897820472717285, 0.24660426378250122, -0.05937463045120239, 0.2412780076265335, 0.02994351275265217, -0.059109363704919815, 0.08332864195108414, 0.16421100497245789, -0.05562574043869972, 0.10295992344617844, 0.16474442183971405, -0.2264299839735031, -0.13067768514156342, 0.014836530201137066, -0.06395601481199265, -0.055527303367853165, -0.020334642380475998, -0.2925160229206085, 0.19032709300518036, 0.6087900996208191, 0.14200665056705475, -0.86884605884552, -0.8438387513160706, 0.2594453692436218, -0.2161177396774292, 0.009098456241190434, 0.19350628554821014, 0.1693786382675171, 0.1612217277288437, -0.017505832016468048, 0.21156713366508484, -0.29739171266555786, -0.20477943122386932, 0.1988675594329834, -0.1084466427564621, -0.10742302983999252, 0.19673968851566315, -0.3385046720504761, 0.23151737451553345, -0.0906447321176529, 0.11257200688123703, -0.03992395102977753, 0.23446449637413025, -0.08214767277240753, -0.14861968159675598, 0.3710944950580597, -0.2965083420276642, 0.04073691368103027, -0.21146252751350403, 0.15607382357120514, -0.2628244161605835, 0.2576907277107239, 0.0836615189909935, 0.02633529156446457, -0.12069186568260193, -0.24541935324668884, 0.16167216002941132, -0.32455387711524963, 0.1674758344888687, 0.09010355174541473, 0.18288972973823547, 0.031923145055770874, 0.09381955116987228, -0.001879211631603539, -0.5065699815750122, -0.16790957748889923, 0.14964435994625092, 0.27810031175613403, 0.19146186113357544, -0.47231465578079224, -0.0957292765378952, -0.10842715203762054, 0.15205137431621552, -0.19446700811386108, -0.024987660348415375, -0.15740129351615906, 0.0698883980512619, -0.06457448750734329, 0.14569519460201263, -0.10714057087898254, -0.10999490320682526, -0.10544708371162415, -0.2538610100746155, -0.05986250936985016, 0.039122696965932846, -0.04821677505970001, -0.18122830986976624, 0.008797946386039257, -0.5022779107093811, 0.056170959025621414, -0.17711468040943146, -0.19248418509960175, -0.3768655061721802, -1.358548641204834, -0.9275653958320618, -0.18383851647377014, -0.3535258173942566, -0.10450370609760284, 0.04473277926445007, 0.06908194720745087, 0.030450422316789627, -0.21740861237049103, 0.08230221271514893, -0.3276890218257904, -0.08145840466022491, 0.075779490172863, 0.12182851880788803, 0.18390801548957825, 0.20698997378349304, -0.07519029825925827, -0.19514690339565277, 0.24605706334114075, -0.1807742565870285, -0.49704509973526, 0.03700483590364456, 0.34542950987815857, -0.09629299491643906, -0.13804522156715393, -0.3396133482456207, -0.16261276602745056, -0.2042241096496582, 0.15671178698539734, -0.0266734566539526, -0.37275922298431396, -0.20252163708209991, -0.2443283051252365, 0.053776051849126816, 0.2573487460613251, 0.22878718376159668, -0.1571943759918213, -0.24884836375713348, -0.07538668811321259, -0.19905982911586761, -0.18331052362918854, -0.3413335084915161, -0.039932731539011, -0.05896777659654617, 0.13586869835853577, -0.1112644150853157, 0.062380947172641754, -0.27325206995010376, 0.1469610184431076, 0.09982966631650925, 0.15105369687080383, -0.02593311294913292, -0.0830129086971283, -0.06349960714578629, -0.6369493007659912, -0.17209528386592865, -0.6799762845039368, 0.17908693850040436, 0.15048252046108246, -0.2709079682826996, 0.20256349444389343, 0.020317144691944122, 0.028068415820598602, 0.040401916950941086, 0.08986658602952957, 0.012214734219014645, 0.32348763942718506, -0.11910243332386017, 0.34655192494392395, -0.1438813954591751, 0.07567672431468964, 0.28609052300453186, 0.2296294867992401, 0.03587344288825989, -0.06710986793041229, -0.013125165365636349, -0.25223609805107117, -0.05159791186451912, -0.06825640797615051, 0.18860720098018646, -0.16964036226272583, 0.35002052783966064, -0.05444763973355293, 0.20457985997200012, -0.0705951452255249, 0.09988505393266678, 0.05604272708296776, -0.009122268296778202, 0.048971351236104965, 0.30712980031967163, -0.06526759266853333, 0.2014525681734085, 0.2816667854785919, 0.26022011041641235, 0.09869154542684555, 0.09586842358112335, 0.10453220456838608, 0.04725949093699455, -0.16558712720870972, -0.009333766996860504, 0.11962314695119858, 0.03978205472230911, 0.008689393289387226, 0.1527004987001419, -0.07801699638366699, 0.012777749449014664, -0.06542731076478958, 0.05857858434319496, 0.12912800908088684, 0.08722583949565887, -0.06032230705022812, -7.89092227932997e-05, 0.1994626522064209, 0.2259007841348648, -0.1656924933195114, -0.03584994748234749, -0.18977265059947968, -0.049161821603775024, -0.18003037571907043, 0.01506662368774414, -0.180916890501976, 0.37311479449272156, -0.0856294333934784, -0.13756580650806427, 0.10895880311727524, 0.20738600194454193, -0.02636917121708393, 0.1124938577413559, 0.08391031622886658, -0.04620549455285072, -0.07692182809114456, 0.05585228279232979, -0.015704801306128502, 0.07122308015823364, 0.45115914940834045, 0.03807491809129715, 0.24658779799938202, -0.37534868717193604, 0.38548827171325684, -0.1871996372938156, -0.4155130088329315, -0.15322436392307281, -0.08373284339904785, 0.017847862094640732, -0.2808660864830017, -0.05857744440436363, 0.12044085562229156, -0.01568491756916046, 0.48382633924484253, 0.3262128531932831, 0.16284926235675812, -0.1681806445121765, -0.051920335739851, 0.027405908331274986, 0.17276498675346375, 0.24769306182861328, -0.03980087861418724, 0.11959831416606903, 0.4146741032600403, -0.05751706659793854, -0.33092227578163147, 0.32320764660835266, 0.1749522089958191, -0.20607370138168335, 0.10320047289133072, -0.07930421084165573, -0.10946273803710938, 0.020436812192201614, 0.39417657256126404, 0.3416977524757385, 0.07030206173658371, -0.03339976444840431, 0.2568337023258209, -0.2300844043493271, -0.028245842084288597, -0.4555833637714386, -0.12959834933280945, 0.0803624764084816, 0.5663594007492065, -0.1330530345439911, 0.07411570101976395, -0.14129061996936798, 0.16023048758506775, -0.2045738399028778, -0.07510844618082047, 0.20012222230434418, -0.21576927602291107, -0.0734587013721466, 0.07933040708303452, 0.0448431596159935, 0.1366378515958786, -0.20440375804901123, -0.4106982946395874, 0.013439685106277466, 0.0360662043094635, -0.08062264323234558, 0.10236486792564392, 0.03290291130542755, 0.28109675645828247, 0.01720264181494713, -0.0898175910115242, 0.12816010415554047, -0.03434694930911064, 0.12078347057104111, -0.08139324933290482, 0.027417544275522232, 0.1215670183300972, -0.21339580416679382, 0.11442790180444717, 0.23739098012447357, 0.049924809485673904, 0.0776972696185112, 0.10104219615459442, 0.05659038946032524, 0.1717749685049057, 0.22687889635562897, 0.2433050274848938, -0.26920008659362793, -0.15457305312156677, 0.08569979667663574, 0.05641388148069382, -0.19391176104545593, 0.2924022972583771, 0.028828034177422523, -0.013124451041221619, -0.07471606880426407, -0.15220661461353302, 0.18294376134872437, -0.08810092508792877, -0.16006439924240112, -0.21835383772850037, 0.05133063718676567, -0.09427302330732346, -0.10296853631734848, -0.16578936576843262, -0.08312460035085678, 0.15025533735752106, 0.2642439901828766, 0.08438543230295181, 0.45247939229011536, 0.06581144779920578, -0.1964968889951706, -0.0312783420085907, 0.4724442958831787, 0.044257186353206635, -0.1892794966697693, 0.06411614269018173, 0.08570954203605652, -0.09240774810314178, -0.15517041087150574, -0.04442190006375313, 0.0062293740920722485, 0.1346847265958786, 0.09128668904304504, -0.16575676202774048, 0.026477854698896408, -0.1620037853717804, 0.11655139178037643, -0.2439286708831787, -0.03080838918685913, -0.22511577606201172, -0.323138028383255, 0.33462879061698914, -0.005608422216027975, 0.06988857686519623, 0.2661875784397125, 0.19618532061576843, 0.11286013573408127, 0.1022295206785202, -0.31576764583587646, 0.10725405812263489, -0.12090103328227997, 0.02170179970562458, 0.08029313385486603, 0.0704641342163086, -0.1869831085205078, -0.18202240765094757, -0.02654491737484932, -0.10128584504127502, 0.02759779803454876, 0.030896710231900215, -0.18473052978515625, 0.1458856463432312, -0.11726044863462448, 0.09551560878753662, -0.06110459938645363, 0.11650755256414413, -0.09485777467489243, -0.02357349917292595, -0.12805506587028503, 0.08426840603351593, 0.3644111454486847, 0.05601222440600395, 0.08267776668071747, 0.02197500318288803, 0.03945350646972656, -0.009002541191875935, -0.018213743343949318, -0.008132199756801128, 0.05158979073166847, 0.26715555787086487, 0.07012424618005753, 0.018280018121004105, 0.17452090978622437, -0.2379436194896698, 0.18415507674217224, -0.1200500875711441, -0.20894309878349304, -0.18432873487472534, -0.17666351795196533, -0.15228688716888428, -0.1954878270626068, -0.01768423803150654, 2.9467884814948775e-05, -0.2225741595029831, -0.12215548753738403, -0.22567027807235718, 0.005816706921905279, 0.024542318657040596, 0.11612657457590103, -0.023050347343087196, 0.10964097827672958, -0.16117168962955475, 0.06156713142991066, -0.281671404838562, 0.26680606603622437, 0.08822470158338547, 0.11714417487382889, -0.008089348673820496, -0.02601439319550991, 0.15668988227844238, 0.29921644926071167, 0.1445664018392563, 0.18850521743297577, 0.33038970828056335, -0.19038403034210205, -0.4625099003314972, -0.34870433807373047, -0.08509218692779541, -0.1992483288049698, 0.3918282389640808, 0.293876588344574, -0.2984197437763214, 0.09795615077018738, 0.5140253305435181, -0.07466680556535721, 0.04297530651092529, 0.31683987379074097, -0.04662320017814636, 0.15676578879356384, -0.029212143272161484, 0.014659876003861427, -0.2730449140071869, -0.05972426012158394, 0.05207835137844086, 0.15828627347946167, -0.0874796062707901, -0.2415502667427063, -0.37208041548728943, 0.2537209391593933, -0.041305918246507645, 0.0036787991411983967, 0.17392149567604065, 0.3148205280303955, 0.04136289656162262, -0.10193318873643875, -0.01837344840168953, 0.050929244607686996, -0.2391149401664734, -0.2847077548503876, -0.09654931724071503, -0.0723547637462616, 0.05102183669805527, 0.08152937889099121, 0.0998806357383728, -0.11841332912445068, -0.009432083927094936, 0.09498291462659836, 0.1388912796974182, -0.27146345376968384, 0.2798565626144409, -0.10331398993730545, 0.023126620799303055, -0.18052956461906433, 0.2569553852081299, 0.207826629281044, -0.06626037508249283, 0.318593829870224, 0.1363573670387268, 0.02041836455464363, 0.11723271757364273, -0.38711631298065186, -0.43815886974334717, 0.1998755931854248, -0.22492313385009766, -0.03309328481554985, -0.21383140981197357, 0.1826922595500946, -0.08226454257965088, 0.23378843069076538, -0.015429463237524033, 0.09829667210578918, 0.08822467178106308, -0.049088217318058014, 0.06929512321949005, 0.1407446414232254, -0.08624667674303055, -0.05180155858397484, -0.20294149219989777, -0.11221181601285934, 0.21591895818710327, -0.15882042050361633, -0.4128468632698059, -0.02590719610452652, -0.027300942689180374, 0.026467662304639816, -0.22679205238819122, 0.06377623975276947, 0.13287189602851868, 0.21748265624046326, 0.34366175532341003, 0.08286990225315094, 0.0786067321896553, -0.07126036286354065, -0.2830463647842407, 0.007157228421419859, 0.19780059158802032, -0.1373508870601654, 0.01951177977025509, -0.03532993048429489, -0.15438595414161682, -0.003174631157889962, 0.12269890308380127, -0.016116822138428688, 0.010327358730137348, 0.02889975532889366, 0.06595122814178467, -0.02622172050178051, -0.24185656011104584, 0.04802520200610161, 0.3253202438354492, -0.023409172892570496, -0.16077548265457153, -0.13423889875411987, -0.0643371194601059, -0.007488693576306105, 0.11207837611436844, 0.24846802651882172, 0.1268794685602188, -0.12221731245517731, 0.020808974280953407, -0.04564634710550308, -0.14200308918952942, -0.017896290868520737, 0.05519187077879906, -0.30568695068359375, 0.034907709807157516, 0.08069846034049988, -0.008556172251701355, 0.13710179924964905, -0.06363243609666824, 0.151473268866539, -0.10479827970266342, 0.1484798938035965, 0.0753149539232254, -0.16840502619743347, 0.1338866502046585, 0.2272413820028305, 0.18144537508487701, -0.01378725003451109, -0.04502686485648155, 0.03736623376607895, 0.09493988752365112, -0.23065799474716187, -0.019815105944871902, 0.1552891582250595, 0.32431334257125854, -0.20906466245651245, 0.48295921087265015, -0.010600549168884754, 0.44382786750793457, 0.07228677719831467, -0.09623146802186966, -0.19968004524707794, -0.04007534682750702, 0.025122666731476784, 0.1997644454240799, -0.06878182291984558, 0.22022892534732819, -0.05354614555835724, -0.44806891679763794, -0.15256381034851074, -0.02509688399732113, -0.13736216723918915, 0.09509139508008957, -0.07385808229446411, 0.10127252340316772, 0.05562334135174751, -0.18040980398654938, -0.27707335352897644, -0.19292445480823517, -0.14913558959960938, 0.16561919450759888, -0.11073055863380432, -0.02735356241464615, 0.24257560074329376, -0.038099415600299835, 0.07321792095899582, 0.10051136463880539, 0.07069272547960281, 0.1403261423110962, 0.08696620166301727, 0.06401874125003815, -0.056714605540037155, -0.06910016387701035, -0.07392437756061554, -0.11276800185441971, 0.03588861599564552, -0.13924099504947662, 0.01915079914033413, -0.17204347252845764, 0.08978554606437683, 0.18453872203826904, -0.00403467146679759, -0.14906282722949982, -0.015582393854856491, -0.0022591366432607174, 0.12106668949127197, 0.08168808370828629, 0.02422201819717884, -0.018010934814810753, -0.09457867592573166, 0.08495507389307022, -0.12986427545547485, 0.003129547229036689, 0.14280593395233154, 0.13343563675880432, 0.1968451589345932, -0.11589287966489792, 0.07667351514101028, 0.1167810708284378, -0.13473987579345703, 0.030051538720726967, -0.1741539090871811, -0.25345465540885925, -0.03946151211857796, -0.185458242893219, -0.07122943550348282, 0.5723047852516174, -0.12102345377206802, 0.1995847225189209, 0.0454723946750164, -0.10459022969007492, 0.1266724020242691, 0.23003873229026794, -0.04260849580168724, 0.38209962844848633, -0.08199967443943024, -0.08163972198963165, 0.07816802710294724, -0.09780848026275635, -0.05914109945297241, -0.05195055902004242, 0.04766667261719704, -0.03268956020474434, -0.11776690930128098, -0.0650104358792305, -0.029758648946881294, -0.11122656613588333, 0.09353835880756378, -0.1408606469631195, 0.017891233786940575, -0.0984620600938797, -0.033625535666942596, -0.2946600914001465, -0.07309859246015549, -0.20055514574050903, -0.11090683192014694, -0.014551469124853611, 0.0004962410894222558, 0.016498146578669548, -0.05863706022500992, 0.1453908532857895, -0.09783442318439484, 0.10841921716928482, 0.1789843738079071, -0.2597903907299042, 0.044327665120363235, -0.13762298226356506, -0.25970277190208435, -0.018994247540831566, -0.19737321138381958, -0.03322240337729454, -0.040339913219213486, -0.23089978098869324, -0.2122907191514969, 0.13099810481071472, 0.0891825258731842, 0.34277307987213135, 0.24575276672840118, 0.1388719081878662, 0.2105543166399002, 0.025944644585251808, 0.10066282749176025, -0.06437860429286957, -0.08763600885868073, 0.18711699545383453, 0.3652054965496063, 0.10279913246631622, -0.22905002534389496, 0.4797387719154358, -0.3030913174152374, 0.40470683574676514, 0.15825232863426208, -0.29827213287353516, 0.3219950795173645, -0.02872445620596409, 0.2820614278316498, -0.09503061324357986, -0.24884705245494843, -0.2441156655550003, -0.03140940144658089, -0.318922758102417, 0.1691664457321167, -0.42367783188819885, -0.10136444121599197, -0.8388011455535889, -0.01702643744647503, -0.07961076498031616, -0.22144143283367157, 0.15311811864376068, -0.1045335903763771, 0.24310697615146637, -0.19653438031673431, 0.4140377938747406, -0.4487539827823639, 0.2759658098220825, 0.13080410659313202, 0.22934500873088837, 0.022475754842162132, -0.13601721823215485, 0.03663145750761032, -0.1194588914513588, -0.0624660924077034, 0.015945225954055786, 0.0682753175497055, 0.029832173138856888, -0.1620650440454483, 0.03246162086725235, -0.17633473873138428, 0.10007578879594803, 0.22147224843502045, 0.2654135823249817, 0.05561109632253647, 0.0707617700099945, -0.07595047354698181, -0.2397949993610382, 0.07670080661773682, -0.3373570740222931, -0.11191370338201523, 0.06792407482862473, 0.1833830624818802, 0.385548859834671, -0.024519162252545357, 0.09067671000957489, -0.17394424974918365, 0.18421094119548798, -0.014527486637234688, -0.2939206063747406, 0.0729486420750618, -0.19631531834602356, -0.29491332173347473, 0.04003520682454109, -0.12635518610477448, 0.006809791084378958, 0.036409419029951096, -0.015026379376649857, -0.15024398267269135, 0.09203862398862839, -0.20832479000091553, 0.2608448266983032, -0.07131543010473251, 0.8752549290657043, -0.045920126140117645, -0.5599202513694763, 0.22463326156139374, 0.1335567981004715, -0.010734752751886845, -0.0679694190621376, 0.4271574914455414, -0.0664539635181427, -0.14303000271320343, -0.1220504641532898, -0.009556155651807785, -0.6895995140075684, 0.13048212230205536, 0.03362095728516579, 0.4570794403553009, 0.029918532818555832, 0.06362118571996689, -0.02142251655459404, 0.12025970220565796, 0.20551759004592896, 0.029906073585152626, -0.14059783518314362, 0.0010033926228061318, 0.12382625043392181, 0.10031094402074814, 0.06432679295539856, 0.03715602308511734, 0.03425426781177521, 0.0971887931227684, 0.0269263107329607, 0.029096057638525963, 0.020228654146194458, 0.02302931621670723, -0.04549502581357956, -0.02357320860028267, 0.04241378232836723, -0.03890075907111168, 0.04122741520404816, 0.11194302886724472, -0.11437509953975677, -0.0032444007229059935, -0.2631751298904419, 0.3896838128566742, 0.10632720589637756, 0.14149902760982513, 0.3693411350250244, 0.10323527455329895, -0.08862009644508362, 0.0025526240933686495, -0.09698247164487839, 0.1508120894432068, 0.16535116732120514, -0.1367587000131607, -0.08908174932003021, -0.2652760148048401, 0.05174875259399414, -0.1439971625804901, 0.006396343931555748, 0.01870005950331688, -0.04089311510324478, -0.2496231198310852, -0.2653614282608032, 0.14300133287906647, -0.406423956155777, -0.0998411700129509, -0.08360458165407181, 0.01938031241297722, 0.17821453511714935, 0.023318134248256683, 0.14165498316287994, -0.1288030594587326, 0.012239675968885422, 0.018074002116918564, -0.29698342084884644, 0.6195974946022034, -0.29508861899375916, -0.09699653089046478, 0.36519166827201843, 0.4018630385398865, -0.3052448332309723, 0.07730564475059509, 0.18272072076797485, -0.02315852977335453, 0.07708833366632462, 0.07245493680238724, -0.16291242837905884, 0.7715708613395691, 0.3206530809402466, 0.18177424371242523, 0.09059705585241318, -0.031495559960603714, -0.15737277269363403, 0.03083212673664093, -0.038632024079561234, -0.15497855842113495, -0.001806315965950489, -0.006452667061239481, 0.02514779195189476, -0.0053202323615550995, -0.0811389610171318, -0.025985492393374443, 0.0830109715461731, -0.06267279386520386, -0.014600939117372036, -0.10264808684587479, 0.07889658212661743, -0.20574969053268433, 0.029345184564590454, 0.19611665606498718, -0.12245339900255203, 0.17948846518993378, 0.16209617257118225, -0.04773323982954025, -0.19703401625156403, -0.18618839979171753, 0.05005907639861107, 0.20707260072231293, -0.2580547332763672, 0.45062196254730225, -0.06466148793697357, 0.050843656063079834, -0.11543849855661392, -0.35745522379875183, -0.09473205357789993, -0.09990503638982773, 0.12192672491073608, 0.3953125476837158, -0.020596923306584358, 0.05552024021744728, -0.3055858612060547, 0.007596887648105621, -0.4890523850917816, -0.23150420188903809, -0.42165905237197876, -0.3737720847129822, 0.06958412379026413, 0.08851713687181473, 0.18108804523944855, 0.0018318883376196027, 0.09694752842187881, -0.18095599114894867, -0.0854344367980957, -0.14695480465888977, 0.08287055790424347, 0.3265042304992676, 0.2077527493238449, -0.5345789194107056, -0.3124244809150696, -0.29889681935310364, -0.16921120882034302, -0.31384825706481934, 0.5300961136817932, 0.09746973216533661, -0.33400675654411316, -0.29683783650398254, 0.031108688563108444, 0.44746533036231995, -0.08699064701795578, -0.40044814348220825, -0.2946532964706421, -0.03433557599782944, 0.20450139045715332, -0.06551654636859894, 0.2453872263431549, -0.02244245447218418, 0.021772732958197594, 0.3467063307762146, -0.007527696434408426, -0.1577386111021042, -0.18001779913902283, -0.0005994417588226497, -0.41810324788093567, -0.04626819118857384, 0.16557471454143524, -0.39577946066856384, 0.10912758111953735, 0.08206147700548172, 0.05319416895508766, 0.24579890072345734, -0.16195009648799896, -0.3937367796897888, 0.015992239117622375, -0.024308927357196808, 0.16494964063167572, 0.1332935392856598, -0.3231196105480194, -0.1478186696767807, 0.2889602482318878, 0.09112735092639923, -0.1409367173910141, 0.05572110041975975, -0.09677650779485703, -0.26422959566116333, 0.03942881524562836, -0.12476224452257156, 0.04525963217020035, -0.199438214302063, 0.17474742233753204, 0.10230904817581177, 0.33485665917396545, 0.19491727650165558, -0.9904581308364868, -0.1474207639694214, 0.39621230959892273, 0.1748826503753662, -0.2840215563774109, -0.1632237285375595, -0.09964246302843094, 0.00765744736418128, -0.0179465152323246, -0.19981570541858673, 0.1946668177843094, -0.01062591839581728, -0.0963808223605156, 0.127639502286911, 0.16080977022647858, 0.02930791862308979, 0.11869179457426071, 0.12483050674200058, -0.3333278000354767, -0.3967486321926117, -0.16008739173412323, 0.23753389716148376, 0.08856691420078278, -0.21503329277038574, 0.09835612773895264, 0.2515309453010559, -0.2078973352909088, 0.003732983022928238, -0.10536165535449982, -0.14652740955352783, -0.11552572250366211, 0.0023783049546182156, 0.029736755415797234, -0.10445588827133179, 0.10513271391391754, 0.02906566672027111, 0.03425728529691696, -0.0573158785700798, -0.2181156873703003, -0.13323761522769928, -0.013203890062868595, -0.12127939611673355, -0.026879455894231796, -0.19706526398658752, -0.045188020914793015, 0.29611819982528687, -0.3007255792617798, -0.0350177064538002, -0.21024563908576965, -0.2123577892780304, -0.18157131969928741, -0.021349741145968437, -0.08682676404714584, 0.06049995869398117, -0.0754600539803505, -0.02155490592122078, 0.21130754053592682, -0.1208687424659729, -0.043343182653188705, -0.21010878682136536, 0.14974205195903778, 0.017407210543751717, 0.07140646874904633, 0.24985940754413605, -0.37823694944381714, 0.21941368281841278, -0.15880994498729706, 0.11562449485063553, -0.4583852291107178, -0.45400649309158325, -0.00940128043293953, -0.23993806540966034, -0.008094051852822304, 0.05469585955142975, 0.1735302358865738, -0.2172130048274994, 0.08462999761104584, 0.2262992113828659, -0.4097345769405365, 0.07919168472290039, -0.35632801055908203, 0.2135217785835266, 0.09118155390024185, -0.25153347849845886, -0.20875145494937897, -0.21527211368083954, 0.16767889261245728, 0.23326097428798676, -0.09625085443258286, -0.5151470303535461, 0.4873799979686737, -0.07012239843606949, 0.2351779192686081, -0.09625180065631866, -0.23260027170181274, -0.43919646739959717, 0.15301388502120972, -0.014622114598751068, -0.06388721615076065, -0.15153038501739502, 0.2225549817085266, 0.04489191621541977, 0.21359345316886902, 0.19329865276813507, 0.03814723342657089, 0.06069439277052879, -0.1482245773077011, 0.08005334436893463, -0.28640487790107727, 0.0853431299328804, -0.020543208345770836, 